digraph Tree {
node [shape=box, style="filled, rounded", color="black", fontname="helvetica"] ;
edge [fontname="helvetica"] ;
0 [label=<Inflight entertainment &le; 3.5<br/>entropy = 0.994<br/>samples = 77692<br/>value = [35163, 42529]<br/>class = satisfied>, fillcolor="#ddeefa"] ;
1 [label=<Seat comfort &le; 3.5<br/>entropy = 0.752<br/>samples = 34804<br/>value = [27294, 7510]<br/>class = dissatisfied>, fillcolor="#eca46f"] ;
0 -> 1 [labeldistance=2.5, labelangle=45, headlabel="True"] ;
2 [label=<Seat comfort &le; 0.5<br/>entropy = 0.598<br/>samples = 30462<br/>value = [26035, 4427]<br/>class = dissatisfied>, fillcolor="#e9965b"] ;
1 -> 2 ;
3 [label=<Online boarding &le; 0.5<br/>entropy = 0.031<br/>samples = 1594<br/>value = [5, 1589]<br/>class = satisfied>, fillcolor="#3a9de5"] ;
2 -> 3 ;
4 [label=<entropy = 0.0<br/>samples = 5<br/>value = [5, 0]<br/>class = dissatisfied>, fillcolor="#e58139"] ;
3 -> 4 ;
5 [label=<entropy = 0.0<br/>samples = 1589<br/>value = [0, 1589]<br/>class = satisfied>, fillcolor="#399de5"] ;
3 -> 5 ;
6 [label=<Class &le; 2.5<br/>entropy = 0.464<br/>samples = 28868<br/>value = [26030, 2838]<br/>class = dissatisfied>, fillcolor="#e88f4f"] ;
2 -> 6 ;
7 [label=<Flight Distance &le; 1002.5<br/>entropy = 0.283<br/>samples = 19470<br/>value = [18512, 958]<br/>class = dissatisfied>, fillcolor="#e68843"] ;
6 -> 7 ;
8 [label=<Type of Travel &le; 0.5<br/>entropy = 0.834<br/>samples = 1004<br/>value = [738, 266]<br/>class = dissatisfied>, fillcolor="#eeae80"] ;
7 -> 8 ;
9 [label=<Age &le; 41.5<br/>entropy = 0.952<br/>samples = 277<br/>value = [103, 174]<br/>class = satisfied>, fillcolor="#aed7f4"] ;
8 -> 9 ;
10 [label=<On-board service &le; 4.5<br/>entropy = 0.222<br/>samples = 56<br/>value = [54, 2]<br/>class = dissatisfied>, fillcolor="#e68640"] ;
9 -> 10 ;
11 [label=<entropy = 0.0<br/>samples = 44<br/>value = [44, 0]<br/>class = dissatisfied>, fillcolor="#e58139"] ;
10 -> 11 ;
12 [label=<Ease of Online booking &le; 4.5<br/>entropy = 0.65<br/>samples = 12<br/>value = [10, 2]<br/>class = dissatisfied>, fillcolor="#ea9a61"] ;
10 -> 12 ;
13 [label=<entropy = 0.0<br/>samples = 8<br/>value = [8, 0]<br/>class = dissatisfied>, fillcolor="#e58139"] ;
12 -> 13 ;
14 [label=<Departure/Arrival time convenient &le; 3.5<br/>entropy = 1.0<br/>samples = 4<br/>value = [2, 2]<br/>class = dissatisfied>, fillcolor="#ffffff"] ;
12 -> 14 ;
15 [label=<entropy = 0.0<br/>samples = 2<br/>value = [0, 2]<br/>class = satisfied>, fillcolor="#399de5"] ;
14 -> 15 ;
16 [label=<entropy = 0.0<br/>samples = 2<br/>value = [2, 0]<br/>class = dissatisfied>, fillcolor="#e58139"] ;
14 -> 16 ;
17 [label=<Gate location &le; 3.5<br/>entropy = 0.763<br/>samples = 221<br/>value = [49, 172]<br/>class = satisfied>, fillcolor="#71b9ec"] ;
9 -> 17 ;
18 [label=<Departure/Arrival time convenient &le; 3.5<br/>entropy = 0.438<br/>samples = 177<br/>value = [16, 161]<br/>class = satisfied>, fillcolor="#4da7e8"] ;
17 -> 18 ;
19 [label=<Checkin service &le; 1.5<br/>entropy = 0.169<br/>samples = 159<br/>value = [4, 155]<br/>class = satisfied>, fillcolor="#3ea0e6"] ;
18 -> 19 ;
20 [label=<Flight Distance &le; 881.5<br/>entropy = 0.579<br/>samples = 29<br/>value = [4, 25]<br/>class = satisfied>, fillcolor="#59ade9"] ;
19 -> 20 ;
21 [label=<Flight Distance &le; 740.5<br/>entropy = 0.235<br/>samples = 26<br/>value = [1, 25]<br/>class = satisfied>, fillcolor="#41a1e6"] ;
20 -> 21 ;
22 [label=<entropy = 0.0<br/>samples = 19<br/>value = [0, 19]<br/>class = satisfied>, fillcolor="#399de5"] ;
21 -> 22 ;
23 [label=<Flight Distance &le; 753.0<br/>entropy = 0.592<br/>samples = 7<br/>value = [1, 6]<br/>class = satisfied>, fillcolor="#5aade9"] ;
21 -> 23 ;
24 [label=<entropy = 0.0<br/>samples = 1<br/>value = [1, 0]<br/>class = dissatisfied>, fillcolor="#e58139"] ;
23 -> 24 ;
25 [label=<entropy = 0.0<br/>samples = 6<br/>value = [0, 6]<br/>class = satisfied>, fillcolor="#399de5"] ;
23 -> 25 ;
26 [label=<entropy = 0.0<br/>samples = 3<br/>value = [3, 0]<br/>class = dissatisfied>, fillcolor="#e58139"] ;
20 -> 26 ;
27 [label=<entropy = 0.0<br/>samples = 130<br/>value = [0, 130]<br/>class = satisfied>, fillcolor="#399de5"] ;
19 -> 27 ;
28 [label=<Flight Distance &le; 773.0<br/>entropy = 0.918<br/>samples = 18<br/>value = [12, 6]<br/>class = dissatisfied>, fillcolor="#f2c09c"] ;
18 -> 28 ;
29 [label=<Food and drink &le; 3.5<br/>entropy = 0.592<br/>samples = 7<br/>value = [1, 6]<br/>class = satisfied>, fillcolor="#5aade9"] ;
28 -> 29 ;
30 [label=<entropy = 0.0<br/>samples = 6<br/>value = [0, 6]<br/>class = satisfied>, fillcolor="#399de5"] ;
29 -> 30 ;
31 [label=<entropy = 0.0<br/>samples = 1<br/>value = [1, 0]<br/>class = dissatisfied>, fillcolor="#e58139"] ;
29 -> 31 ;
32 [label=<entropy = 0.0<br/>samples = 11<br/>value = [11, 0]<br/>class = dissatisfied>, fillcolor="#e58139"] ;
28 -> 32 ;
33 [label=<Food and drink &le; 3.5<br/>entropy = 0.811<br/>samples = 44<br/>value = [33, 11]<br/>class = dissatisfied>, fillcolor="#eeab7b"] ;
17 -> 33 ;
34 [label=<entropy = 0.0<br/>samples = 32<br/>value = [32, 0]<br/>class = dissatisfied>, fillcolor="#e58139"] ;
33 -> 34 ;
35 [label=<Online boarding &le; 4.0<br/>entropy = 0.414<br/>samples = 12<br/>value = [1, 11]<br/>class = satisfied>, fillcolor="#4ba6e7"] ;
33 -> 35 ;
36 [label=<entropy = 0.0<br/>samples = 10<br/>value = [0, 10]<br/>class = satisfied>, fillcolor="#399de5"] ;
35 -> 36 ;
37 [label=<Checkin service &le; 4.5<br/>entropy = 1.0<br/>samples = 2<br/>value = [1, 1]<br/>class = dissatisfied>, fillcolor="#ffffff"] ;
35 -> 37 ;
38 [label=<entropy = 0.0<br/>samples = 1<br/>value = [1, 0]<br/>class = dissatisfied>, fillcolor="#e58139"] ;
37 -> 38 ;
39 [label=<entropy = 0.0<br/>samples = 1<br/>value = [0, 1]<br/>class = satisfied>, fillcolor="#399de5"] ;
37 -> 39 ;
40 [label=<Online boarding &le; 4.5<br/>entropy = 0.548<br/>samples = 727<br/>value = [635.0, 92.0]<br/>class = dissatisfied>, fillcolor="#e99356"] ;
8 -> 40 ;
41 [label=<Online support &le; 4.5<br/>entropy = 0.477<br/>samples = 693<br/>value = [622, 71]<br/>class = dissatisfied>, fillcolor="#e88f50"] ;
40 -> 41 ;
42 [label=<Inflight entertainment &le; 2.5<br/>entropy = 0.409<br/>samples = 671<br/>value = [616.0, 55.0]<br/>class = dissatisfied>, fillcolor="#e78c4b"] ;
41 -> 42 ;
43 [label=<Seat comfort &le; 1.5<br/>entropy = 0.671<br/>samples = 216<br/>value = [178, 38]<br/>class = dissatisfied>, fillcolor="#eb9c63"] ;
42 -> 43 ;
44 [label=<entropy = 0.0<br/>samples = 46<br/>value = [46, 0]<br/>class = dissatisfied>, fillcolor="#e58139"] ;
43 -> 44 ;
45 [label=<Departure/Arrival time convenient &le; 3.5<br/>entropy = 0.767<br/>samples = 170<br/>value = [132, 38]<br/>class = dissatisfied>, fillcolor="#eca572"] ;
43 -> 45 ;
46 [label=<Flight Distance &le; 103.5<br/>entropy = 0.547<br/>samples = 103<br/>value = [90, 13]<br/>class = dissatisfied>, fillcolor="#e99356"] ;
45 -> 46 ;
47 [label=<Checkin service &le; 2.5<br/>entropy = 0.985<br/>samples = 7<br/>value = [3, 4]<br/>class = satisfied>, fillcolor="#cee6f8"] ;
46 -> 47 ;
48 [label=<entropy = 0.0<br/>samples = 3<br/>value = [3, 0]<br/>class = dissatisfied>, fillcolor="#e58139"] ;
47 -> 48 ;
49 [label=<entropy = 0.0<br/>samples = 4<br/>value = [0, 4]<br/>class = satisfied>, fillcolor="#399de5"] ;
47 -> 49 ;
50 [label=<Age &le; 43.5<br/>entropy = 0.449<br/>samples = 96<br/>value = [87, 9]<br/>class = dissatisfied>, fillcolor="#e88e4d"] ;
46 -> 50 ;
51 [label=<entropy = 0.0<br/>samples = 30<br/>value = [30, 0]<br/>class = dissatisfied>, fillcolor="#e58139"] ;
50 -> 51 ;
52 [label=<Age &le; 54.5<br/>entropy = 0.575<br/>samples = 66<br/>value = [57, 9]<br/>class = dissatisfied>, fillcolor="#e99558"] ;
50 -> 52 ;
53 [label=<Online boarding &le; 1.5<br/>entropy = 0.753<br/>samples = 37<br/>value = [29, 8]<br/>class = dissatisfied>, fillcolor="#eca470"] ;
52 -> 53 ;
54 [label=<entropy = 0.0<br/>samples = 9<br/>value = [9, 0]<br/>class = dissatisfied>, fillcolor="#e58139"] ;
53 -> 54 ;
55 [label=<Food and drink &le; 2.5<br/>entropy = 0.863<br/>samples = 28<br/>value = [20, 8]<br/>class = dissatisfied>, fillcolor="#efb388"] ;
53 -> 55 ;
56 [label=<Food and drink &le; 1.5<br/>entropy = 0.997<br/>samples = 15<br/>value = [8, 7]<br/>class = dissatisfied>, fillcolor="#fcefe6"] ;
55 -> 56 ;
57 [label=<Flight Distance &le; 463.0<br/>entropy = 0.592<br/>samples = 7<br/>value = [6, 1]<br/>class = dissatisfied>, fillcolor="#e9965a"] ;
56 -> 57 ;
58 [label=<entropy = 0.0<br/>samples = 1<br/>value = [0, 1]<br/>class = satisfied>, fillcolor="#399de5"] ;
57 -> 58 ;
59 [label=<entropy = 0.0<br/>samples = 6<br/>value = [6, 0]<br/>class = dissatisfied>, fillcolor="#e58139"] ;
57 -> 59 ;
60 [label=<Age &le; 47.0<br/>entropy = 0.811<br/>samples = 8<br/>value = [2, 6]<br/>class = satisfied>, fillcolor="#7bbeee"] ;
56 -> 60 ;
61 [label=<entropy = 0.0<br/>samples = 4<br/>value = [0, 4]<br/>class = satisfied>, fillcolor="#399de5"] ;
60 -> 61 ;
62 [label=<Flight Distance &le; 515.0<br/>entropy = 1.0<br/>samples = 4<br/>value = [2, 2]<br/>class = dissatisfied>, fillcolor="#ffffff"] ;
60 -> 62 ;
63 [label=<entropy = 0.0<br/>samples = 1<br/>value = [1, 0]<br/>class = dissatisfied>, fillcolor="#e58139"] ;
62 -> 63 ;
64 [label=<Ease of Online booking &le; 3.5<br/>entropy = 0.918<br/>samples = 3<br/>value = [1, 2]<br/>class = satisfied>, fillcolor="#9ccef2"] ;
62 -> 64 ;
65 [label=<Online support &le; 3.5<br/>entropy = 1.0<br/>samples = 2<br/>value = [1, 1]<br/>class = dissatisfied>, fillcolor="#ffffff"] ;
64 -> 65 ;
66 [label=<entropy = 0.0<br/>samples = 1<br/>value = [1, 0]<br/>class = dissatisfied>, fillcolor="#e58139"] ;
65 -> 66 ;
67 [label=<entropy = 0.0<br/>samples = 1<br/>value = [0, 1]<br/>class = satisfied>, fillcolor="#399de5"] ;
65 -> 67 ;
68 [label=<entropy = 0.0<br/>samples = 1<br/>value = [0, 1]<br/>class = satisfied>, fillcolor="#399de5"] ;
64 -> 68 ;
69 [label=<Arrival Delay in Minutes &le; 5.0<br/>entropy = 0.391<br/>samples = 13<br/>value = [12, 1]<br/>class = dissatisfied>, fillcolor="#e78c49"] ;
55 -> 69 ;
70 [label=<Inflight wifi service &le; 4.5<br/>entropy = 0.811<br/>samples = 4<br/>value = [3, 1]<br/>class = dissatisfied>, fillcolor="#eeab7b"] ;
69 -> 70 ;
71 [label=<entropy = 0.0<br/>samples = 3<br/>value = [3, 0]<br/>class = dissatisfied>, fillcolor="#e58139"] ;
70 -> 71 ;
72 [label=<entropy = 0.0<br/>samples = 1<br/>value = [0, 1]<br/>class = satisfied>, fillcolor="#399de5"] ;
70 -> 72 ;
73 [label=<entropy = 0.0<br/>samples = 9<br/>value = [9, 0]<br/>class = dissatisfied>, fillcolor="#e58139"] ;
69 -> 73 ;
74 [label=<Inflight entertainment &le; 1.5<br/>entropy = 0.216<br/>samples = 29<br/>value = [28, 1]<br/>class = dissatisfied>, fillcolor="#e68640"] ;
52 -> 74 ;
75 [label=<Inflight wifi service &le; 1.5<br/>entropy = 0.722<br/>samples = 5<br/>value = [4, 1]<br/>class = dissatisfied>, fillcolor="#eca06a"] ;
74 -> 75 ;
76 [label=<entropy = 0.0<br/>samples = 1<br/>value = [0, 1]<br/>class = satisfied>, fillcolor="#399de5"] ;
75 -> 76 ;
77 [label=<entropy = 0.0<br/>samples = 4<br/>value = [4, 0]<br/>class = dissatisfied>, fillcolor="#e58139"] ;
75 -> 77 ;
78 [label=<entropy = 0.0<br/>samples = 24<br/>value = [24, 0]<br/>class = dissatisfied>, fillcolor="#e58139"] ;
74 -> 78 ;
79 [label=<Online support &le; 3.5<br/>entropy = 0.953<br/>samples = 67<br/>value = [42, 25]<br/>class = dissatisfied>, fillcolor="#f4ccaf"] ;
45 -> 79 ;
80 [label=<Checkin service &le; 4.5<br/>entropy = 0.895<br/>samples = 61<br/>value = [42, 19]<br/>class = dissatisfied>, fillcolor="#f1ba93"] ;
79 -> 80 ;
81 [label=<Inflight wifi service &le; 1.5<br/>entropy = 0.85<br/>samples = 58<br/>value = [42, 16]<br/>class = dissatisfied>, fillcolor="#efb184"] ;
80 -> 81 ;
82 [label=<entropy = 0.0<br/>samples = 11<br/>value = [11, 0]<br/>class = dissatisfied>, fillcolor="#e58139"] ;
81 -> 82 ;
83 [label=<Seat comfort &le; 2.5<br/>entropy = 0.925<br/>samples = 47<br/>value = [31.0, 16.0]<br/>class = dissatisfied>, fillcolor="#f2c29f"] ;
81 -> 83 ;
84 [label=<Checkin service &le; 3.5<br/>entropy = 0.994<br/>samples = 22<br/>value = [10, 12]<br/>class = satisfied>, fillcolor="#deeffb"] ;
83 -> 84 ;
85 [label=<On-board service &le; 2.5<br/>entropy = 0.811<br/>samples = 12<br/>value = [3, 9]<br/>class = satisfied>, fillcolor="#7bbeee"] ;
84 -> 85 ;
86 [label=<Flight Distance &le; 358.5<br/>entropy = 0.684<br/>samples = 11<br/>value = [2, 9]<br/>class = satisfied>, fillcolor="#65b3eb"] ;
85 -> 86 ;
87 [label=<Online boarding &le; 3.5<br/>entropy = 0.918<br/>samples = 6<br/>value = [2, 4]<br/>class = satisfied>, fillcolor="#9ccef2"] ;
86 -> 87 ;
88 [label=<Flight Distance &le; 257.0<br/>entropy = 0.722<br/>samples = 5<br/>value = [1, 4]<br/>class = satisfied>, fillcolor="#6ab6ec"] ;
87 -> 88 ;
89 [label=<entropy = 0.0<br/>samples = 4<br/>value = [0, 4]<br/>class = satisfied>, fillcolor="#399de5"] ;
88 -> 89 ;
90 [label=<entropy = 0.0<br/>samples = 1<br/>value = [1, 0]<br/>class = dissatisfied>, fillcolor="#e58139"] ;
88 -> 90 ;
91 [label=<entropy = 0.0<br/>samples = 1<br/>value = [1, 0]<br/>class = dissatisfied>, fillcolor="#e58139"] ;
87 -> 91 ;
92 [label=<entropy = 0.0<br/>samples = 5<br/>value = [0, 5]<br/>class = satisfied>, fillcolor="#399de5"] ;
86 -> 92 ;
93 [label=<entropy = 0.0<br/>samples = 1<br/>value = [1, 0]<br/>class = dissatisfied>, fillcolor="#e58139"] ;
85 -> 93 ;
94 [label=<Departure Delay in Minutes &le; 24.0<br/>entropy = 0.881<br/>samples = 10<br/>value = [7, 3]<br/>class = dissatisfied>, fillcolor="#f0b78e"] ;
84 -> 94 ;
95 [label=<Inflight wifi service &le; 4.5<br/>entropy = 0.544<br/>samples = 8<br/>value = [7, 1]<br/>class = dissatisfied>, fillcolor="#e99355"] ;
94 -> 95 ;
96 [label=<entropy = 0.0<br/>samples = 6<br/>value = [6, 0]<br/>class = dissatisfied>, fillcolor="#e58139"] ;
95 -> 96 ;
97 [label=<Age &le; 57.0<br/>entropy = 1.0<br/>samples = 2<br/>value = [1, 1]<br/>class = dissatisfied>, fillcolor="#ffffff"] ;
95 -> 97 ;
98 [label=<entropy = 0.0<br/>samples = 1<br/>value = [0, 1]<br/>class = satisfied>, fillcolor="#399de5"] ;
97 -> 98 ;
99 [label=<entropy = 0.0<br/>samples = 1<br/>value = [1, 0]<br/>class = dissatisfied>, fillcolor="#e58139"] ;
97 -> 99 ;
100 [label=<entropy = 0.0<br/>samples = 2<br/>value = [0, 2]<br/>class = satisfied>, fillcolor="#399de5"] ;
94 -> 100 ;
101 [label=<Inflight entertainment &le; 1.5<br/>entropy = 0.634<br/>samples = 25<br/>value = [21, 4]<br/>class = dissatisfied>, fillcolor="#ea995f"] ;
83 -> 101 ;
102 [label=<entropy = 0.0<br/>samples = 4<br/>value = [0, 4]<br/>class = satisfied>, fillcolor="#399de5"] ;
101 -> 102 ;
103 [label=<entropy = 0.0<br/>samples = 21<br/>value = [21, 0]<br/>class = dissatisfied>, fillcolor="#e58139"] ;
101 -> 103 ;
104 [label=<entropy = 0.0<br/>samples = 3<br/>value = [0, 3]<br/>class = satisfied>, fillcolor="#399de5"] ;
80 -> 104 ;
105 [label=<entropy = 0.0<br/>samples = 6<br/>value = [0, 6]<br/>class = satisfied>, fillcolor="#399de5"] ;
79 -> 105 ;
106 [label=<Baggage handling &le; 4.5<br/>entropy = 0.23<br/>samples = 455<br/>value = [438, 17]<br/>class = dissatisfied>, fillcolor="#e68641"] ;
42 -> 106 ;
107 [label=<Checkin service &le; 4.5<br/>entropy = 0.2<br/>samples = 450<br/>value = [436, 14]<br/>class = dissatisfied>, fillcolor="#e6853f"] ;
106 -> 107 ;
108 [label=<Ease of Online booking &le; 1.5<br/>entropy = 0.189<br/>samples = 449<br/>value = [436, 13]<br/>class = dissatisfied>, fillcolor="#e6853f"] ;
107 -> 108 ;
109 [label=<entropy = 0.0<br/>samples = 96<br/>value = [96, 0]<br/>class = dissatisfied>, fillcolor="#e58139"] ;
108 -> 109 ;
110 [label=<Baggage handling &le; 1.5<br/>entropy = 0.228<br/>samples = 353<br/>value = [340, 13]<br/>class = dissatisfied>, fillcolor="#e68641"] ;
108 -> 110 ;
111 [label=<Customer Type &le; 0.5<br/>entropy = 1.0<br/>samples = 4<br/>value = [2, 2]<br/>class = dissatisfied>, fillcolor="#ffffff"] ;
110 -> 111 ;
112 [label=<entropy = 0.0<br/>samples = 2<br/>value = [2, 0]<br/>class = dissatisfied>, fillcolor="#e58139"] ;
111 -> 112 ;
113 [label=<entropy = 0.0<br/>samples = 2<br/>value = [0, 2]<br/>class = satisfied>, fillcolor="#399de5"] ;
111 -> 113 ;
114 [label=<Online support &le; 2.5<br/>entropy = 0.202<br/>samples = 349<br/>value = [338, 11]<br/>class = dissatisfied>, fillcolor="#e6853f"] ;
110 -> 114 ;
115 [label=<Food and drink &le; 2.5<br/>entropy = 0.519<br/>samples = 43<br/>value = [38, 5]<br/>class = dissatisfied>, fillcolor="#e89253"] ;
114 -> 115 ;
116 [label=<Checkin service &le; 1.5<br/>entropy = 0.811<br/>samples = 16<br/>value = [12, 4]<br/>class = dissatisfied>, fillcolor="#eeab7b"] ;
115 -> 116 ;
117 [label=<entropy = 0.0<br/>samples = 7<br/>value = [7, 0]<br/>class = dissatisfied>, fillcolor="#e58139"] ;
116 -> 117 ;
118 [label=<Flight Distance &le; 405.0<br/>entropy = 0.991<br/>samples = 9<br/>value = [5, 4]<br/>class = dissatisfied>, fillcolor="#fae6d7"] ;
116 -> 118 ;
119 [label=<entropy = 0.0<br/>samples = 2<br/>value = [0, 2]<br/>class = satisfied>, fillcolor="#399de5"] ;
118 -> 119 ;
120 [label=<Class &le; 1.5<br/>entropy = 0.863<br/>samples = 7<br/>value = [5, 2]<br/>class = dissatisfied>, fillcolor="#efb388"] ;
118 -> 120 ;
121 [label=<Departure/Arrival time convenient &le; 3.5<br/>entropy = 0.65<br/>samples = 6<br/>value = [5, 1]<br/>class = dissatisfied>, fillcolor="#ea9a61"] ;
120 -> 121 ;
122 [label=<entropy = 0.0<br/>samples = 5<br/>value = [5, 0]<br/>class = dissatisfied>, fillcolor="#e58139"] ;
121 -> 122 ;
123 [label=<entropy = 0.0<br/>samples = 1<br/>value = [0, 1]<br/>class = satisfied>, fillcolor="#399de5"] ;
121 -> 123 ;
124 [label=<entropy = 0.0<br/>samples = 1<br/>value = [0, 1]<br/>class = satisfied>, fillcolor="#399de5"] ;
120 -> 124 ;
125 [label=<Online boarding &le; 3.5<br/>entropy = 0.229<br/>samples = 27<br/>value = [26, 1]<br/>class = dissatisfied>, fillcolor="#e68641"] ;
115 -> 125 ;
126 [label=<entropy = 0.0<br/>samples = 20<br/>value = [20, 0]<br/>class = dissatisfied>, fillcolor="#e58139"] ;
125 -> 126 ;
127 [label=<Flight Distance &le; 460.0<br/>entropy = 0.592<br/>samples = 7<br/>value = [6, 1]<br/>class = dissatisfied>, fillcolor="#e9965a"] ;
125 -> 127 ;
128 [label=<Checkin service &le; 2.0<br/>entropy = 1.0<br/>samples = 2<br/>value = [1, 1]<br/>class = dissatisfied>, fillcolor="#ffffff"] ;
127 -> 128 ;
129 [label=<entropy = 0.0<br/>samples = 1<br/>value = [0, 1]<br/>class = satisfied>, fillcolor="#399de5"] ;
128 -> 129 ;
130 [label=<entropy = 0.0<br/>samples = 1<br/>value = [1, 0]<br/>class = dissatisfied>, fillcolor="#e58139"] ;
128 -> 130 ;
131 [label=<entropy = 0.0<br/>samples = 5<br/>value = [5, 0]<br/>class = dissatisfied>, fillcolor="#e58139"] ;
127 -> 131 ;
132 [label=<Online boarding &le; 2.5<br/>entropy = 0.139<br/>samples = 306<br/>value = [300, 6]<br/>class = dissatisfied>, fillcolor="#e6843d"] ;
114 -> 132 ;
133 [label=<entropy = 0.0<br/>samples = 141<br/>value = [141, 0]<br/>class = dissatisfied>, fillcolor="#e58139"] ;
132 -> 133 ;
134 [label=<Flight Distance &le; 966.5<br/>entropy = 0.225<br/>samples = 165<br/>value = [159, 6]<br/>class = dissatisfied>, fillcolor="#e68640"] ;
132 -> 134 ;
135 [label=<Flight Distance &le; 480.5<br/>entropy = 0.172<br/>samples = 156<br/>value = [152, 4]<br/>class = dissatisfied>, fillcolor="#e6843e"] ;
134 -> 135 ;
136 [label=<Departure Delay in Minutes &le; 1.5<br/>entropy = 0.292<br/>samples = 78<br/>value = [74, 4]<br/>class = dissatisfied>, fillcolor="#e68844"] ;
135 -> 136 ;
137 [label=<Arrival Delay in Minutes &le; 6.0<br/>entropy = 0.461<br/>samples = 41<br/>value = [37, 4]<br/>class = dissatisfied>, fillcolor="#e88f4e"] ;
136 -> 137 ;
138 [label=<Departure Delay in Minutes &le; 0.5<br/>entropy = 0.303<br/>samples = 37<br/>value = [35, 2]<br/>class = dissatisfied>, fillcolor="#e68844"] ;
137 -> 138 ;
139 [label=<Age &le; 45.0<br/>entropy = 0.183<br/>samples = 36<br/>value = [35, 1]<br/>class = dissatisfied>, fillcolor="#e6853f"] ;
138 -> 139 ;
140 [label=<Flight Distance &le; 200.0<br/>entropy = 0.811<br/>samples = 4<br/>value = [3, 1]<br/>class = dissatisfied>, fillcolor="#eeab7b"] ;
139 -> 140 ;
141 [label=<entropy = 0.0<br/>samples = 1<br/>value = [0, 1]<br/>class = satisfied>, fillcolor="#399de5"] ;
140 -> 141 ;
142 [label=<entropy = 0.0<br/>samples = 3<br/>value = [3, 0]<br/>class = dissatisfied>, fillcolor="#e58139"] ;
140 -> 142 ;
143 [label=<entropy = 0.0<br/>samples = 32<br/>value = [32, 0]<br/>class = dissatisfied>, fillcolor="#e58139"] ;
139 -> 143 ;
144 [label=<entropy = 0.0<br/>samples = 1<br/>value = [0, 1]<br/>class = satisfied>, fillcolor="#399de5"] ;
138 -> 144 ;
145 [label=<Checkin service &le; 2.5<br/>entropy = 1.0<br/>samples = 4<br/>value = [2, 2]<br/>class = dissatisfied>, fillcolor="#ffffff"] ;
137 -> 145 ;
146 [label=<entropy = 0.0<br/>samples = 2<br/>value = [2, 0]<br/>class = dissatisfied>, fillcolor="#e58139"] ;
145 -> 146 ;
147 [label=<entropy = 0.0<br/>samples = 2<br/>value = [0, 2]<br/>class = satisfied>, fillcolor="#399de5"] ;
145 -> 147 ;
148 [label=<entropy = 0.0<br/>samples = 37<br/>value = [37, 0]<br/>class = dissatisfied>, fillcolor="#e58139"] ;
136 -> 148 ;
149 [label=<entropy = 0.0<br/>samples = 78<br/>value = [78, 0]<br/>class = dissatisfied>, fillcolor="#e58139"] ;
135 -> 149 ;
150 [label=<Departure/Arrival time convenient &le; 1.5<br/>entropy = 0.764<br/>samples = 9<br/>value = [7, 2]<br/>class = dissatisfied>, fillcolor="#eca572"] ;
134 -> 150 ;
151 [label=<entropy = 0.0<br/>samples = 1<br/>value = [0, 1]<br/>class = satisfied>, fillcolor="#399de5"] ;
150 -> 151 ;
152 [label=<Flight Distance &le; 971.0<br/>entropy = 0.544<br/>samples = 8<br/>value = [7, 1]<br/>class = dissatisfied>, fillcolor="#e99355"] ;
150 -> 152 ;
153 [label=<Online support &le; 3.5<br/>entropy = 1.0<br/>samples = 2<br/>value = [1, 1]<br/>class = dissatisfied>, fillcolor="#ffffff"] ;
152 -> 153 ;
154 [label=<entropy = 0.0<br/>samples = 1<br/>value = [1, 0]<br/>class = dissatisfied>, fillcolor="#e58139"] ;
153 -> 154 ;
155 [label=<entropy = 0.0<br/>samples = 1<br/>value = [0, 1]<br/>class = satisfied>, fillcolor="#399de5"] ;
153 -> 155 ;
156 [label=<entropy = 0.0<br/>samples = 6<br/>value = [6, 0]<br/>class = dissatisfied>, fillcolor="#e58139"] ;
152 -> 156 ;
157 [label=<entropy = 0.0<br/>samples = 1<br/>value = [0, 1]<br/>class = satisfied>, fillcolor="#399de5"] ;
107 -> 157 ;
158 [label=<Age &le; 35.0<br/>entropy = 0.971<br/>samples = 5<br/>value = [2, 3]<br/>class = satisfied>, fillcolor="#bddef6"] ;
106 -> 158 ;
159 [label=<entropy = 0.0<br/>samples = 2<br/>value = [2, 0]<br/>class = dissatisfied>, fillcolor="#e58139"] ;
158 -> 159 ;
160 [label=<entropy = 0.0<br/>samples = 3<br/>value = [0, 3]<br/>class = satisfied>, fillcolor="#399de5"] ;
158 -> 160 ;
161 [label=<Customer Type &le; 0.5<br/>entropy = 0.845<br/>samples = 22<br/>value = [6, 16]<br/>class = satisfied>, fillcolor="#83c2ef"] ;
41 -> 161 ;
162 [label=<entropy = 0.0<br/>samples = 5<br/>value = [5, 0]<br/>class = dissatisfied>, fillcolor="#e58139"] ;
161 -> 162 ;
163 [label=<Checkin service &le; 1.5<br/>entropy = 0.323<br/>samples = 17<br/>value = [1, 16]<br/>class = satisfied>, fillcolor="#45a3e7"] ;
161 -> 163 ;
164 [label=<Inflight wifi service &le; 4.0<br/>entropy = 1.0<br/>samples = 2<br/>value = [1, 1]<br/>class = dissatisfied>, fillcolor="#ffffff"] ;
163 -> 164 ;
165 [label=<entropy = 0.0<br/>samples = 1<br/>value = [1, 0]<br/>class = dissatisfied>, fillcolor="#e58139"] ;
164 -> 165 ;
166 [label=<entropy = 0.0<br/>samples = 1<br/>value = [0, 1]<br/>class = satisfied>, fillcolor="#399de5"] ;
164 -> 166 ;
167 [label=<entropy = 0.0<br/>samples = 15<br/>value = [0, 15]<br/>class = satisfied>, fillcolor="#399de5"] ;
163 -> 167 ;
168 [label=<Ease of Online booking &le; 4.0<br/>entropy = 0.96<br/>samples = 34<br/>value = [13, 21]<br/>class = satisfied>, fillcolor="#b4daf5"] ;
40 -> 168 ;
169 [label=<entropy = 0.0<br/>samples = 21<br/>value = [0, 21]<br/>class = satisfied>, fillcolor="#399de5"] ;
168 -> 169 ;
170 [label=<entropy = 0.0<br/>samples = 13<br/>value = [13, 0]<br/>class = dissatisfied>, fillcolor="#e58139"] ;
168 -> 170 ;
171 [label=<Customer Type &le; 0.5<br/>entropy = 0.231<br/>samples = 18466<br/>value = [17774, 692]<br/>class = dissatisfied>, fillcolor="#e68641"] ;
7 -> 171 ;
172 [label=<Checkin service &le; 2.5<br/>entropy = 0.047<br/>samples = 6169<br/>value = [6137, 32]<br/>class = dissatisfied>, fillcolor="#e5823a"] ;
171 -> 172 ;
173 [label=<Flight Distance &le; 2954.5<br/>entropy = 0.005<br/>samples = 2582<br/>value = [2581, 1]<br/>class = dissatisfied>, fillcolor="#e58139"] ;
172 -> 173 ;
174 [label=<entropy = 0.0<br/>samples = 2474<br/>value = [2474, 0]<br/>class = dissatisfied>, fillcolor="#e58139"] ;
173 -> 174 ;
175 [label=<Flight Distance &le; 2958.0<br/>entropy = 0.076<br/>samples = 108<br/>value = [107, 1]<br/>class = dissatisfied>, fillcolor="#e5823b"] ;
173 -> 175 ;
176 [label=<entropy = 0.0<br/>samples = 1<br/>value = [0, 1]<br/>class = satisfied>, fillcolor="#399de5"] ;
175 -> 176 ;
177 [label=<entropy = 0.0<br/>samples = 107<br/>value = [107, 0]<br/>class = dissatisfied>, fillcolor="#e58139"] ;
175 -> 177 ;
178 [label=<Flight Distance &le; 1961.5<br/>entropy = 0.072<br/>samples = 3587<br/>value = [3556, 31]<br/>class = dissatisfied>, fillcolor="#e5823b"] ;
172 -> 178 ;
179 [label=<Flight Distance &le; 1637.5<br/>entropy = 0.022<br/>samples = 1844<br/>value = [1840, 4]<br/>class = dissatisfied>, fillcolor="#e58139"] ;
178 -> 179 ;
180 [label=<entropy = 0.0<br/>samples = 937<br/>value = [937, 0]<br/>class = dissatisfied>, fillcolor="#e58139"] ;
179 -> 180 ;
181 [label=<Flight Distance &le; 1638.5<br/>entropy = 0.041<br/>samples = 907<br/>value = [903, 4]<br/>class = dissatisfied>, fillcolor="#e5823a"] ;
179 -> 181 ;
182 [label=<Age &le; 43.0<br/>entropy = 0.722<br/>samples = 5<br/>value = [4, 1]<br/>class = dissatisfied>, fillcolor="#eca06a"] ;
181 -> 182 ;
183 [label=<entropy = 0.0<br/>samples = 4<br/>value = [4, 0]<br/>class = dissatisfied>, fillcolor="#e58139"] ;
182 -> 183 ;
184 [label=<entropy = 0.0<br/>samples = 1<br/>value = [0, 1]<br/>class = satisfied>, fillcolor="#399de5"] ;
182 -> 184 ;
185 [label=<Age &le; 20.5<br/>entropy = 0.032<br/>samples = 902<br/>value = [899, 3]<br/>class = dissatisfied>, fillcolor="#e5813a"] ;
181 -> 185 ;
186 [label=<Gate location &le; 1.5<br/>entropy = 0.107<br/>samples = 141<br/>value = [139, 2]<br/>class = dissatisfied>, fillcolor="#e5833c"] ;
185 -> 186 ;
187 [label=<Leg room service &le; 1.5<br/>entropy = 0.414<br/>samples = 12<br/>value = [11, 1]<br/>class = dissatisfied>, fillcolor="#e78c4b"] ;
186 -> 187 ;
188 [label=<entropy = 0.0<br/>samples = 1<br/>value = [0, 1]<br/>class = satisfied>, fillcolor="#399de5"] ;
187 -> 188 ;
189 [label=<entropy = 0.0<br/>samples = 11<br/>value = [11, 0]<br/>class = dissatisfied>, fillcolor="#e58139"] ;
187 -> 189 ;
190 [label=<On-board service &le; 4.5<br/>entropy = 0.065<br/>samples = 129<br/>value = [128, 1]<br/>class = dissatisfied>, fillcolor="#e5823b"] ;
186 -> 190 ;
191 [label=<entropy = 0.0<br/>samples = 114<br/>value = [114, 0]<br/>class = dissatisfied>, fillcolor="#e58139"] ;
190 -> 191 ;
192 [label=<Food and drink &le; 1.5<br/>entropy = 0.353<br/>samples = 15<br/>value = [14, 1]<br/>class = dissatisfied>, fillcolor="#e78a47"] ;
190 -> 192 ;
193 [label=<Cleanliness &le; 4.5<br/>entropy = 0.918<br/>samples = 3<br/>value = [2, 1]<br/>class = dissatisfied>, fillcolor="#f2c09c"] ;
192 -> 193 ;
194 [label=<entropy = 0.0<br/>samples = 1<br/>value = [0, 1]<br/>class = satisfied>, fillcolor="#399de5"] ;
193 -> 194 ;
195 [label=<entropy = 0.0<br/>samples = 2<br/>value = [2, 0]<br/>class = dissatisfied>, fillcolor="#e58139"] ;
193 -> 195 ;
196 [label=<entropy = 0.0<br/>samples = 12<br/>value = [12, 0]<br/>class = dissatisfied>, fillcolor="#e58139"] ;
192 -> 196 ;
197 [label=<Class &le; 1.5<br/>entropy = 0.014<br/>samples = 761<br/>value = [760, 1]<br/>class = dissatisfied>, fillcolor="#e58139"] ;
185 -> 197 ;
198 [label=<entropy = 0.0<br/>samples = 713<br/>value = [713, 0]<br/>class = dissatisfied>, fillcolor="#e58139"] ;
197 -> 198 ;
199 [label=<Baggage handling &le; 1.5<br/>entropy = 0.146<br/>samples = 48<br/>value = [47, 1]<br/>class = dissatisfied>, fillcolor="#e6843d"] ;
197 -> 199 ;
200 [label=<Checkin service &le; 4.5<br/>entropy = 1.0<br/>samples = 2<br/>value = [1, 1]<br/>class = dissatisfied>, fillcolor="#ffffff"] ;
199 -> 200 ;
201 [label=<entropy = 0.0<br/>samples = 1<br/>value = [1, 0]<br/>class = dissatisfied>, fillcolor="#e58139"] ;
200 -> 201 ;
202 [label=<entropy = 0.0<br/>samples = 1<br/>value = [0, 1]<br/>class = satisfied>, fillcolor="#399de5"] ;
200 -> 202 ;
203 [label=<entropy = 0.0<br/>samples = 46<br/>value = [46, 0]<br/>class = dissatisfied>, fillcolor="#e58139"] ;
199 -> 203 ;
204 [label=<Departure/Arrival time convenient &le; 1.5<br/>entropy = 0.115<br/>samples = 1743<br/>value = [1716, 27]<br/>class = dissatisfied>, fillcolor="#e5833c"] ;
178 -> 204 ;
205 [label=<entropy = 0.0<br/>samples = 472<br/>value = [472, 0]<br/>class = dissatisfied>, fillcolor="#e58139"] ;
204 -> 205 ;
206 [label=<On-board service &le; 2.5<br/>entropy = 0.148<br/>samples = 1271<br/>value = [1244, 27]<br/>class = dissatisfied>, fillcolor="#e6843d"] ;
204 -> 206 ;
207 [label=<Checkin service &le; 4.5<br/>entropy = 0.042<br/>samples = 445<br/>value = [443, 2]<br/>class = dissatisfied>, fillcolor="#e5823a"] ;
206 -> 207 ;
208 [label=<entropy = 0.0<br/>samples = 400<br/>value = [400, 0]<br/>class = dissatisfied>, fillcolor="#e58139"] ;
207 -> 208 ;
209 [label=<Gate location &le; 2.5<br/>entropy = 0.262<br/>samples = 45<br/>value = [43, 2]<br/>class = dissatisfied>, fillcolor="#e68742"] ;
207 -> 209 ;
210 [label=<Inflight wifi service &le; 2.5<br/>entropy = 0.619<br/>samples = 13<br/>value = [11, 2]<br/>class = dissatisfied>, fillcolor="#ea985d"] ;
209 -> 210 ;
211 [label=<entropy = 0.0<br/>samples = 7<br/>value = [7, 0]<br/>class = dissatisfied>, fillcolor="#e58139"] ;
210 -> 211 ;
212 [label=<Seat comfort &le; 2.5<br/>entropy = 0.918<br/>samples = 6<br/>value = [4, 2]<br/>class = dissatisfied>, fillcolor="#f2c09c"] ;
210 -> 212 ;
213 [label=<Inflight entertainment &le; 1.5<br/>entropy = 0.918<br/>samples = 3<br/>value = [1, 2]<br/>class = satisfied>, fillcolor="#9ccef2"] ;
212 -> 213 ;
214 [label=<entropy = 0.0<br/>samples = 1<br/>value = [1, 0]<br/>class = dissatisfied>, fillcolor="#e58139"] ;
213 -> 214 ;
215 [label=<entropy = 0.0<br/>samples = 2<br/>value = [0, 2]<br/>class = satisfied>, fillcolor="#399de5"] ;
213 -> 215 ;
216 [label=<entropy = 0.0<br/>samples = 3<br/>value = [3, 0]<br/>class = dissatisfied>, fillcolor="#e58139"] ;
212 -> 216 ;
217 [label=<entropy = 0.0<br/>samples = 32<br/>value = [32, 0]<br/>class = dissatisfied>, fillcolor="#e58139"] ;
209 -> 217 ;
218 [label=<Age &le; 25.5<br/>entropy = 0.196<br/>samples = 826<br/>value = [801, 25]<br/>class = dissatisfied>, fillcolor="#e6853f"] ;
206 -> 218 ;
219 [label=<Flight Distance &le; 1964.5<br/>entropy = 0.256<br/>samples = 511<br/>value = [489, 22]<br/>class = dissatisfied>, fillcolor="#e68742"] ;
218 -> 219 ;
220 [label=<Arrival Delay in Minutes &le; 9.0<br/>entropy = 1.0<br/>samples = 4<br/>value = [2, 2]<br/>class = dissatisfied>, fillcolor="#ffffff"] ;
219 -> 220 ;
221 [label=<entropy = 0.0<br/>samples = 2<br/>value = [0, 2]<br/>class = satisfied>, fillcolor="#399de5"] ;
220 -> 221 ;
222 [label=<entropy = 0.0<br/>samples = 2<br/>value = [2, 0]<br/>class = dissatisfied>, fillcolor="#e58139"] ;
220 -> 222 ;
223 [label=<Departure/Arrival time convenient &le; 3.5<br/>entropy = 0.24<br/>samples = 507<br/>value = [487, 20]<br/>class = dissatisfied>, fillcolor="#e68641"] ;
219 -> 223 ;
224 [label=<Age &le; 11.5<br/>entropy = 0.266<br/>samples = 441<br/>value = [421, 20]<br/>class = dissatisfied>, fillcolor="#e68742"] ;
223 -> 224 ;
225 [label=<entropy = 0.0<br/>samples = 29<br/>value = [29, 0]<br/>class = dissatisfied>, fillcolor="#e58139"] ;
224 -> 225 ;
226 [label=<Departure Delay in Minutes &le; 2.5<br/>entropy = 0.28<br/>samples = 412<br/>value = [392, 20]<br/>class = dissatisfied>, fillcolor="#e68743"] ;
224 -> 226 ;
227 [label=<Leg room service &le; 2.5<br/>entropy = 0.218<br/>samples = 259<br/>value = [250, 9]<br/>class = dissatisfied>, fillcolor="#e68640"] ;
226 -> 227 ;
228 [label=<entropy = 0.0<br/>samples = 75<br/>value = [75, 0]<br/>class = dissatisfied>, fillcolor="#e58139"] ;
227 -> 228 ;
229 [label=<Departure/Arrival time convenient &le; 2.5<br/>entropy = 0.282<br/>samples = 184<br/>value = [175, 9]<br/>class = dissatisfied>, fillcolor="#e68743"] ;
227 -> 229 ;
230 [label=<Age &le; 13.0<br/>entropy = 0.432<br/>samples = 79<br/>value = [72, 7]<br/>class = dissatisfied>, fillcolor="#e88d4c"] ;
229 -> 230 ;
231 [label=<entropy = 0.0<br/>samples = 1<br/>value = [0, 1]<br/>class = satisfied>, fillcolor="#399de5"] ;
230 -> 231 ;
232 [label=<Checkin service &le; 4.5<br/>entropy = 0.391<br/>samples = 78<br/>value = [72, 6]<br/>class = dissatisfied>, fillcolor="#e78c49"] ;
230 -> 232 ;
233 [label=<Flight Distance &le; 2623.5<br/>entropy = 0.214<br/>samples = 59<br/>value = [57, 2]<br/>class = dissatisfied>, fillcolor="#e68540"] ;
232 -> 233 ;
234 [label=<entropy = 0.0<br/>samples = 43<br/>value = [43, 0]<br/>class = dissatisfied>, fillcolor="#e58139"] ;
233 -> 234 ;
235 [label=<On-board service &le; 4.5<br/>entropy = 0.544<br/>samples = 16<br/>value = [14, 2]<br/>class = dissatisfied>, fillcolor="#e99355"] ;
233 -> 235 ;
236 [label=<entropy = 0.0<br/>samples = 11<br/>value = [11, 0]<br/>class = dissatisfied>, fillcolor="#e58139"] ;
235 -> 236 ;
237 [label=<Checkin service &le; 3.5<br/>entropy = 0.971<br/>samples = 5<br/>value = [3, 2]<br/>class = dissatisfied>, fillcolor="#f6d5bd"] ;
235 -> 237 ;
238 [label=<Ease of Online booking &le; 1.5<br/>entropy = 0.918<br/>samples = 3<br/>value = [1, 2]<br/>class = satisfied>, fillcolor="#9ccef2"] ;
237 -> 238 ;
239 [label=<entropy = 0.0<br/>samples = 2<br/>value = [0, 2]<br/>class = satisfied>, fillcolor="#399de5"] ;
238 -> 239 ;
240 [label=<entropy = 0.0<br/>samples = 1<br/>value = [1, 0]<br/>class = dissatisfied>, fillcolor="#e58139"] ;
238 -> 240 ;
241 [label=<entropy = 0.0<br/>samples = 2<br/>value = [2, 0]<br/>class = dissatisfied>, fillcolor="#e58139"] ;
237 -> 241 ;
242 [label=<Gate location &le; 3.5<br/>entropy = 0.742<br/>samples = 19<br/>value = [15, 4]<br/>class = dissatisfied>, fillcolor="#eca36e"] ;
232 -> 242 ;
243 [label=<Gate location &le; 2.5<br/>entropy = 0.971<br/>samples = 10<br/>value = [6, 4]<br/>class = dissatisfied>, fillcolor="#f6d5bd"] ;
242 -> 243 ;
244 [label=<entropy = 0.0<br/>samples = 4<br/>value = [4, 0]<br/>class = dissatisfied>, fillcolor="#e58139"] ;
243 -> 244 ;
245 [label=<Baggage handling &le; 4.5<br/>entropy = 0.918<br/>samples = 6<br/>value = [2, 4]<br/>class = satisfied>, fillcolor="#9ccef2"] ;
243 -> 245 ;
246 [label=<Flight Distance &le; 2068.0<br/>entropy = 0.918<br/>samples = 3<br/>value = [2, 1]<br/>class = dissatisfied>, fillcolor="#f2c09c"] ;
245 -> 246 ;
247 [label=<entropy = 0.0<br/>samples = 1<br/>value = [0, 1]<br/>class = satisfied>, fillcolor="#399de5"] ;
246 -> 247 ;
248 [label=<entropy = 0.0<br/>samples = 2<br/>value = [2, 0]<br/>class = dissatisfied>, fillcolor="#e58139"] ;
246 -> 248 ;
249 [label=<entropy = 0.0<br/>samples = 3<br/>value = [0, 3]<br/>class = satisfied>, fillcolor="#399de5"] ;
245 -> 249 ;
250 [label=<entropy = 0.0<br/>samples = 9<br/>value = [9, 0]<br/>class = dissatisfied>, fillcolor="#e58139"] ;
242 -> 250 ;
251 [label=<Baggage handling &le; 1.5<br/>entropy = 0.136<br/>samples = 105<br/>value = [103, 2]<br/>class = dissatisfied>, fillcolor="#e6833d"] ;
229 -> 251 ;
252 [label=<Online support &le; 2.0<br/>entropy = 0.65<br/>samples = 6<br/>value = [5, 1]<br/>class = dissatisfied>, fillcolor="#ea9a61"] ;
251 -> 252 ;
253 [label=<entropy = 0.0<br/>samples = 1<br/>value = [0, 1]<br/>class = satisfied>, fillcolor="#399de5"] ;
252 -> 253 ;
254 [label=<entropy = 0.0<br/>samples = 5<br/>value = [5, 0]<br/>class = dissatisfied>, fillcolor="#e58139"] ;
252 -> 254 ;
255 [label=<Flight Distance &le; 2056.5<br/>entropy = 0.081<br/>samples = 99<br/>value = [98, 1]<br/>class = dissatisfied>, fillcolor="#e5823b"] ;
251 -> 255 ;
256 [label=<Flight Distance &le; 2047.0<br/>entropy = 0.439<br/>samples = 11<br/>value = [10, 1]<br/>class = dissatisfied>, fillcolor="#e88e4d"] ;
255 -> 256 ;
257 [label=<entropy = 0.0<br/>samples = 10<br/>value = [10, 0]<br/>class = dissatisfied>, fillcolor="#e58139"] ;
256 -> 257 ;
258 [label=<entropy = 0.0<br/>samples = 1<br/>value = [0, 1]<br/>class = satisfied>, fillcolor="#399de5"] ;
256 -> 258 ;
259 [label=<entropy = 0.0<br/>samples = 88<br/>value = [88, 0]<br/>class = dissatisfied>, fillcolor="#e58139"] ;
255 -> 259 ;
260 [label=<Arrival Delay in Minutes &le; 1.5<br/>entropy = 0.373<br/>samples = 153<br/>value = [142, 11]<br/>class = dissatisfied>, fillcolor="#e78b48"] ;
226 -> 260 ;
261 [label=<Leg room service &le; 4.5<br/>entropy = 0.592<br/>samples = 42<br/>value = [36, 6]<br/>class = dissatisfied>, fillcolor="#e9965a"] ;
260 -> 261 ;
262 [label=<On-board service &le; 3.5<br/>entropy = 0.431<br/>samples = 34<br/>value = [31, 3]<br/>class = dissatisfied>, fillcolor="#e88d4c"] ;
261 -> 262 ;
263 [label=<entropy = 0.0<br/>samples = 15<br/>value = [15, 0]<br/>class = dissatisfied>, fillcolor="#e58139"] ;
262 -> 263 ;
264 [label=<Ease of Online booking &le; 2.5<br/>entropy = 0.629<br/>samples = 19<br/>value = [16, 3]<br/>class = dissatisfied>, fillcolor="#ea995e"] ;
262 -> 264 ;
265 [label=<entropy = 0.0<br/>samples = 10<br/>value = [10, 0]<br/>class = dissatisfied>, fillcolor="#e58139"] ;
264 -> 265 ;
266 [label=<Food and drink &le; 2.5<br/>entropy = 0.918<br/>samples = 9<br/>value = [6, 3]<br/>class = dissatisfied>, fillcolor="#f2c09c"] ;
264 -> 266 ;
267 [label=<entropy = 0.0<br/>samples = 2<br/>value = [0, 2]<br/>class = satisfied>, fillcolor="#399de5"] ;
266 -> 267 ;
268 [label=<Age &le; 20.5<br/>entropy = 0.592<br/>samples = 7<br/>value = [6, 1]<br/>class = dissatisfied>, fillcolor="#e9965a"] ;
266 -> 268 ;
269 [label=<entropy = 0.0<br/>samples = 1<br/>value = [0, 1]<br/>class = satisfied>, fillcolor="#399de5"] ;
268 -> 269 ;
270 [label=<entropy = 0.0<br/>samples = 6<br/>value = [6, 0]<br/>class = dissatisfied>, fillcolor="#e58139"] ;
268 -> 270 ;
271 [label=<Checkin service &le; 4.5<br/>entropy = 0.954<br/>samples = 8<br/>value = [5, 3]<br/>class = dissatisfied>, fillcolor="#f5cdb0"] ;
261 -> 271 ;
272 [label=<Cleanliness &le; 4.5<br/>entropy = 1.0<br/>samples = 6<br/>value = [3, 3]<br/>class = dissatisfied>, fillcolor="#ffffff"] ;
271 -> 272 ;
273 [label=<Arrival Delay in Minutes &le; 0.5<br/>entropy = 0.811<br/>samples = 4<br/>value = [3, 1]<br/>class = dissatisfied>, fillcolor="#eeab7b"] ;
272 -> 273 ;
274 [label=<entropy = 0.0<br/>samples = 3<br/>value = [3, 0]<br/>class = dissatisfied>, fillcolor="#e58139"] ;
273 -> 274 ;
275 [label=<entropy = 0.0<br/>samples = 1<br/>value = [0, 1]<br/>class = satisfied>, fillcolor="#399de5"] ;
273 -> 275 ;
276 [label=<entropy = 0.0<br/>samples = 2<br/>value = [0, 2]<br/>class = satisfied>, fillcolor="#399de5"] ;
272 -> 276 ;
277 [label=<entropy = 0.0<br/>samples = 2<br/>value = [2, 0]<br/>class = dissatisfied>, fillcolor="#e58139"] ;
271 -> 277 ;
278 [label=<Age &le; 21.5<br/>entropy = 0.265<br/>samples = 111<br/>value = [106, 5]<br/>class = dissatisfied>, fillcolor="#e68742"] ;
260 -> 278 ;
279 [label=<entropy = 0.0<br/>samples = 38<br/>value = [38, 0]<br/>class = dissatisfied>, fillcolor="#e58139"] ;
278 -> 279 ;
280 [label=<Online boarding &le; 1.5<br/>entropy = 0.36<br/>samples = 73<br/>value = [68, 5]<br/>class = dissatisfied>, fillcolor="#e78a48"] ;
278 -> 280 ;
281 [label=<Baggage handling &le; 4.5<br/>entropy = 0.811<br/>samples = 8<br/>value = [6, 2]<br/>class = dissatisfied>, fillcolor="#eeab7b"] ;
280 -> 281 ;
282 [label=<entropy = 0.0<br/>samples = 6<br/>value = [6, 0]<br/>class = dissatisfied>, fillcolor="#e58139"] ;
281 -> 282 ;
283 [label=<entropy = 0.0<br/>samples = 2<br/>value = [0, 2]<br/>class = satisfied>, fillcolor="#399de5"] ;
281 -> 283 ;
284 [label=<Baggage handling &le; 1.5<br/>entropy = 0.27<br/>samples = 65<br/>value = [62, 3]<br/>class = dissatisfied>, fillcolor="#e68743"] ;
280 -> 284 ;
285 [label=<Departure Delay in Minutes &le; 12.5<br/>entropy = 1.0<br/>samples = 2<br/>value = [1, 1]<br/>class = dissatisfied>, fillcolor="#ffffff"] ;
284 -> 285 ;
286 [label=<entropy = 0.0<br/>samples = 1<br/>value = [0, 1]<br/>class = satisfied>, fillcolor="#399de5"] ;
285 -> 286 ;
287 [label=<entropy = 0.0<br/>samples = 1<br/>value = [1, 0]<br/>class = dissatisfied>, fillcolor="#e58139"] ;
285 -> 287 ;
288 [label=<Arrival Delay in Minutes &le; 63.0<br/>entropy = 0.203<br/>samples = 63<br/>value = [61, 2]<br/>class = dissatisfied>, fillcolor="#e6853f"] ;
284 -> 288 ;
289 [label=<entropy = 0.0<br/>samples = 49<br/>value = [49, 0]<br/>class = dissatisfied>, fillcolor="#e58139"] ;
288 -> 289 ;
290 [label=<Departure Delay in Minutes &le; 61.5<br/>entropy = 0.592<br/>samples = 14<br/>value = [12, 2]<br/>class = dissatisfied>, fillcolor="#e9965a"] ;
288 -> 290 ;
291 [label=<entropy = 0.0<br/>samples = 1<br/>value = [0, 1]<br/>class = satisfied>, fillcolor="#399de5"] ;
290 -> 291 ;
292 [label=<Flight Distance &le; 2161.0<br/>entropy = 0.391<br/>samples = 13<br/>value = [12, 1]<br/>class = dissatisfied>, fillcolor="#e78c49"] ;
290 -> 292 ;
293 [label=<Age &le; 23.0<br/>entropy = 1.0<br/>samples = 2<br/>value = [1, 1]<br/>class = dissatisfied>, fillcolor="#ffffff"] ;
292 -> 293 ;
294 [label=<entropy = 0.0<br/>samples = 1<br/>value = [0, 1]<br/>class = satisfied>, fillcolor="#399de5"] ;
293 -> 294 ;
295 [label=<entropy = 0.0<br/>samples = 1<br/>value = [1, 0]<br/>class = dissatisfied>, fillcolor="#e58139"] ;
293 -> 295 ;
296 [label=<entropy = 0.0<br/>samples = 11<br/>value = [11, 0]<br/>class = dissatisfied>, fillcolor="#e58139"] ;
292 -> 296 ;
297 [label=<entropy = 0.0<br/>samples = 66<br/>value = [66, 0]<br/>class = dissatisfied>, fillcolor="#e58139"] ;
223 -> 297 ;
298 [label=<Cleanliness &le; 4.5<br/>entropy = 0.078<br/>samples = 315<br/>value = [312.0, 3.0]<br/>class = dissatisfied>, fillcolor="#e5823b"] ;
218 -> 298 ;
299 [label=<Checkin service &le; 4.5<br/>entropy = 0.035<br/>samples = 275<br/>value = [274, 1]<br/>class = dissatisfied>, fillcolor="#e5813a"] ;
298 -> 299 ;
300 [label=<entropy = 0.0<br/>samples = 239<br/>value = [239, 0]<br/>class = dissatisfied>, fillcolor="#e58139"] ;
299 -> 300 ;
301 [label=<Leg room service &le; 1.5<br/>entropy = 0.183<br/>samples = 36<br/>value = [35, 1]<br/>class = dissatisfied>, fillcolor="#e6853f"] ;
299 -> 301 ;
302 [label=<Inflight wifi service &le; 4.0<br/>entropy = 0.811<br/>samples = 4<br/>value = [3, 1]<br/>class = dissatisfied>, fillcolor="#eeab7b"] ;
301 -> 302 ;
303 [label=<Cleanliness &le; 2.5<br/>entropy = 1.0<br/>samples = 2<br/>value = [1, 1]<br/>class = dissatisfied>, fillcolor="#ffffff"] ;
302 -> 303 ;
304 [label=<entropy = 0.0<br/>samples = 1<br/>value = [1, 0]<br/>class = dissatisfied>, fillcolor="#e58139"] ;
303 -> 304 ;
305 [label=<entropy = 0.0<br/>samples = 1<br/>value = [0, 1]<br/>class = satisfied>, fillcolor="#399de5"] ;
303 -> 305 ;
306 [label=<entropy = 0.0<br/>samples = 2<br/>value = [2, 0]<br/>class = dissatisfied>, fillcolor="#e58139"] ;
302 -> 306 ;
307 [label=<entropy = 0.0<br/>samples = 32<br/>value = [32, 0]<br/>class = dissatisfied>, fillcolor="#e58139"] ;
301 -> 307 ;
308 [label=<Arrival Delay in Minutes &le; 25.0<br/>entropy = 0.286<br/>samples = 40<br/>value = [38, 2]<br/>class = dissatisfied>, fillcolor="#e68843"] ;
298 -> 308 ;
309 [label=<entropy = 0.0<br/>samples = 33<br/>value = [33, 0]<br/>class = dissatisfied>, fillcolor="#e58139"] ;
308 -> 309 ;
310 [label=<Arrival Delay in Minutes &le; 36.5<br/>entropy = 0.863<br/>samples = 7<br/>value = [5, 2]<br/>class = dissatisfied>, fillcolor="#efb388"] ;
308 -> 310 ;
311 [label=<entropy = 0.0<br/>samples = 2<br/>value = [0, 2]<br/>class = satisfied>, fillcolor="#399de5"] ;
310 -> 311 ;
312 [label=<entropy = 0.0<br/>samples = 5<br/>value = [5, 0]<br/>class = dissatisfied>, fillcolor="#e58139"] ;
310 -> 312 ;
313 [label=<Departure/Arrival time convenient &le; 3.5<br/>entropy = 0.302<br/>samples = 12297<br/>value = [11637, 660]<br/>class = dissatisfied>, fillcolor="#e68844"] ;
171 -> 313 ;
314 [label=<Cleanliness &le; 4.5<br/>entropy = 0.472<br/>samples = 5184<br/>value = [4660, 524]<br/>class = dissatisfied>, fillcolor="#e88f4f"] ;
313 -> 314 ;
315 [label=<Checkin service &le; 4.5<br/>entropy = 0.371<br/>samples = 4819<br/>value = [4475, 344]<br/>class = dissatisfied>, fillcolor="#e78b48"] ;
314 -> 315 ;
316 [label=<Gate location &le; 3.5<br/>entropy = 0.32<br/>samples = 4635<br/>value = [4365, 270]<br/>class = dissatisfied>, fillcolor="#e78945"] ;
315 -> 316 ;
317 [label=<Ease of Online booking &le; 1.5<br/>entropy = 0.373<br/>samples = 3728<br/>value = [3460, 268]<br/>class = dissatisfied>, fillcolor="#e78b48"] ;
316 -> 317 ;
318 [label=<Inflight entertainment &le; 1.5<br/>entropy = 0.057<br/>samples = 758<br/>value = [753, 5]<br/>class = dissatisfied>, fillcolor="#e5823a"] ;
317 -> 318 ;
319 [label=<entropy = 0.0<br/>samples = 454<br/>value = [454, 0]<br/>class = dissatisfied>, fillcolor="#e58139"] ;
318 -> 319 ;
320 [label=<Baggage handling &le; 1.5<br/>entropy = 0.121<br/>samples = 304<br/>value = [299, 5]<br/>class = dissatisfied>, fillcolor="#e5833c"] ;
318 -> 320 ;
321 [label=<Flight Distance &le; 2054.0<br/>entropy = 0.414<br/>samples = 36<br/>value = [33, 3]<br/>class = dissatisfied>, fillcolor="#e78c4b"] ;
320 -> 321 ;
322 [label=<entropy = 0.0<br/>samples = 24<br/>value = [24, 0]<br/>class = dissatisfied>, fillcolor="#e58139"] ;
321 -> 322 ;
323 [label=<Inflight entertainment &le; 2.5<br/>entropy = 0.811<br/>samples = 12<br/>value = [9, 3]<br/>class = dissatisfied>, fillcolor="#eeab7b"] ;
321 -> 323 ;
324 [label=<Flight Distance &le; 2389.0<br/>entropy = 1.0<br/>samples = 6<br/>value = [3, 3]<br/>class = dissatisfied>, fillcolor="#ffffff"] ;
323 -> 324 ;
325 [label=<entropy = 0.0<br/>samples = 2<br/>value = [0, 2]<br/>class = satisfied>, fillcolor="#399de5"] ;
324 -> 325 ;
326 [label=<Inflight wifi service &le; 1.5<br/>entropy = 0.811<br/>samples = 4<br/>value = [3, 1]<br/>class = dissatisfied>, fillcolor="#eeab7b"] ;
324 -> 326 ;
327 [label=<entropy = 0.0<br/>samples = 3<br/>value = [3, 0]<br/>class = dissatisfied>, fillcolor="#e58139"] ;
326 -> 327 ;
328 [label=<entropy = 0.0<br/>samples = 1<br/>value = [0, 1]<br/>class = satisfied>, fillcolor="#399de5"] ;
326 -> 328 ;
329 [label=<entropy = 0.0<br/>samples = 6<br/>value = [6, 0]<br/>class = dissatisfied>, fillcolor="#e58139"] ;
323 -> 329 ;
330 [label=<Leg room service &le; 1.5<br/>entropy = 0.063<br/>samples = 268<br/>value = [266, 2]<br/>class = dissatisfied>, fillcolor="#e5823a"] ;
320 -> 330 ;
331 [label=<Type of Travel &le; 0.5<br/>entropy = 0.267<br/>samples = 44<br/>value = [42, 2]<br/>class = dissatisfied>, fillcolor="#e68742"] ;
330 -> 331 ;
332 [label=<entropy = 0.0<br/>samples = 32<br/>value = [32, 0]<br/>class = dissatisfied>, fillcolor="#e58139"] ;
331 -> 332 ;
333 [label=<Checkin service &le; 2.5<br/>entropy = 0.65<br/>samples = 12<br/>value = [10, 2]<br/>class = dissatisfied>, fillcolor="#ea9a61"] ;
331 -> 333 ;
334 [label=<Seat comfort &le; 1.5<br/>entropy = 0.918<br/>samples = 3<br/>value = [1, 2]<br/>class = satisfied>, fillcolor="#9ccef2"] ;
333 -> 334 ;
335 [label=<entropy = 0.0<br/>samples = 1<br/>value = [1, 0]<br/>class = dissatisfied>, fillcolor="#e58139"] ;
334 -> 335 ;
336 [label=<entropy = 0.0<br/>samples = 2<br/>value = [0, 2]<br/>class = satisfied>, fillcolor="#399de5"] ;
334 -> 336 ;
337 [label=<entropy = 0.0<br/>samples = 9<br/>value = [9, 0]<br/>class = dissatisfied>, fillcolor="#e58139"] ;
333 -> 337 ;
338 [label=<entropy = 0.0<br/>samples = 224<br/>value = [224, 0]<br/>class = dissatisfied>, fillcolor="#e58139"] ;
330 -> 338 ;
339 [label=<On-board service &le; 3.5<br/>entropy = 0.432<br/>samples = 2970<br/>value = [2707, 263]<br/>class = dissatisfied>, fillcolor="#e88d4c"] ;
317 -> 339 ;
340 [label=<Baggage handling &le; 4.5<br/>entropy = 0.32<br/>samples = 2100<br/>value = [1978, 122]<br/>class = dissatisfied>, fillcolor="#e78945"] ;
339 -> 340 ;
341 [label=<Ease of Online booking &le; 3.5<br/>entropy = 0.293<br/>samples = 2051<br/>value = [1945, 106]<br/>class = dissatisfied>, fillcolor="#e68844"] ;
340 -> 341 ;
342 [label=<Inflight wifi service &le; 3.5<br/>entropy = 0.336<br/>samples = 1591<br/>value = [1492, 99]<br/>class = dissatisfied>, fillcolor="#e78946"] ;
341 -> 342 ;
343 [label=<Online boarding &le; 3.5<br/>entropy = 0.287<br/>samples = 1534<br/>value = [1457, 77]<br/>class = dissatisfied>, fillcolor="#e68843"] ;
342 -> 343 ;
344 [label=<Arrival Delay in Minutes &le; 2.5<br/>entropy = 0.265<br/>samples = 1508<br/>value = [1440, 68]<br/>class = dissatisfied>, fillcolor="#e68742"] ;
343 -> 344 ;
345 [label=<Flight Distance &le; 1771.5<br/>entropy = 0.343<br/>samples = 797<br/>value = [746, 51]<br/>class = dissatisfied>, fillcolor="#e78a47"] ;
344 -> 345 ;
346 [label=<Inflight wifi service &le; 2.5<br/>entropy = 0.496<br/>samples = 294<br/>value = [262, 32]<br/>class = dissatisfied>, fillcolor="#e89051"] ;
345 -> 346 ;
347 [label=<Gate location &le; 1.5<br/>entropy = 0.29<br/>samples = 157<br/>value = [149, 8]<br/>class = dissatisfied>, fillcolor="#e68844"] ;
346 -> 347 ;
348 [label=<Flight Distance &le; 1724.0<br/>entropy = 0.614<br/>samples = 33<br/>value = [28, 5]<br/>class = dissatisfied>, fillcolor="#ea985c"] ;
347 -> 348 ;
349 [label=<On-board service &le; 2.5<br/>entropy = 0.459<br/>samples = 31<br/>value = [28, 3]<br/>class = dissatisfied>, fillcolor="#e88e4e"] ;
348 -> 349 ;
350 [label=<entropy = 0.0<br/>samples = 18<br/>value = [18, 0]<br/>class = dissatisfied>, fillcolor="#e58139"] ;
349 -> 350 ;
351 [label=<Food and drink &le; 1.5<br/>entropy = 0.779<br/>samples = 13<br/>value = [10, 3]<br/>class = dissatisfied>, fillcolor="#eda774"] ;
349 -> 351 ;
352 [label=<Flight Distance &le; 1592.0<br/>entropy = 1.0<br/>samples = 6<br/>value = [3, 3]<br/>class = dissatisfied>, fillcolor="#ffffff"] ;
351 -> 352 ;
353 [label=<Age &le; 57.0<br/>entropy = 0.811<br/>samples = 4<br/>value = [1, 3]<br/>class = satisfied>, fillcolor="#7bbeee"] ;
352 -> 353 ;
354 [label=<entropy = 0.0<br/>samples = 3<br/>value = [0, 3]<br/>class = satisfied>, fillcolor="#399de5"] ;
353 -> 354 ;
355 [label=<entropy = 0.0<br/>samples = 1<br/>value = [1, 0]<br/>class = dissatisfied>, fillcolor="#e58139"] ;
353 -> 355 ;
356 [label=<entropy = 0.0<br/>samples = 2<br/>value = [2, 0]<br/>class = dissatisfied>, fillcolor="#e58139"] ;
352 -> 356 ;
357 [label=<entropy = 0.0<br/>samples = 7<br/>value = [7, 0]<br/>class = dissatisfied>, fillcolor="#e58139"] ;
351 -> 357 ;
358 [label=<entropy = 0.0<br/>samples = 2<br/>value = [0, 2]<br/>class = satisfied>, fillcolor="#399de5"] ;
348 -> 358 ;
359 [label=<Flight Distance &le; 1168.5<br/>entropy = 0.164<br/>samples = 124<br/>value = [121, 3]<br/>class = dissatisfied>, fillcolor="#e6843e"] ;
347 -> 359 ;
360 [label=<Flight Distance &le; 1130.5<br/>entropy = 0.764<br/>samples = 9<br/>value = [7, 2]<br/>class = dissatisfied>, fillcolor="#eca572"] ;
359 -> 360 ;
361 [label=<entropy = 0.0<br/>samples = 6<br/>value = [6, 0]<br/>class = dissatisfied>, fillcolor="#e58139"] ;
360 -> 361 ;
362 [label=<On-board service &le; 1.5<br/>entropy = 0.918<br/>samples = 3<br/>value = [1, 2]<br/>class = satisfied>, fillcolor="#9ccef2"] ;
360 -> 362 ;
363 [label=<entropy = 0.0<br/>samples = 1<br/>value = [1, 0]<br/>class = dissatisfied>, fillcolor="#e58139"] ;
362 -> 363 ;
364 [label=<entropy = 0.0<br/>samples = 2<br/>value = [0, 2]<br/>class = satisfied>, fillcolor="#399de5"] ;
362 -> 364 ;
365 [label=<Leg room service &le; 1.5<br/>entropy = 0.072<br/>samples = 115<br/>value = [114, 1]<br/>class = dissatisfied>, fillcolor="#e5823b"] ;
359 -> 365 ;
366 [label=<On-board service &le; 2.5<br/>entropy = 0.353<br/>samples = 15<br/>value = [14, 1]<br/>class = dissatisfied>, fillcolor="#e78a47"] ;
365 -> 366 ;
367 [label=<entropy = 0.0<br/>samples = 13<br/>value = [13, 0]<br/>class = dissatisfied>, fillcolor="#e58139"] ;
366 -> 367 ;
368 [label=<Checkin service &le; 2.5<br/>entropy = 1.0<br/>samples = 2<br/>value = [1, 1]<br/>class = dissatisfied>, fillcolor="#ffffff"] ;
366 -> 368 ;
369 [label=<entropy = 0.0<br/>samples = 1<br/>value = [0, 1]<br/>class = satisfied>, fillcolor="#399de5"] ;
368 -> 369 ;
370 [label=<entropy = 0.0<br/>samples = 1<br/>value = [1, 0]<br/>class = dissatisfied>, fillcolor="#e58139"] ;
368 -> 370 ;
371 [label=<entropy = 0.0<br/>samples = 100<br/>value = [100, 0]<br/>class = dissatisfied>, fillcolor="#e58139"] ;
365 -> 371 ;
372 [label=<Age &le; 40.5<br/>entropy = 0.669<br/>samples = 137<br/>value = [113, 24]<br/>class = dissatisfied>, fillcolor="#eb9c63"] ;
346 -> 372 ;
373 [label=<Gate location &le; 2.5<br/>entropy = 0.391<br/>samples = 65<br/>value = [60, 5]<br/>class = dissatisfied>, fillcolor="#e78c49"] ;
372 -> 373 ;
374 [label=<Arrival Delay in Minutes &le; 0.5<br/>entropy = 0.637<br/>samples = 31<br/>value = [26, 5]<br/>class = dissatisfied>, fillcolor="#ea995f"] ;
373 -> 374 ;
375 [label=<Age &le; 17.5<br/>entropy = 0.48<br/>samples = 29<br/>value = [26, 3]<br/>class = dissatisfied>, fillcolor="#e89050"] ;
374 -> 375 ;
376 [label=<Checkin service &le; 1.5<br/>entropy = 0.918<br/>samples = 3<br/>value = [1, 2]<br/>class = satisfied>, fillcolor="#9ccef2"] ;
375 -> 376 ;
377 [label=<entropy = 0.0<br/>samples = 1<br/>value = [1, 0]<br/>class = dissatisfied>, fillcolor="#e58139"] ;
376 -> 377 ;
378 [label=<entropy = 0.0<br/>samples = 2<br/>value = [0, 2]<br/>class = satisfied>, fillcolor="#399de5"] ;
376 -> 378 ;
379 [label=<Age &le; 38.0<br/>entropy = 0.235<br/>samples = 26<br/>value = [25, 1]<br/>class = dissatisfied>, fillcolor="#e68641"] ;
375 -> 379 ;
380 [label=<entropy = 0.0<br/>samples = 24<br/>value = [24, 0]<br/>class = dissatisfied>, fillcolor="#e58139"] ;
379 -> 380 ;
381 [label=<Leg room service &le; 4.5<br/>entropy = 1.0<br/>samples = 2<br/>value = [1, 1]<br/>class = dissatisfied>, fillcolor="#ffffff"] ;
379 -> 381 ;
382 [label=<entropy = 0.0<br/>samples = 1<br/>value = [1, 0]<br/>class = dissatisfied>, fillcolor="#e58139"] ;
381 -> 382 ;
383 [label=<entropy = 0.0<br/>samples = 1<br/>value = [0, 1]<br/>class = satisfied>, fillcolor="#399de5"] ;
381 -> 383 ;
384 [label=<entropy = 0.0<br/>samples = 2<br/>value = [0, 2]<br/>class = satisfied>, fillcolor="#399de5"] ;
374 -> 384 ;
385 [label=<entropy = 0.0<br/>samples = 34<br/>value = [34, 0]<br/>class = dissatisfied>, fillcolor="#e58139"] ;
373 -> 385 ;
386 [label=<Departure/Arrival time convenient &le; 1.5<br/>entropy = 0.833<br/>samples = 72<br/>value = [53, 19]<br/>class = dissatisfied>, fillcolor="#eeae80"] ;
372 -> 386 ;
387 [label=<entropy = 0.0<br/>samples = 21<br/>value = [21, 0]<br/>class = dissatisfied>, fillcolor="#e58139"] ;
386 -> 387 ;
388 [label=<Flight Distance &le; 1746.5<br/>entropy = 0.953<br/>samples = 51<br/>value = [32, 19]<br/>class = dissatisfied>, fillcolor="#f4ccaf"] ;
386 -> 388 ;
389 [label=<Age &le; 55.5<br/>entropy = 0.903<br/>samples = 47<br/>value = [32, 15]<br/>class = dissatisfied>, fillcolor="#f1bc96"] ;
388 -> 389 ;
390 [label=<Food and drink &le; 2.5<br/>entropy = 1.0<br/>samples = 26<br/>value = [13, 13]<br/>class = dissatisfied>, fillcolor="#ffffff"] ;
389 -> 390 ;
391 [label=<Baggage handling &le; 2.5<br/>entropy = 0.837<br/>samples = 15<br/>value = [11, 4]<br/>class = dissatisfied>, fillcolor="#eeaf81"] ;
390 -> 391 ;
392 [label=<Flight Distance &le; 1623.0<br/>entropy = 1.0<br/>samples = 8<br/>value = [4, 4]<br/>class = dissatisfied>, fillcolor="#ffffff"] ;
391 -> 392 ;
393 [label=<Checkin service &le; 2.5<br/>entropy = 0.918<br/>samples = 6<br/>value = [2, 4]<br/>class = satisfied>, fillcolor="#9ccef2"] ;
392 -> 393 ;
394 [label=<Flight Distance &le; 1175.5<br/>entropy = 0.918<br/>samples = 3<br/>value = [2, 1]<br/>class = dissatisfied>, fillcolor="#f2c09c"] ;
393 -> 394 ;
395 [label=<entropy = 0.0<br/>samples = 2<br/>value = [2, 0]<br/>class = dissatisfied>, fillcolor="#e58139"] ;
394 -> 395 ;
396 [label=<entropy = 0.0<br/>samples = 1<br/>value = [0, 1]<br/>class = satisfied>, fillcolor="#399de5"] ;
394 -> 396 ;
397 [label=<entropy = 0.0<br/>samples = 3<br/>value = [0, 3]<br/>class = satisfied>, fillcolor="#399de5"] ;
393 -> 397 ;
398 [label=<entropy = 0.0<br/>samples = 2<br/>value = [2, 0]<br/>class = dissatisfied>, fillcolor="#e58139"] ;
392 -> 398 ;
399 [label=<entropy = 0.0<br/>samples = 7<br/>value = [7, 0]<br/>class = dissatisfied>, fillcolor="#e58139"] ;
391 -> 399 ;
400 [label=<Type of Travel &le; 0.5<br/>entropy = 0.684<br/>samples = 11<br/>value = [2, 9]<br/>class = satisfied>, fillcolor="#65b3eb"] ;
390 -> 400 ;
401 [label=<entropy = 0.0<br/>samples = 1<br/>value = [1, 0]<br/>class = dissatisfied>, fillcolor="#e58139"] ;
400 -> 401 ;
402 [label=<On-board service &le; 2.5<br/>entropy = 0.469<br/>samples = 10<br/>value = [1, 9]<br/>class = satisfied>, fillcolor="#4fa8e8"] ;
400 -> 402 ;
403 [label=<entropy = 0.0<br/>samples = 8<br/>value = [0, 8]<br/>class = satisfied>, fillcolor="#399de5"] ;
402 -> 403 ;
404 [label=<Leg room service &le; 3.5<br/>entropy = 1.0<br/>samples = 2<br/>value = [1, 1]<br/>class = dissatisfied>, fillcolor="#ffffff"] ;
402 -> 404 ;
405 [label=<entropy = 0.0<br/>samples = 1<br/>value = [1, 0]<br/>class = dissatisfied>, fillcolor="#e58139"] ;
404 -> 405 ;
406 [label=<entropy = 0.0<br/>samples = 1<br/>value = [0, 1]<br/>class = satisfied>, fillcolor="#399de5"] ;
404 -> 406 ;
407 [label=<Flight Distance &le; 1146.5<br/>entropy = 0.454<br/>samples = 21<br/>value = [19, 2]<br/>class = dissatisfied>, fillcolor="#e88e4e"] ;
389 -> 407 ;
408 [label=<entropy = 0.0<br/>samples = 1<br/>value = [0, 1]<br/>class = satisfied>, fillcolor="#399de5"] ;
407 -> 408 ;
409 [label=<Baggage handling &le; 1.5<br/>entropy = 0.286<br/>samples = 20<br/>value = [19, 1]<br/>class = dissatisfied>, fillcolor="#e68843"] ;
407 -> 409 ;
410 [label=<On-board service &le; 2.5<br/>entropy = 0.918<br/>samples = 3<br/>value = [2, 1]<br/>class = dissatisfied>, fillcolor="#f2c09c"] ;
409 -> 410 ;
411 [label=<entropy = 0.0<br/>samples = 2<br/>value = [2, 0]<br/>class = dissatisfied>, fillcolor="#e58139"] ;
410 -> 411 ;
412 [label=<entropy = 0.0<br/>samples = 1<br/>value = [0, 1]<br/>class = satisfied>, fillcolor="#399de5"] ;
410 -> 412 ;
413 [label=<entropy = 0.0<br/>samples = 17<br/>value = [17, 0]<br/>class = dissatisfied>, fillcolor="#e58139"] ;
409 -> 413 ;
414 [label=<entropy = 0.0<br/>samples = 4<br/>value = [0, 4]<br/>class = satisfied>, fillcolor="#399de5"] ;
388 -> 414 ;
415 [label=<Cleanliness &le; 2.5<br/>entropy = 0.232<br/>samples = 503<br/>value = [484, 19]<br/>class = dissatisfied>, fillcolor="#e68641"] ;
345 -> 415 ;
416 [label=<Baggage handling &le; 1.5<br/>entropy = 0.457<br/>samples = 104<br/>value = [94, 10]<br/>class = dissatisfied>, fillcolor="#e88e4e"] ;
415 -> 416 ;
417 [label=<entropy = 0.0<br/>samples = 28<br/>value = [28, 0]<br/>class = dissatisfied>, fillcolor="#e58139"] ;
416 -> 417 ;
418 [label=<Flight Distance &le; 1979.0<br/>entropy = 0.562<br/>samples = 76<br/>value = [66, 10]<br/>class = dissatisfied>, fillcolor="#e99457"] ;
416 -> 418 ;
419 [label=<entropy = 0.0<br/>samples = 14<br/>value = [14, 0]<br/>class = dissatisfied>, fillcolor="#e58139"] ;
418 -> 419 ;
420 [label=<Flight Distance &le; 2424.5<br/>entropy = 0.637<br/>samples = 62<br/>value = [52, 10]<br/>class = dissatisfied>, fillcolor="#ea995f"] ;
418 -> 420 ;
421 [label=<Departure Delay in Minutes &le; 4.0<br/>entropy = 0.877<br/>samples = 27<br/>value = [19, 8]<br/>class = dissatisfied>, fillcolor="#f0b68c"] ;
420 -> 421 ;
422 [label=<Inflight entertainment &le; 2.5<br/>entropy = 0.738<br/>samples = 24<br/>value = [19, 5]<br/>class = dissatisfied>, fillcolor="#eca26d"] ;
421 -> 422 ;
423 [label=<Flight Distance &le; 1991.5<br/>entropy = 0.353<br/>samples = 15<br/>value = [14, 1]<br/>class = dissatisfied>, fillcolor="#e78a47"] ;
422 -> 423 ;
424 [label=<entropy = 0.0<br/>samples = 1<br/>value = [0, 1]<br/>class = satisfied>, fillcolor="#399de5"] ;
423 -> 424 ;
425 [label=<entropy = 0.0<br/>samples = 14<br/>value = [14, 0]<br/>class = dissatisfied>, fillcolor="#e58139"] ;
423 -> 425 ;
426 [label=<Flight Distance &le; 2044.0<br/>entropy = 0.991<br/>samples = 9<br/>value = [5, 4]<br/>class = dissatisfied>, fillcolor="#fae6d7"] ;
422 -> 426 ;
427 [label=<entropy = 0.0<br/>samples = 2<br/>value = [0, 2]<br/>class = satisfied>, fillcolor="#399de5"] ;
426 -> 427 ;
428 [label=<Flight Distance &le; 2272.5<br/>entropy = 0.863<br/>samples = 7<br/>value = [5, 2]<br/>class = dissatisfied>, fillcolor="#efb388"] ;
426 -> 428 ;
429 [label=<entropy = 0.0<br/>samples = 5<br/>value = [5, 0]<br/>class = dissatisfied>, fillcolor="#e58139"] ;
428 -> 429 ;
430 [label=<entropy = 0.0<br/>samples = 2<br/>value = [0, 2]<br/>class = satisfied>, fillcolor="#399de5"] ;
428 -> 430 ;
431 [label=<entropy = 0.0<br/>samples = 3<br/>value = [0, 3]<br/>class = satisfied>, fillcolor="#399de5"] ;
421 -> 431 ;
432 [label=<Food and drink &le; 1.5<br/>entropy = 0.316<br/>samples = 35<br/>value = [33, 2]<br/>class = dissatisfied>, fillcolor="#e78945"] ;
420 -> 432 ;
433 [label=<Online boarding &le; 2.5<br/>entropy = 0.619<br/>samples = 13<br/>value = [11, 2]<br/>class = dissatisfied>, fillcolor="#ea985d"] ;
432 -> 433 ;
434 [label=<On-board service &le; 1.5<br/>entropy = 0.971<br/>samples = 5<br/>value = [3, 2]<br/>class = dissatisfied>, fillcolor="#f6d5bd"] ;
433 -> 434 ;
435 [label=<entropy = 0.0<br/>samples = 3<br/>value = [3, 0]<br/>class = dissatisfied>, fillcolor="#e58139"] ;
434 -> 435 ;
436 [label=<entropy = 0.0<br/>samples = 2<br/>value = [0, 2]<br/>class = satisfied>, fillcolor="#399de5"] ;
434 -> 436 ;
437 [label=<entropy = 0.0<br/>samples = 8<br/>value = [8, 0]<br/>class = dissatisfied>, fillcolor="#e58139"] ;
433 -> 437 ;
438 [label=<entropy = 0.0<br/>samples = 22<br/>value = [22, 0]<br/>class = dissatisfied>, fillcolor="#e58139"] ;
432 -> 438 ;
439 [label=<Gate location &le; 1.5<br/>entropy = 0.156<br/>samples = 399<br/>value = [390, 9]<br/>class = dissatisfied>, fillcolor="#e6843e"] ;
415 -> 439 ;
440 [label=<Type of Travel &le; 0.5<br/>entropy = 0.388<br/>samples = 92<br/>value = [85, 7]<br/>class = dissatisfied>, fillcolor="#e78b49"] ;
439 -> 440 ;
441 [label=<Checkin service &le; 2.0<br/>entropy = 0.918<br/>samples = 6<br/>value = [2, 4]<br/>class = satisfied>, fillcolor="#9ccef2"] ;
440 -> 441 ;
442 [label=<entropy = 0.0<br/>samples = 2<br/>value = [2, 0]<br/>class = dissatisfied>, fillcolor="#e58139"] ;
441 -> 442 ;
443 [label=<entropy = 0.0<br/>samples = 4<br/>value = [0, 4]<br/>class = satisfied>, fillcolor="#399de5"] ;
441 -> 443 ;
444 [label=<Baggage handling &le; 1.5<br/>entropy = 0.218<br/>samples = 86<br/>value = [83, 3]<br/>class = dissatisfied>, fillcolor="#e68640"] ;
440 -> 444 ;
445 [label=<entropy = 0.0<br/>samples = 1<br/>value = [0, 1]<br/>class = satisfied>, fillcolor="#399de5"] ;
444 -> 445 ;
446 [label=<Cleanliness &le; 3.5<br/>entropy = 0.161<br/>samples = 85<br/>value = [83, 2]<br/>class = dissatisfied>, fillcolor="#e6843e"] ;
444 -> 446 ;
447 [label=<entropy = 0.0<br/>samples = 44<br/>value = [44, 0]<br/>class = dissatisfied>, fillcolor="#e58139"] ;
446 -> 447 ;
448 [label=<Age &le; 56.0<br/>entropy = 0.281<br/>samples = 41<br/>value = [39, 2]<br/>class = dissatisfied>, fillcolor="#e68743"] ;
446 -> 448 ;
449 [label=<Baggage handling &le; 2.5<br/>entropy = 0.176<br/>samples = 38<br/>value = [37, 1]<br/>class = dissatisfied>, fillcolor="#e6843e"] ;
448 -> 449 ;
450 [label=<Checkin service &le; 2.5<br/>entropy = 0.918<br/>samples = 3<br/>value = [2, 1]<br/>class = dissatisfied>, fillcolor="#f2c09c"] ;
449 -> 450 ;
451 [label=<entropy = 0.0<br/>samples = 2<br/>value = [2, 0]<br/>class = dissatisfied>, fillcolor="#e58139"] ;
450 -> 451 ;
452 [label=<entropy = 0.0<br/>samples = 1<br/>value = [0, 1]<br/>class = satisfied>, fillcolor="#399de5"] ;
450 -> 452 ;
453 [label=<entropy = 0.0<br/>samples = 35<br/>value = [35, 0]<br/>class = dissatisfied>, fillcolor="#e58139"] ;
449 -> 453 ;
454 [label=<Flight Distance &le; 2064.0<br/>entropy = 0.918<br/>samples = 3<br/>value = [2, 1]<br/>class = dissatisfied>, fillcolor="#f2c09c"] ;
448 -> 454 ;
455 [label=<entropy = 0.0<br/>samples = 1<br/>value = [0, 1]<br/>class = satisfied>, fillcolor="#399de5"] ;
454 -> 455 ;
456 [label=<entropy = 0.0<br/>samples = 2<br/>value = [2, 0]<br/>class = dissatisfied>, fillcolor="#e58139"] ;
454 -> 456 ;
457 [label=<Flight Distance &le; 4263.5<br/>entropy = 0.057<br/>samples = 307<br/>value = [305, 2]<br/>class = dissatisfied>, fillcolor="#e5823a"] ;
439 -> 457 ;
458 [label=<Flight Distance &le; 1808.0<br/>entropy = 0.032<br/>samples = 305<br/>value = [304, 1]<br/>class = dissatisfied>, fillcolor="#e5813a"] ;
457 -> 458 ;
459 [label=<Flight Distance &le; 1805.5<br/>entropy = 0.391<br/>samples = 13<br/>value = [12, 1]<br/>class = dissatisfied>, fillcolor="#e78c49"] ;
458 -> 459 ;
460 [label=<entropy = 0.0<br/>samples = 12<br/>value = [12, 0]<br/>class = dissatisfied>, fillcolor="#e58139"] ;
459 -> 460 ;
461 [label=<entropy = 0.0<br/>samples = 1<br/>value = [0, 1]<br/>class = satisfied>, fillcolor="#399de5"] ;
459 -> 461 ;
462 [label=<entropy = 0.0<br/>samples = 292<br/>value = [292, 0]<br/>class = dissatisfied>, fillcolor="#e58139"] ;
458 -> 462 ;
463 [label=<Age &le; 46.0<br/>entropy = 1.0<br/>samples = 2<br/>value = [1, 1]<br/>class = dissatisfied>, fillcolor="#ffffff"] ;
457 -> 463 ;
464 [label=<entropy = 0.0<br/>samples = 1<br/>value = [0, 1]<br/>class = satisfied>, fillcolor="#399de5"] ;
463 -> 464 ;
465 [label=<entropy = 0.0<br/>samples = 1<br/>value = [1, 0]<br/>class = dissatisfied>, fillcolor="#e58139"] ;
463 -> 465 ;
466 [label=<Baggage handling &le; 2.5<br/>entropy = 0.163<br/>samples = 711<br/>value = [694, 17]<br/>class = dissatisfied>, fillcolor="#e6843e"] ;
344 -> 466 ;
467 [label=<Checkin service &le; 3.5<br/>entropy = 0.32<br/>samples = 172<br/>value = [162, 10]<br/>class = dissatisfied>, fillcolor="#e78945"] ;
466 -> 467 ;
468 [label=<Departure/Arrival time convenient &le; 2.5<br/>entropy = 0.155<br/>samples = 134<br/>value = [131, 3]<br/>class = dissatisfied>, fillcolor="#e6843e"] ;
467 -> 468 ;
469 [label=<entropy = 0.0<br/>samples = 91<br/>value = [91, 0]<br/>class = dissatisfied>, fillcolor="#e58139"] ;
468 -> 469 ;
470 [label=<Food and drink &le; 3.5<br/>entropy = 0.365<br/>samples = 43<br/>value = [40, 3]<br/>class = dissatisfied>, fillcolor="#e78a48"] ;
468 -> 470 ;
471 [label=<Flight Distance &le; 1981.5<br/>entropy = 0.276<br/>samples = 42<br/>value = [40, 2]<br/>class = dissatisfied>, fillcolor="#e68743"] ;
470 -> 471 ;
472 [label=<Arrival Delay in Minutes &le; 63.0<br/>entropy = 0.523<br/>samples = 17<br/>value = [15, 2]<br/>class = dissatisfied>, fillcolor="#e89253"] ;
471 -> 472 ;
473 [label=<Cleanliness &le; 3.5<br/>entropy = 0.337<br/>samples = 16<br/>value = [15, 1]<br/>class = dissatisfied>, fillcolor="#e78946"] ;
472 -> 473 ;
474 [label=<entropy = 0.0<br/>samples = 14<br/>value = [14, 0]<br/>class = dissatisfied>, fillcolor="#e58139"] ;
473 -> 474 ;
475 [label=<Seat comfort &le; 2.5<br/>entropy = 1.0<br/>samples = 2<br/>value = [1, 1]<br/>class = dissatisfied>, fillcolor="#ffffff"] ;
473 -> 475 ;
476 [label=<entropy = 0.0<br/>samples = 1<br/>value = [0, 1]<br/>class = satisfied>, fillcolor="#399de5"] ;
475 -> 476 ;
477 [label=<entropy = 0.0<br/>samples = 1<br/>value = [1, 0]<br/>class = dissatisfied>, fillcolor="#e58139"] ;
475 -> 477 ;
478 [label=<entropy = 0.0<br/>samples = 1<br/>value = [0, 1]<br/>class = satisfied>, fillcolor="#399de5"] ;
472 -> 478 ;
479 [label=<entropy = 0.0<br/>samples = 25<br/>value = [25, 0]<br/>class = dissatisfied>, fillcolor="#e58139"] ;
471 -> 479 ;
480 [label=<entropy = 0.0<br/>samples = 1<br/>value = [0, 1]<br/>class = satisfied>, fillcolor="#399de5"] ;
470 -> 480 ;
481 [label=<Departure Delay in Minutes &le; 9.5<br/>entropy = 0.689<br/>samples = 38<br/>value = [31, 7]<br/>class = dissatisfied>, fillcolor="#eb9d66"] ;
467 -> 481 ;
482 [label=<entropy = 0.0<br/>samples = 13<br/>value = [13, 0]<br/>class = dissatisfied>, fillcolor="#e58139"] ;
481 -> 482 ;
483 [label=<Gate location &le; 2.5<br/>entropy = 0.855<br/>samples = 25<br/>value = [18.0, 7.0]<br/>class = dissatisfied>, fillcolor="#efb286"] ;
481 -> 483 ;
484 [label=<Departure/Arrival time convenient &le; 2.5<br/>entropy = 1.0<br/>samples = 12<br/>value = [6, 6]<br/>class = dissatisfied>, fillcolor="#ffffff"] ;
483 -> 484 ;
485 [label=<Online support &le; 2.5<br/>entropy = 0.918<br/>samples = 9<br/>value = [3, 6]<br/>class = satisfied>, fillcolor="#9ccef2"] ;
484 -> 485 ;
486 [label=<Cleanliness &le; 3.5<br/>entropy = 0.811<br/>samples = 4<br/>value = [3, 1]<br/>class = dissatisfied>, fillcolor="#eeab7b"] ;
485 -> 486 ;
487 [label=<entropy = 0.0<br/>samples = 3<br/>value = [3, 0]<br/>class = dissatisfied>, fillcolor="#e58139"] ;
486 -> 487 ;
488 [label=<entropy = 0.0<br/>samples = 1<br/>value = [0, 1]<br/>class = satisfied>, fillcolor="#399de5"] ;
486 -> 488 ;
489 [label=<entropy = 0.0<br/>samples = 5<br/>value = [0, 5]<br/>class = satisfied>, fillcolor="#399de5"] ;
485 -> 489 ;
490 [label=<entropy = 0.0<br/>samples = 3<br/>value = [3, 0]<br/>class = dissatisfied>, fillcolor="#e58139"] ;
484 -> 490 ;
491 [label=<Leg room service &le; 1.5<br/>entropy = 0.391<br/>samples = 13<br/>value = [12, 1]<br/>class = dissatisfied>, fillcolor="#e78c49"] ;
483 -> 491 ;
492 [label=<Cleanliness &le; 2.5<br/>entropy = 1.0<br/>samples = 2<br/>value = [1, 1]<br/>class = dissatisfied>, fillcolor="#ffffff"] ;
491 -> 492 ;
493 [label=<entropy = 0.0<br/>samples = 1<br/>value = [1, 0]<br/>class = dissatisfied>, fillcolor="#e58139"] ;
492 -> 493 ;
494 [label=<entropy = 0.0<br/>samples = 1<br/>value = [0, 1]<br/>class = satisfied>, fillcolor="#399de5"] ;
492 -> 494 ;
495 [label=<entropy = 0.0<br/>samples = 11<br/>value = [11, 0]<br/>class = dissatisfied>, fillcolor="#e58139"] ;
491 -> 495 ;
496 [label=<Ease of Online booking &le; 2.5<br/>entropy = 0.1<br/>samples = 539<br/>value = [532.0, 7.0]<br/>class = dissatisfied>, fillcolor="#e5833c"] ;
466 -> 496 ;
497 [label=<entropy = 0.0<br/>samples = 272<br/>value = [272, 0]<br/>class = dissatisfied>, fillcolor="#e58139"] ;
496 -> 497 ;
498 [label=<Online boarding &le; 2.5<br/>entropy = 0.175<br/>samples = 267<br/>value = [260, 7]<br/>class = dissatisfied>, fillcolor="#e6843e"] ;
496 -> 498 ;
499 [label=<Arrival Delay in Minutes &le; 22.0<br/>entropy = 0.722<br/>samples = 15<br/>value = [12, 3]<br/>class = dissatisfied>, fillcolor="#eca06a"] ;
498 -> 499 ;
500 [label=<Food and drink &le; 2.5<br/>entropy = 0.811<br/>samples = 4<br/>value = [1, 3]<br/>class = satisfied>, fillcolor="#7bbeee"] ;
499 -> 500 ;
501 [label=<entropy = 0.0<br/>samples = 3<br/>value = [0, 3]<br/>class = satisfied>, fillcolor="#399de5"] ;
500 -> 501 ;
502 [label=<entropy = 0.0<br/>samples = 1<br/>value = [1, 0]<br/>class = dissatisfied>, fillcolor="#e58139"] ;
500 -> 502 ;
503 [label=<entropy = 0.0<br/>samples = 11<br/>value = [11, 0]<br/>class = dissatisfied>, fillcolor="#e58139"] ;
499 -> 503 ;
504 [label=<Flight Distance &le; 2321.0<br/>entropy = 0.118<br/>samples = 252<br/>value = [248, 4]<br/>class = dissatisfied>, fillcolor="#e5833c"] ;
498 -> 504 ;
505 [label=<entropy = 0.0<br/>samples = 171<br/>value = [171, 0]<br/>class = dissatisfied>, fillcolor="#e58139"] ;
504 -> 505 ;
506 [label=<Arrival Delay in Minutes &le; 186.5<br/>entropy = 0.284<br/>samples = 81<br/>value = [77, 4]<br/>class = dissatisfied>, fillcolor="#e68843"] ;
504 -> 506 ;
507 [label=<Flight Distance &le; 2326.5<br/>entropy = 0.231<br/>samples = 80<br/>value = [77, 3]<br/>class = dissatisfied>, fillcolor="#e68641"] ;
506 -> 507 ;
508 [label=<entropy = 0.0<br/>samples = 1<br/>value = [0, 1]<br/>class = satisfied>, fillcolor="#399de5"] ;
507 -> 508 ;
509 [label=<On-board service &le; 2.5<br/>entropy = 0.17<br/>samples = 79<br/>value = [77, 2]<br/>class = dissatisfied>, fillcolor="#e6843e"] ;
507 -> 509 ;
510 [label=<entropy = 0.0<br/>samples = 51<br/>value = [51, 0]<br/>class = dissatisfied>, fillcolor="#e58139"] ;
509 -> 510 ;
511 [label=<Checkin service &le; 2.5<br/>entropy = 0.371<br/>samples = 28<br/>value = [26, 2]<br/>class = dissatisfied>, fillcolor="#e78b48"] ;
509 -> 511 ;
512 [label=<entropy = 0.0<br/>samples = 13<br/>value = [13, 0]<br/>class = dissatisfied>, fillcolor="#e58139"] ;
511 -> 512 ;
513 [label=<Age &le; 42.0<br/>entropy = 0.567<br/>samples = 15<br/>value = [13, 2]<br/>class = dissatisfied>, fillcolor="#e99457"] ;
511 -> 513 ;
514 [label=<Arrival Delay in Minutes &le; 54.0<br/>entropy = 0.811<br/>samples = 8<br/>value = [6, 2]<br/>class = dissatisfied>, fillcolor="#eeab7b"] ;
513 -> 514 ;
515 [label=<Departure Delay in Minutes &le; 10.5<br/>entropy = 0.592<br/>samples = 7<br/>value = [6, 1]<br/>class = dissatisfied>, fillcolor="#e9965a"] ;
514 -> 515 ;
516 [label=<entropy = 0.0<br/>samples = 1<br/>value = [0, 1]<br/>class = satisfied>, fillcolor="#399de5"] ;
515 -> 516 ;
517 [label=<entropy = 0.0<br/>samples = 6<br/>value = [6, 0]<br/>class = dissatisfied>, fillcolor="#e58139"] ;
515 -> 517 ;
518 [label=<entropy = 0.0<br/>samples = 1<br/>value = [0, 1]<br/>class = satisfied>, fillcolor="#399de5"] ;
514 -> 518 ;
519 [label=<entropy = 0.0<br/>samples = 7<br/>value = [7, 0]<br/>class = dissatisfied>, fillcolor="#e58139"] ;
513 -> 519 ;
520 [label=<entropy = 0.0<br/>samples = 1<br/>value = [0, 1]<br/>class = satisfied>, fillcolor="#399de5"] ;
506 -> 520 ;
521 [label=<Age &le; 26.5<br/>entropy = 0.931<br/>samples = 26<br/>value = [17, 9]<br/>class = dissatisfied>, fillcolor="#f3c4a2"] ;
343 -> 521 ;
522 [label=<entropy = 0.0<br/>samples = 5<br/>value = [0, 5]<br/>class = satisfied>, fillcolor="#399de5"] ;
521 -> 522 ;
523 [label=<Online support &le; 4.5<br/>entropy = 0.702<br/>samples = 21<br/>value = [17, 4]<br/>class = dissatisfied>, fillcolor="#eb9f68"] ;
521 -> 523 ;
524 [label=<entropy = 0.0<br/>samples = 17<br/>value = [17, 0]<br/>class = dissatisfied>, fillcolor="#e58139"] ;
523 -> 524 ;
525 [label=<entropy = 0.0<br/>samples = 4<br/>value = [0, 4]<br/>class = satisfied>, fillcolor="#399de5"] ;
523 -> 525 ;
526 [label=<Type of Travel &le; 0.5<br/>entropy = 0.962<br/>samples = 57<br/>value = [35, 22]<br/>class = dissatisfied>, fillcolor="#f5d0b5"] ;
342 -> 526 ;
527 [label=<entropy = 0.0<br/>samples = 22<br/>value = [0, 22]<br/>class = satisfied>, fillcolor="#399de5"] ;
526 -> 527 ;
528 [label=<entropy = 0.0<br/>samples = 35<br/>value = [35, 0]<br/>class = dissatisfied>, fillcolor="#e58139"] ;
526 -> 528 ;
529 [label=<Type of Travel &le; 0.5<br/>entropy = 0.114<br/>samples = 460<br/>value = [453, 7]<br/>class = dissatisfied>, fillcolor="#e5833c"] ;
341 -> 529 ;
530 [label=<Online boarding &le; 3.5<br/>entropy = 0.044<br/>samples = 420<br/>value = [418, 2]<br/>class = dissatisfied>, fillcolor="#e5823a"] ;
529 -> 530 ;
531 [label=<Flight Distance &le; 1493.0<br/>entropy = 0.503<br/>samples = 9<br/>value = [8, 1]<br/>class = dissatisfied>, fillcolor="#e89152"] ;
530 -> 531 ;
532 [label=<entropy = 0.0<br/>samples = 1<br/>value = [0, 1]<br/>class = satisfied>, fillcolor="#399de5"] ;
531 -> 532 ;
533 [label=<entropy = 0.0<br/>samples = 8<br/>value = [8, 0]<br/>class = dissatisfied>, fillcolor="#e58139"] ;
531 -> 533 ;
534 [label=<Departure Delay in Minutes &le; 46.5<br/>entropy = 0.025<br/>samples = 411<br/>value = [410, 1]<br/>class = dissatisfied>, fillcolor="#e58139"] ;
530 -> 534 ;
535 [label=<entropy = 0.0<br/>samples = 380<br/>value = [380, 0]<br/>class = dissatisfied>, fillcolor="#e58139"] ;
534 -> 535 ;
536 [label=<Flight Distance &le; 2834.5<br/>entropy = 0.206<br/>samples = 31<br/>value = [30, 1]<br/>class = dissatisfied>, fillcolor="#e68540"] ;
534 -> 536 ;
537 [label=<entropy = 0.0<br/>samples = 30<br/>value = [30, 0]<br/>class = dissatisfied>, fillcolor="#e58139"] ;
536 -> 537 ;
538 [label=<entropy = 0.0<br/>samples = 1<br/>value = [0, 1]<br/>class = satisfied>, fillcolor="#399de5"] ;
536 -> 538 ;
539 [label=<Checkin service &le; 2.5<br/>entropy = 0.544<br/>samples = 40<br/>value = [35, 5]<br/>class = dissatisfied>, fillcolor="#e99355"] ;
529 -> 539 ;
540 [label=<entropy = 0.0<br/>samples = 17<br/>value = [17, 0]<br/>class = dissatisfied>, fillcolor="#e58139"] ;
539 -> 540 ;
541 [label=<Leg room service &le; 4.5<br/>entropy = 0.755<br/>samples = 23<br/>value = [18, 5]<br/>class = dissatisfied>, fillcolor="#eca470"] ;
539 -> 541 ;
542 [label=<Cleanliness &le; 2.5<br/>entropy = 0.592<br/>samples = 21<br/>value = [18, 3]<br/>class = dissatisfied>, fillcolor="#e9965a"] ;
541 -> 542 ;
543 [label=<Age &le; 38.0<br/>entropy = 0.881<br/>samples = 10<br/>value = [7, 3]<br/>class = dissatisfied>, fillcolor="#f0b78e"] ;
542 -> 543 ;
544 [label=<entropy = 0.0<br/>samples = 4<br/>value = [4, 0]<br/>class = dissatisfied>, fillcolor="#e58139"] ;
543 -> 544 ;
545 [label=<Age &le; 47.5<br/>entropy = 1.0<br/>samples = 6<br/>value = [3, 3]<br/>class = dissatisfied>, fillcolor="#ffffff"] ;
543 -> 545 ;
546 [label=<entropy = 0.0<br/>samples = 2<br/>value = [0, 2]<br/>class = satisfied>, fillcolor="#399de5"] ;
545 -> 546 ;
547 [label=<Age &le; 78.5<br/>entropy = 0.811<br/>samples = 4<br/>value = [3, 1]<br/>class = dissatisfied>, fillcolor="#eeab7b"] ;
545 -> 547 ;
548 [label=<entropy = 0.0<br/>samples = 3<br/>value = [3, 0]<br/>class = dissatisfied>, fillcolor="#e58139"] ;
547 -> 548 ;
549 [label=<entropy = 0.0<br/>samples = 1<br/>value = [0, 1]<br/>class = satisfied>, fillcolor="#399de5"] ;
547 -> 549 ;
550 [label=<entropy = 0.0<br/>samples = 11<br/>value = [11, 0]<br/>class = dissatisfied>, fillcolor="#e58139"] ;
542 -> 550 ;
551 [label=<entropy = 0.0<br/>samples = 2<br/>value = [0, 2]<br/>class = satisfied>, fillcolor="#399de5"] ;
541 -> 551 ;
552 [label=<Type of Travel &le; 0.5<br/>entropy = 0.911<br/>samples = 49<br/>value = [33.0, 16.0]<br/>class = dissatisfied>, fillcolor="#f2be99"] ;
340 -> 552 ;
553 [label=<Flight Distance &le; 1172.5<br/>entropy = 0.562<br/>samples = 38<br/>value = [33, 5]<br/>class = dissatisfied>, fillcolor="#e99457"] ;
552 -> 553 ;
554 [label=<Online support &le; 3.5<br/>entropy = 0.918<br/>samples = 3<br/>value = [1, 2]<br/>class = satisfied>, fillcolor="#9ccef2"] ;
553 -> 554 ;
555 [label=<entropy = 0.0<br/>samples = 2<br/>value = [0, 2]<br/>class = satisfied>, fillcolor="#399de5"] ;
554 -> 555 ;
556 [label=<entropy = 0.0<br/>samples = 1<br/>value = [1, 0]<br/>class = dissatisfied>, fillcolor="#e58139"] ;
554 -> 556 ;
557 [label=<Age &le; 69.5<br/>entropy = 0.422<br/>samples = 35<br/>value = [32, 3]<br/>class = dissatisfied>, fillcolor="#e78d4c"] ;
553 -> 557 ;
558 [label=<Inflight entertainment &le; 2.5<br/>entropy = 0.323<br/>samples = 34<br/>value = [32, 2]<br/>class = dissatisfied>, fillcolor="#e78945"] ;
557 -> 558 ;
559 [label=<entropy = 0.0<br/>samples = 23<br/>value = [23, 0]<br/>class = dissatisfied>, fillcolor="#e58139"] ;
558 -> 559 ;
560 [label=<Leg room service &le; 3.5<br/>entropy = 0.684<br/>samples = 11<br/>value = [9, 2]<br/>class = dissatisfied>, fillcolor="#eb9d65"] ;
558 -> 560 ;
561 [label=<entropy = 0.0<br/>samples = 7<br/>value = [7, 0]<br/>class = dissatisfied>, fillcolor="#e58139"] ;
560 -> 561 ;
562 [label=<Age &le; 42.0<br/>entropy = 1.0<br/>samples = 4<br/>value = [2, 2]<br/>class = dissatisfied>, fillcolor="#ffffff"] ;
560 -> 562 ;
563 [label=<entropy = 0.0<br/>samples = 2<br/>value = [0, 2]<br/>class = satisfied>, fillcolor="#399de5"] ;
562 -> 563 ;
564 [label=<entropy = 0.0<br/>samples = 2<br/>value = [2, 0]<br/>class = dissatisfied>, fillcolor="#e58139"] ;
562 -> 564 ;
565 [label=<entropy = 0.0<br/>samples = 1<br/>value = [0, 1]<br/>class = satisfied>, fillcolor="#399de5"] ;
557 -> 565 ;
566 [label=<entropy = 0.0<br/>samples = 11<br/>value = [0, 11]<br/>class = satisfied>, fillcolor="#399de5"] ;
552 -> 566 ;
567 [label=<Cleanliness &le; 3.5<br/>entropy = 0.639<br/>samples = 870<br/>value = [729, 141]<br/>class = dissatisfied>, fillcolor="#ea995f"] ;
339 -> 567 ;
568 [label=<Type of Travel &le; 0.5<br/>entropy = 0.278<br/>samples = 521<br/>value = [496, 25]<br/>class = dissatisfied>, fillcolor="#e68743"] ;
567 -> 568 ;
569 [label=<Arrival Delay in Minutes &le; 1.5<br/>entropy = 0.107<br/>samples = 284<br/>value = [280, 4]<br/>class = dissatisfied>, fillcolor="#e5833c"] ;
568 -> 569 ;
570 [label=<entropy = 0.0<br/>samples = 161<br/>value = [161, 0]<br/>class = dissatisfied>, fillcolor="#e58139"] ;
569 -> 570 ;
571 [label=<Age &le; 12.0<br/>entropy = 0.207<br/>samples = 123<br/>value = [119, 4]<br/>class = dissatisfied>, fillcolor="#e68540"] ;
569 -> 571 ;
572 [label=<Leg room service &le; 3.5<br/>entropy = 0.863<br/>samples = 7<br/>value = [5, 2]<br/>class = dissatisfied>, fillcolor="#efb388"] ;
571 -> 572 ;
573 [label=<entropy = 0.0<br/>samples = 5<br/>value = [5, 0]<br/>class = dissatisfied>, fillcolor="#e58139"] ;
572 -> 573 ;
574 [label=<entropy = 0.0<br/>samples = 2<br/>value = [0, 2]<br/>class = satisfied>, fillcolor="#399de5"] ;
572 -> 574 ;
575 [label=<Departure Delay in Minutes &le; 44.5<br/>entropy = 0.126<br/>samples = 116<br/>value = [114, 2]<br/>class = dissatisfied>, fillcolor="#e5833c"] ;
571 -> 575 ;
576 [label=<entropy = 0.0<br/>samples = 84<br/>value = [84, 0]<br/>class = dissatisfied>, fillcolor="#e58139"] ;
575 -> 576 ;
577 [label=<Departure Delay in Minutes &le; 54.5<br/>entropy = 0.337<br/>samples = 32<br/>value = [30, 2]<br/>class = dissatisfied>, fillcolor="#e78946"] ;
575 -> 577 ;
578 [label=<Baggage handling &le; 3.5<br/>entropy = 1.0<br/>samples = 4<br/>value = [2, 2]<br/>class = dissatisfied>, fillcolor="#ffffff"] ;
577 -> 578 ;
579 [label=<entropy = 0.0<br/>samples = 2<br/>value = [2, 0]<br/>class = dissatisfied>, fillcolor="#e58139"] ;
578 -> 579 ;
580 [label=<entropy = 0.0<br/>samples = 2<br/>value = [0, 2]<br/>class = satisfied>, fillcolor="#399de5"] ;
578 -> 580 ;
581 [label=<entropy = 0.0<br/>samples = 28<br/>value = [28, 0]<br/>class = dissatisfied>, fillcolor="#e58139"] ;
577 -> 581 ;
582 [label=<Baggage handling &le; 4.5<br/>entropy = 0.432<br/>samples = 237<br/>value = [216, 21]<br/>class = dissatisfied>, fillcolor="#e88d4c"] ;
568 -> 582 ;
583 [label=<On-board service &le; 4.5<br/>entropy = 0.377<br/>samples = 233<br/>value = [216, 17]<br/>class = dissatisfied>, fillcolor="#e78b49"] ;
582 -> 583 ;
584 [label=<Departure Delay in Minutes &le; 287.0<br/>entropy = 0.239<br/>samples = 204<br/>value = [196, 8]<br/>class = dissatisfied>, fillcolor="#e68641"] ;
583 -> 584 ;
585 [label=<Arrival Delay in Minutes &le; 7.5<br/>entropy = 0.216<br/>samples = 203<br/>value = [196, 7]<br/>class = dissatisfied>, fillcolor="#e68640"] ;
584 -> 585 ;
586 [label=<Age &le; 35.5<br/>entropy = 0.315<br/>samples = 123<br/>value = [116, 7]<br/>class = dissatisfied>, fillcolor="#e78945"] ;
585 -> 586 ;
587 [label=<entropy = 0.0<br/>samples = 33<br/>value = [33, 0]<br/>class = dissatisfied>, fillcolor="#e58139"] ;
586 -> 587 ;
588 [label=<Food and drink &le; 2.5<br/>entropy = 0.394<br/>samples = 90<br/>value = [83, 7]<br/>class = dissatisfied>, fillcolor="#e78c4a"] ;
586 -> 588 ;
589 [label=<Age &le; 49.5<br/>entropy = 0.516<br/>samples = 52<br/>value = [46, 6]<br/>class = dissatisfied>, fillcolor="#e89153"] ;
588 -> 589 ;
590 [label=<Seat comfort &le; 2.5<br/>entropy = 0.619<br/>samples = 39<br/>value = [33, 6]<br/>class = dissatisfied>, fillcolor="#ea985d"] ;
589 -> 590 ;
591 [label=<Checkin service &le; 1.5<br/>entropy = 0.852<br/>samples = 18<br/>value = [13, 5]<br/>class = dissatisfied>, fillcolor="#efb185"] ;
590 -> 591 ;
592 [label=<entropy = 0.0<br/>samples = 4<br/>value = [4, 0]<br/>class = dissatisfied>, fillcolor="#e58139"] ;
591 -> 592 ;
593 [label=<Age &le; 38.5<br/>entropy = 0.94<br/>samples = 14<br/>value = [9, 5]<br/>class = dissatisfied>, fillcolor="#f3c7a7"] ;
591 -> 593 ;
594 [label=<entropy = 0.0<br/>samples = 3<br/>value = [3, 0]<br/>class = dissatisfied>, fillcolor="#e58139"] ;
593 -> 594 ;
595 [label=<Age &le; 39.5<br/>entropy = 0.994<br/>samples = 11<br/>value = [6, 5]<br/>class = dissatisfied>, fillcolor="#fbeade"] ;
593 -> 595 ;
596 [label=<entropy = 0.0<br/>samples = 2<br/>value = [0, 2]<br/>class = satisfied>, fillcolor="#399de5"] ;
595 -> 596 ;
597 [label=<Age &le; 43.5<br/>entropy = 0.918<br/>samples = 9<br/>value = [6, 3]<br/>class = dissatisfied>, fillcolor="#f2c09c"] ;
595 -> 597 ;
598 [label=<entropy = 0.0<br/>samples = 4<br/>value = [4, 0]<br/>class = dissatisfied>, fillcolor="#e58139"] ;
597 -> 598 ;
599 [label=<Checkin service &le; 2.5<br/>entropy = 0.971<br/>samples = 5<br/>value = [2, 3]<br/>class = satisfied>, fillcolor="#bddef6"] ;
597 -> 599 ;
600 [label=<Leg room service &le; 1.5<br/>entropy = 0.918<br/>samples = 3<br/>value = [2, 1]<br/>class = dissatisfied>, fillcolor="#f2c09c"] ;
599 -> 600 ;
601 [label=<entropy = 0.0<br/>samples = 2<br/>value = [2, 0]<br/>class = dissatisfied>, fillcolor="#e58139"] ;
600 -> 601 ;
602 [label=<entropy = 0.0<br/>samples = 1<br/>value = [0, 1]<br/>class = satisfied>, fillcolor="#399de5"] ;
600 -> 602 ;
603 [label=<entropy = 0.0<br/>samples = 2<br/>value = [0, 2]<br/>class = satisfied>, fillcolor="#399de5"] ;
599 -> 603 ;
604 [label=<Age &le; 36.5<br/>entropy = 0.276<br/>samples = 21<br/>value = [20, 1]<br/>class = dissatisfied>, fillcolor="#e68743"] ;
590 -> 604 ;
605 [label=<Departure Delay in Minutes &le; 3.5<br/>entropy = 1.0<br/>samples = 2<br/>value = [1, 1]<br/>class = dissatisfied>, fillcolor="#ffffff"] ;
604 -> 605 ;
606 [label=<entropy = 0.0<br/>samples = 1<br/>value = [1, 0]<br/>class = dissatisfied>, fillcolor="#e58139"] ;
605 -> 606 ;
607 [label=<entropy = 0.0<br/>samples = 1<br/>value = [0, 1]<br/>class = satisfied>, fillcolor="#399de5"] ;
605 -> 607 ;
608 [label=<entropy = 0.0<br/>samples = 19<br/>value = [19, 0]<br/>class = dissatisfied>, fillcolor="#e58139"] ;
604 -> 608 ;
609 [label=<entropy = 0.0<br/>samples = 13<br/>value = [13, 0]<br/>class = dissatisfied>, fillcolor="#e58139"] ;
589 -> 609 ;
610 [label=<Age &le; 68.5<br/>entropy = 0.176<br/>samples = 38<br/>value = [37, 1]<br/>class = dissatisfied>, fillcolor="#e6843e"] ;
588 -> 610 ;
611 [label=<entropy = 0.0<br/>samples = 36<br/>value = [36, 0]<br/>class = dissatisfied>, fillcolor="#e58139"] ;
610 -> 611 ;
612 [label=<Food and drink &le; 3.5<br/>entropy = 1.0<br/>samples = 2<br/>value = [1, 1]<br/>class = dissatisfied>, fillcolor="#ffffff"] ;
610 -> 612 ;
613 [label=<entropy = 0.0<br/>samples = 1<br/>value = [1, 0]<br/>class = dissatisfied>, fillcolor="#e58139"] ;
612 -> 613 ;
614 [label=<entropy = 0.0<br/>samples = 1<br/>value = [0, 1]<br/>class = satisfied>, fillcolor="#399de5"] ;
612 -> 614 ;
615 [label=<entropy = 0.0<br/>samples = 80<br/>value = [80, 0]<br/>class = dissatisfied>, fillcolor="#e58139"] ;
585 -> 615 ;
616 [label=<entropy = 0.0<br/>samples = 1<br/>value = [0, 1]<br/>class = satisfied>, fillcolor="#399de5"] ;
584 -> 616 ;
617 [label=<Flight Distance &le; 1849.5<br/>entropy = 0.894<br/>samples = 29<br/>value = [20, 9]<br/>class = dissatisfied>, fillcolor="#f1ba92"] ;
583 -> 617 ;
618 [label=<entropy = 0.0<br/>samples = 6<br/>value = [0, 6]<br/>class = satisfied>, fillcolor="#399de5"] ;
617 -> 618 ;
619 [label=<Arrival Delay in Minutes &le; 1.0<br/>entropy = 0.559<br/>samples = 23<br/>value = [20, 3]<br/>class = dissatisfied>, fillcolor="#e99457"] ;
617 -> 619 ;
620 [label=<Flight Distance &le; 3187.0<br/>entropy = 0.954<br/>samples = 8<br/>value = [5, 3]<br/>class = dissatisfied>, fillcolor="#f5cdb0"] ;
619 -> 620 ;
621 [label=<Departure Delay in Minutes &le; 6.5<br/>entropy = 0.811<br/>samples = 4<br/>value = [1, 3]<br/>class = satisfied>, fillcolor="#7bbeee"] ;
620 -> 621 ;
622 [label=<entropy = 0.0<br/>samples = 3<br/>value = [0, 3]<br/>class = satisfied>, fillcolor="#399de5"] ;
621 -> 622 ;
623 [label=<entropy = 0.0<br/>samples = 1<br/>value = [1, 0]<br/>class = dissatisfied>, fillcolor="#e58139"] ;
621 -> 623 ;
624 [label=<entropy = 0.0<br/>samples = 4<br/>value = [4, 0]<br/>class = dissatisfied>, fillcolor="#e58139"] ;
620 -> 624 ;
625 [label=<entropy = 0.0<br/>samples = 15<br/>value = [15, 0]<br/>class = dissatisfied>, fillcolor="#e58139"] ;
619 -> 625 ;
626 [label=<entropy = 0.0<br/>samples = 4<br/>value = [0, 4]<br/>class = satisfied>, fillcolor="#399de5"] ;
582 -> 626 ;
627 [label=<Ease of Online booking &le; 3.5<br/>entropy = 0.917<br/>samples = 349<br/>value = [233, 116]<br/>class = dissatisfied>, fillcolor="#f2c09c"] ;
567 -> 627 ;
628 [label=<On-board service &le; 4.5<br/>entropy = 0.471<br/>samples = 189<br/>value = [170, 19]<br/>class = dissatisfied>, fillcolor="#e88f4f"] ;
627 -> 628 ;
629 [label=<Baggage handling &le; 4.5<br/>entropy = 0.281<br/>samples = 164<br/>value = [156, 8]<br/>class = dissatisfied>, fillcolor="#e68743"] ;
628 -> 629 ;
630 [label=<Departure Delay in Minutes &le; 3.5<br/>entropy = 0.205<br/>samples = 156<br/>value = [151, 5]<br/>class = dissatisfied>, fillcolor="#e68540"] ;
629 -> 630 ;
631 [label=<Gate location &le; 2.5<br/>entropy = 0.331<br/>samples = 82<br/>value = [77, 5]<br/>class = dissatisfied>, fillcolor="#e78946"] ;
630 -> 631 ;
632 [label=<Type of Travel &le; 0.5<br/>entropy = 0.511<br/>samples = 44<br/>value = [39, 5]<br/>class = dissatisfied>, fillcolor="#e89152"] ;
631 -> 632 ;
633 [label=<Departure/Arrival time convenient &le; 2.5<br/>entropy = 0.971<br/>samples = 5<br/>value = [2, 3]<br/>class = satisfied>, fillcolor="#bddef6"] ;
632 -> 633 ;
634 [label=<entropy = 0.0<br/>samples = 3<br/>value = [0, 3]<br/>class = satisfied>, fillcolor="#399de5"] ;
633 -> 634 ;
635 [label=<entropy = 0.0<br/>samples = 2<br/>value = [2, 0]<br/>class = dissatisfied>, fillcolor="#e58139"] ;
633 -> 635 ;
636 [label=<Flight Distance &le; 1293.5<br/>entropy = 0.292<br/>samples = 39<br/>value = [37, 2]<br/>class = dissatisfied>, fillcolor="#e68844"] ;
632 -> 636 ;
637 [label=<Age &le; 37.0<br/>entropy = 0.971<br/>samples = 5<br/>value = [3, 2]<br/>class = dissatisfied>, fillcolor="#f6d5bd"] ;
636 -> 637 ;
638 [label=<entropy = 0.0<br/>samples = 3<br/>value = [3, 0]<br/>class = dissatisfied>, fillcolor="#e58139"] ;
637 -> 638 ;
639 [label=<entropy = 0.0<br/>samples = 2<br/>value = [0, 2]<br/>class = satisfied>, fillcolor="#399de5"] ;
637 -> 639 ;
640 [label=<entropy = 0.0<br/>samples = 34<br/>value = [34, 0]<br/>class = dissatisfied>, fillcolor="#e58139"] ;
636 -> 640 ;
641 [label=<entropy = 0.0<br/>samples = 38<br/>value = [38, 0]<br/>class = dissatisfied>, fillcolor="#e58139"] ;
631 -> 641 ;
642 [label=<entropy = 0.0<br/>samples = 74<br/>value = [74, 0]<br/>class = dissatisfied>, fillcolor="#e58139"] ;
630 -> 642 ;
643 [label=<Age &le; 30.0<br/>entropy = 0.954<br/>samples = 8<br/>value = [5, 3]<br/>class = dissatisfied>, fillcolor="#f5cdb0"] ;
629 -> 643 ;
644 [label=<entropy = 0.0<br/>samples = 4<br/>value = [4, 0]<br/>class = dissatisfied>, fillcolor="#e58139"] ;
643 -> 644 ;
645 [label=<Flight Distance &le; 1697.0<br/>entropy = 0.811<br/>samples = 4<br/>value = [1, 3]<br/>class = satisfied>, fillcolor="#7bbeee"] ;
643 -> 645 ;
646 [label=<entropy = 0.0<br/>samples = 1<br/>value = [1, 0]<br/>class = dissatisfied>, fillcolor="#e58139"] ;
645 -> 646 ;
647 [label=<entropy = 0.0<br/>samples = 3<br/>value = [0, 3]<br/>class = satisfied>, fillcolor="#399de5"] ;
645 -> 647 ;
648 [label=<Food and drink &le; 1.5<br/>entropy = 0.99<br/>samples = 25<br/>value = [14.0, 11.0]<br/>class = dissatisfied>, fillcolor="#f9e4d5"] ;
628 -> 648 ;
649 [label=<entropy = 0.0<br/>samples = 5<br/>value = [0, 5]<br/>class = satisfied>, fillcolor="#399de5"] ;
648 -> 649 ;
650 [label=<Arrival Delay in Minutes &le; 13.0<br/>entropy = 0.881<br/>samples = 20<br/>value = [14, 6]<br/>class = dissatisfied>, fillcolor="#f0b78e"] ;
648 -> 650 ;
651 [label=<Inflight entertainment &le; 1.5<br/>entropy = 1.0<br/>samples = 12<br/>value = [6, 6]<br/>class = dissatisfied>, fillcolor="#ffffff"] ;
650 -> 651 ;
652 [label=<entropy = 0.0<br/>samples = 3<br/>value = [3, 0]<br/>class = dissatisfied>, fillcolor="#e58139"] ;
651 -> 652 ;
653 [label=<Online support &le; 2.5<br/>entropy = 0.918<br/>samples = 9<br/>value = [3, 6]<br/>class = satisfied>, fillcolor="#9ccef2"] ;
651 -> 653 ;
654 [label=<entropy = 0.0<br/>samples = 5<br/>value = [0, 5]<br/>class = satisfied>, fillcolor="#399de5"] ;
653 -> 654 ;
655 [label=<Class &le; 1.5<br/>entropy = 0.811<br/>samples = 4<br/>value = [3, 1]<br/>class = dissatisfied>, fillcolor="#eeab7b"] ;
653 -> 655 ;
656 [label=<entropy = 0.0<br/>samples = 3<br/>value = [3, 0]<br/>class = dissatisfied>, fillcolor="#e58139"] ;
655 -> 656 ;
657 [label=<entropy = 0.0<br/>samples = 1<br/>value = [0, 1]<br/>class = satisfied>, fillcolor="#399de5"] ;
655 -> 657 ;
658 [label=<entropy = 0.0<br/>samples = 8<br/>value = [8, 0]<br/>class = dissatisfied>, fillcolor="#e58139"] ;
650 -> 658 ;
659 [label=<Leg room service &le; 3.5<br/>entropy = 0.967<br/>samples = 160<br/>value = [63, 97]<br/>class = satisfied>, fillcolor="#baddf6"] ;
627 -> 659 ;
660 [label=<Departure Delay in Minutes &le; 207.0<br/>entropy = 0.378<br/>samples = 41<br/>value = [38, 3]<br/>class = dissatisfied>, fillcolor="#e78b49"] ;
659 -> 660 ;
661 [label=<Flight Distance &le; 1062.0<br/>entropy = 0.286<br/>samples = 40<br/>value = [38, 2]<br/>class = dissatisfied>, fillcolor="#e68843"] ;
660 -> 661 ;
662 [label=<entropy = 0.0<br/>samples = 1<br/>value = [0, 1]<br/>class = satisfied>, fillcolor="#399de5"] ;
661 -> 662 ;
663 [label=<Flight Distance &le; 3743.0<br/>entropy = 0.172<br/>samples = 39<br/>value = [38, 1]<br/>class = dissatisfied>, fillcolor="#e6843e"] ;
661 -> 663 ;
664 [label=<entropy = 0.0<br/>samples = 38<br/>value = [38, 0]<br/>class = dissatisfied>, fillcolor="#e58139"] ;
663 -> 664 ;
665 [label=<entropy = 0.0<br/>samples = 1<br/>value = [0, 1]<br/>class = satisfied>, fillcolor="#399de5"] ;
663 -> 665 ;
666 [label=<entropy = 0.0<br/>samples = 1<br/>value = [0, 1]<br/>class = satisfied>, fillcolor="#399de5"] ;
660 -> 666 ;
667 [label=<Ease of Online booking &le; 4.5<br/>entropy = 0.742<br/>samples = 119<br/>value = [25, 94]<br/>class = satisfied>, fillcolor="#6eb7ec"] ;
659 -> 667 ;
668 [label=<On-board service &le; 4.5<br/>entropy = 0.513<br/>samples = 105<br/>value = [12, 93]<br/>class = satisfied>, fillcolor="#53aae8"] ;
667 -> 668 ;
669 [label=<Inflight wifi service &le; 3.5<br/>entropy = 0.366<br/>samples = 100<br/>value = [7.0, 93.0]<br/>class = satisfied>, fillcolor="#48a4e7"] ;
668 -> 669 ;
670 [label=<entropy = 0.0<br/>samples = 60<br/>value = [0, 60]<br/>class = satisfied>, fillcolor="#399de5"] ;
669 -> 670 ;
671 [label=<Baggage handling &le; 3.5<br/>entropy = 0.669<br/>samples = 40<br/>value = [7, 33]<br/>class = satisfied>, fillcolor="#63b2eb"] ;
669 -> 671 ;
672 [label=<entropy = 0.0<br/>samples = 3<br/>value = [3, 0]<br/>class = dissatisfied>, fillcolor="#e58139"] ;
671 -> 672 ;
673 [label=<Age &le; 39.0<br/>entropy = 0.494<br/>samples = 37<br/>value = [4, 33]<br/>class = satisfied>, fillcolor="#51a9e8"] ;
671 -> 673 ;
674 [label=<entropy = 0.0<br/>samples = 28<br/>value = [0, 28]<br/>class = satisfied>, fillcolor="#399de5"] ;
673 -> 674 ;
675 [label=<Online boarding &le; 3.5<br/>entropy = 0.991<br/>samples = 9<br/>value = [4, 5]<br/>class = satisfied>, fillcolor="#d7ebfa"] ;
673 -> 675 ;
676 [label=<entropy = 0.0<br/>samples = 4<br/>value = [0, 4]<br/>class = satisfied>, fillcolor="#399de5"] ;
675 -> 676 ;
677 [label=<Food and drink &le; 1.5<br/>entropy = 0.722<br/>samples = 5<br/>value = [4, 1]<br/>class = dissatisfied>, fillcolor="#eca06a"] ;
675 -> 677 ;
678 [label=<entropy = 0.0<br/>samples = 1<br/>value = [0, 1]<br/>class = satisfied>, fillcolor="#399de5"] ;
677 -> 678 ;
679 [label=<entropy = 0.0<br/>samples = 4<br/>value = [4, 0]<br/>class = dissatisfied>, fillcolor="#e58139"] ;
677 -> 679 ;
680 [label=<entropy = 0.0<br/>samples = 5<br/>value = [5, 0]<br/>class = dissatisfied>, fillcolor="#e58139"] ;
668 -> 680 ;
681 [label=<Gate location &le; 1.5<br/>entropy = 0.371<br/>samples = 14<br/>value = [13, 1]<br/>class = dissatisfied>, fillcolor="#e78b48"] ;
667 -> 681 ;
682 [label=<entropy = 0.0<br/>samples = 1<br/>value = [0, 1]<br/>class = satisfied>, fillcolor="#399de5"] ;
681 -> 682 ;
683 [label=<entropy = 0.0<br/>samples = 13<br/>value = [13, 0]<br/>class = dissatisfied>, fillcolor="#e58139"] ;
681 -> 683 ;
684 [label=<Flight Distance &le; 1018.5<br/>entropy = 0.023<br/>samples = 907<br/>value = [905, 2]<br/>class = dissatisfied>, fillcolor="#e58139"] ;
316 -> 684 ;
685 [label=<entropy = 0.0<br/>samples = 1<br/>value = [0, 1]<br/>class = satisfied>, fillcolor="#399de5"] ;
684 -> 685 ;
686 [label=<Food and drink &le; 4.5<br/>entropy = 0.012<br/>samples = 906<br/>value = [905, 1]<br/>class = dissatisfied>, fillcolor="#e58139"] ;
684 -> 686 ;
687 [label=<entropy = 0.0<br/>samples = 872<br/>value = [872, 0]<br/>class = dissatisfied>, fillcolor="#e58139"] ;
686 -> 687 ;
688 [label=<Leg room service &le; 4.5<br/>entropy = 0.191<br/>samples = 34<br/>value = [33, 1]<br/>class = dissatisfied>, fillcolor="#e6853f"] ;
686 -> 688 ;
689 [label=<entropy = 0.0<br/>samples = 29<br/>value = [29, 0]<br/>class = dissatisfied>, fillcolor="#e58139"] ;
688 -> 689 ;
690 [label=<Arrival Delay in Minutes &le; 24.5<br/>entropy = 0.722<br/>samples = 5<br/>value = [4, 1]<br/>class = dissatisfied>, fillcolor="#eca06a"] ;
688 -> 690 ;
691 [label=<entropy = 0.0<br/>samples = 4<br/>value = [4, 0]<br/>class = dissatisfied>, fillcolor="#e58139"] ;
690 -> 691 ;
692 [label=<entropy = 0.0<br/>samples = 1<br/>value = [0, 1]<br/>class = satisfied>, fillcolor="#399de5"] ;
690 -> 692 ;
693 [label=<Type of Travel &le; 0.5<br/>entropy = 0.972<br/>samples = 184<br/>value = [110, 74]<br/>class = dissatisfied>, fillcolor="#f6d6be"] ;
315 -> 693 ;
694 [label=<Departure/Arrival time convenient &le; 0.5<br/>entropy = 0.869<br/>samples = 155<br/>value = [110, 45]<br/>class = dissatisfied>, fillcolor="#f0b58a"] ;
693 -> 694 ;
695 [label=<entropy = 0.0<br/>samples = 40<br/>value = [40, 0]<br/>class = dissatisfied>, fillcolor="#e58139"] ;
694 -> 695 ;
696 [label=<Departure/Arrival time convenient &le; 2.5<br/>entropy = 0.966<br/>samples = 115<br/>value = [70, 45]<br/>class = dissatisfied>, fillcolor="#f6d2b8"] ;
694 -> 696 ;
697 [label=<Gate location &le; 2.5<br/>entropy = 0.503<br/>samples = 36<br/>value = [4, 32]<br/>class = satisfied>, fillcolor="#52a9e8"] ;
696 -> 697 ;
698 [label=<entropy = 0.0<br/>samples = 32<br/>value = [0, 32]<br/>class = satisfied>, fillcolor="#399de5"] ;
697 -> 698 ;
699 [label=<entropy = 0.0<br/>samples = 4<br/>value = [4, 0]<br/>class = dissatisfied>, fillcolor="#e58139"] ;
697 -> 699 ;
