digraph Tree {
node [shape=box, style="filled, rounded", color="black", fontname="helvetica"] ;
edge [fontname="helvetica"] ;
0 [label=<Inflight entertainment &le; 3.5<br/>entropy = 0.993<br/>samples = 116538<br/>value = [52723, 63815]<br/>class = dissatisfied>, fillcolor="#ddeefa"] ;
1 [label=<Seat comfort &le; 3.5<br/>entropy = 0.753<br/>samples = 52201<br/>value = [40929, 11272]<br/>class = satisfied>, fillcolor="#eca470"] ;
0 -> 1 [labeldistance=2.5, labelangle=45, headlabel="True"] ;
2 [label=<Seat comfort &le; 0.5<br/>entropy = 0.596<br/>samples = 45645<br/>value = [39046.0, 6599.0]<br/>class = satisfied>, fillcolor="#e9965a"] ;
1 -> 2 ;
3 [label=<Online boarding &le; 0.5<br/>entropy = 0.032<br/>samples = 2377<br/>value = [8, 2369]<br/>class = dissatisfied>, fillcolor="#3a9de5"] ;
2 -> 3 ;
4 [label=<entropy = 0.0<br/>samples = 8<br/>value = [8, 0]<br/>class = satisfied>, fillcolor="#e58139"] ;
3 -> 4 ;
5 [label=<entropy = 0.0<br/>samples = 2369<br/>value = [0, 2369]<br/>class = dissatisfied>, fillcolor="#399de5"] ;
3 -> 5 ;
6 [label=<Class &le; 2.5<br/>entropy = 0.462<br/>samples = 43268<br/>value = [39038, 4230]<br/>class = satisfied>, fillcolor="#e88f4e"] ;
2 -> 6 ;
7 [label=<Customer Type &le; 0.5<br/>entropy = 0.282<br/>samples = 29285<br/>value = [27852, 1433]<br/>class = satisfied>, fillcolor="#e68743"] ;
6 -> 7 ;
8 [label=<Flight Distance &le; 1961.5<br/>entropy = 0.048<br/>samples = 9394<br/>value = [9344, 50]<br/>class = satisfied>, fillcolor="#e5823a"] ;
7 -> 8 ;
9 [label=<Checkin service &le; 3.5<br/>entropy = 0.012<br/>samples = 4870<br/>value = [4865, 5]<br/>class = satisfied>, fillcolor="#e58139"] ;
8 -> 9 ;
10 [label=<entropy = 0.0<br/>samples = 3220<br/>value = [3220, 0]<br/>class = satisfied>, fillcolor="#e58139"] ;
9 -> 10 ;
11 [label=<Age &le; 20.5<br/>entropy = 0.03<br/>samples = 1650<br/>value = [1645, 5]<br/>class = satisfied>, fillcolor="#e5813a"] ;
9 -> 11 ;
12 [label=<Flight Distance &le; 1747.5<br/>entropy = 0.1<br/>samples = 230<br/>value = [227, 3]<br/>class = satisfied>, fillcolor="#e5833c"] ;
11 -> 12 ;
13 [label=<entropy = 0.0<br/>samples = 143<br/>value = [143, 0]<br/>class = satisfied>, fillcolor="#e58139"] ;
12 -> 13 ;
14 [label=<Flight Distance &le; 1749.0<br/>entropy = 0.216<br/>samples = 87<br/>value = [84, 3]<br/>class = satisfied>, fillcolor="#e68640"] ;
12 -> 14 ;
15 [label=<entropy = 0.0<br/>samples = 1<br/>value = [0, 1]<br/>class = dissatisfied>, fillcolor="#399de5"] ;
14 -> 15 ;
16 [label=<Gate location &le; 2.5<br/>entropy = 0.159<br/>samples = 86<br/>value = [84, 2]<br/>class = satisfied>, fillcolor="#e6843e"] ;
14 -> 16 ;
17 [label=<Departure Delay in Minutes &le; 23.5<br/>entropy = 0.469<br/>samples = 20<br/>value = [18, 2]<br/>class = satisfied>, fillcolor="#e88f4f"] ;
16 -> 17 ;
18 [label=<Leg room service &le; 1.5<br/>entropy = 0.297<br/>samples = 19<br/>value = [18, 1]<br/>class = satisfied>, fillcolor="#e68844"] ;
17 -> 18 ;
19 [label=<Gate location &le; 1.5<br/>entropy = 0.918<br/>samples = 3<br/>value = [2, 1]<br/>class = satisfied>, fillcolor="#f2c09c"] ;
18 -> 19 ;
20 [label=<entropy = 0.0<br/>samples = 1<br/>value = [0, 1]<br/>class = dissatisfied>, fillcolor="#399de5"] ;
19 -> 20 ;
21 [label=<entropy = 0.0<br/>samples = 2<br/>value = [2, 0]<br/>class = satisfied>, fillcolor="#e58139"] ;
19 -> 21 ;
22 [label=<entropy = 0.0<br/>samples = 16<br/>value = [16, 0]<br/>class = satisfied>, fillcolor="#e58139"] ;
18 -> 22 ;
23 [label=<entropy = 0.0<br/>samples = 1<br/>value = [0, 1]<br/>class = dissatisfied>, fillcolor="#399de5"] ;
17 -> 23 ;
24 [label=<entropy = 0.0<br/>samples = 66<br/>value = [66, 0]<br/>class = satisfied>, fillcolor="#e58139"] ;
16 -> 24 ;
25 [label=<Class &le; 1.5<br/>entropy = 0.015<br/>samples = 1420<br/>value = [1418, 2]<br/>class = satisfied>, fillcolor="#e58139"] ;
11 -> 25 ;
26 [label=<entropy = 0.0<br/>samples = 1310<br/>value = [1310, 0]<br/>class = satisfied>, fillcolor="#e58139"] ;
25 -> 26 ;
27 [label=<Gate location &le; 2.5<br/>entropy = 0.131<br/>samples = 110<br/>value = [108, 2]<br/>class = satisfied>, fillcolor="#e5833d"] ;
25 -> 27 ;
28 [label=<Online support &le; 2.5<br/>entropy = 0.371<br/>samples = 28<br/>value = [26, 2]<br/>class = satisfied>, fillcolor="#e78b48"] ;
27 -> 28 ;
29 [label=<On-board service &le; 3.5<br/>entropy = 0.811<br/>samples = 8<br/>value = [6, 2]<br/>class = satisfied>, fillcolor="#eeab7b"] ;
28 -> 29 ;
30 [label=<entropy = 0.0<br/>samples = 5<br/>value = [5, 0]<br/>class = satisfied>, fillcolor="#e58139"] ;
29 -> 30 ;
31 [label=<Flight Distance &le; 1185.5<br/>entropy = 0.918<br/>samples = 3<br/>value = [1, 2]<br/>class = dissatisfied>, fillcolor="#9ccef2"] ;
29 -> 31 ;
32 [label=<entropy = 0.0<br/>samples = 1<br/>value = [1, 0]<br/>class = satisfied>, fillcolor="#e58139"] ;
31 -> 32 ;
33 [label=<entropy = 0.0<br/>samples = 2<br/>value = [0, 2]<br/>class = dissatisfied>, fillcolor="#399de5"] ;
31 -> 33 ;
34 [label=<entropy = 0.0<br/>samples = 20<br/>value = [20, 0]<br/>class = satisfied>, fillcolor="#e58139"] ;
28 -> 34 ;
35 [label=<entropy = 0.0<br/>samples = 82<br/>value = [82, 0]<br/>class = satisfied>, fillcolor="#e58139"] ;
27 -> 35 ;
36 [label=<Departure/Arrival time convenient &le; 1.5<br/>entropy = 0.08<br/>samples = 4524<br/>value = [4479, 45]<br/>class = satisfied>, fillcolor="#e5823b"] ;
8 -> 36 ;
37 [label=<entropy = 0.0<br/>samples = 1264<br/>value = [1264, 0]<br/>class = satisfied>, fillcolor="#e58139"] ;
36 -> 37 ;
38 [label=<Age &le; 25.5<br/>entropy = 0.105<br/>samples = 3260<br/>value = [3215, 45]<br/>class = satisfied>, fillcolor="#e5833c"] ;
36 -> 38 ;
39 [label=<On-board service &le; 2.5<br/>entropy = 0.158<br/>samples = 1689<br/>value = [1650, 39]<br/>class = satisfied>, fillcolor="#e6843e"] ;
38 -> 39 ;
40 [label=<Departure Delay in Minutes &le; 0.5<br/>entropy = 0.044<br/>samples = 618<br/>value = [615.0, 3.0]<br/>class = satisfied>, fillcolor="#e5823a"] ;
39 -> 40 ;
41 [label=<Age &le; 22.5<br/>entropy = 0.083<br/>samples = 292<br/>value = [289, 3]<br/>class = satisfied>, fillcolor="#e5823b"] ;
40 -> 41 ;
42 [label=<Checkin service &le; 4.5<br/>entropy = 0.134<br/>samples = 161<br/>value = [158, 3]<br/>class = satisfied>, fillcolor="#e5833d"] ;
41 -> 42 ;
43 [label=<Baggage handling &le; 1.5<br/>entropy = 0.098<br/>samples = 157<br/>value = [155, 2]<br/>class = satisfied>, fillcolor="#e5833c"] ;
42 -> 43 ;
44 [label=<Flight Distance &le; 2780.0<br/>entropy = 0.503<br/>samples = 9<br/>value = [8, 1]<br/>class = satisfied>, fillcolor="#e89152"] ;
43 -> 44 ;
45 [label=<entropy = 0.0<br/>samples = 8<br/>value = [8, 0]<br/>class = satisfied>, fillcolor="#e58139"] ;
44 -> 45 ;
46 [label=<entropy = 0.0<br/>samples = 1<br/>value = [0, 1]<br/>class = dissatisfied>, fillcolor="#399de5"] ;
44 -> 46 ;
47 [label=<Ease of Online booking &le; 4.5<br/>entropy = 0.058<br/>samples = 148<br/>value = [147, 1]<br/>class = satisfied>, fillcolor="#e5823a"] ;
43 -> 47 ;
48 [label=<entropy = 0.0<br/>samples = 116<br/>value = [116, 0]<br/>class = satisfied>, fillcolor="#e58139"] ;
47 -> 48 ;
49 [label=<Leg room service &le; 3.5<br/>entropy = 0.201<br/>samples = 32<br/>value = [31, 1]<br/>class = satisfied>, fillcolor="#e6853f"] ;
47 -> 49 ;
50 [label=<entropy = 0.0<br/>samples = 20<br/>value = [20, 0]<br/>class = satisfied>, fillcolor="#e58139"] ;
49 -> 50 ;
51 [label=<Departure/Arrival time convenient &le; 2.5<br/>entropy = 0.414<br/>samples = 12<br/>value = [11, 1]<br/>class = satisfied>, fillcolor="#e78c4b"] ;
49 -> 51 ;
52 [label=<entropy = 0.0<br/>samples = 9<br/>value = [9, 0]<br/>class = satisfied>, fillcolor="#e58139"] ;
51 -> 52 ;
53 [label=<Cleanliness &le; 3.5<br/>entropy = 0.918<br/>samples = 3<br/>value = [2, 1]<br/>class = satisfied>, fillcolor="#f2c09c"] ;
51 -> 53 ;
54 [label=<entropy = 0.0<br/>samples = 2<br/>value = [2, 0]<br/>class = satisfied>, fillcolor="#e58139"] ;
53 -> 54 ;
55 [label=<entropy = 0.0<br/>samples = 1<br/>value = [0, 1]<br/>class = dissatisfied>, fillcolor="#399de5"] ;
53 -> 55 ;
56 [label=<Baggage handling &le; 4.0<br/>entropy = 0.811<br/>samples = 4<br/>value = [3, 1]<br/>class = satisfied>, fillcolor="#eeab7b"] ;
42 -> 56 ;
57 [label=<entropy = 0.0<br/>samples = 3<br/>value = [3, 0]<br/>class = satisfied>, fillcolor="#e58139"] ;
56 -> 57 ;
58 [label=<entropy = 0.0<br/>samples = 1<br/>value = [0, 1]<br/>class = dissatisfied>, fillcolor="#399de5"] ;
56 -> 58 ;
59 [label=<entropy = 0.0<br/>samples = 131<br/>value = [131, 0]<br/>class = satisfied>, fillcolor="#e58139"] ;
41 -> 59 ;
60 [label=<entropy = 0.0<br/>samples = 326<br/>value = [326, 0]<br/>class = satisfied>, fillcolor="#e58139"] ;
40 -> 60 ;
61 [label=<Leg room service &le; 2.5<br/>entropy = 0.212<br/>samples = 1071<br/>value = [1035, 36]<br/>class = satisfied>, fillcolor="#e68540"] ;
39 -> 61 ;
62 [label=<Flight Distance &le; 2027.5<br/>entropy = 0.028<br/>samples = 353<br/>value = [352, 1]<br/>class = satisfied>, fillcolor="#e5813a"] ;
61 -> 62 ;
63 [label=<Flight Distance &le; 2026.5<br/>entropy = 0.165<br/>samples = 41<br/>value = [40, 1]<br/>class = satisfied>, fillcolor="#e6843e"] ;
62 -> 63 ;
64 [label=<entropy = 0.0<br/>samples = 40<br/>value = [40, 0]<br/>class = satisfied>, fillcolor="#e58139"] ;
63 -> 64 ;
65 [label=<entropy = 0.0<br/>samples = 1<br/>value = [0, 1]<br/>class = dissatisfied>, fillcolor="#399de5"] ;
63 -> 65 ;
66 [label=<entropy = 0.0<br/>samples = 312<br/>value = [312, 0]<br/>class = satisfied>, fillcolor="#e58139"] ;
62 -> 66 ;
67 [label=<Flight Distance &le; 2522.5<br/>entropy = 0.281<br/>samples = 718<br/>value = [683, 35]<br/>class = satisfied>, fillcolor="#e68743"] ;
61 -> 67 ;
68 [label=<Flight Distance &le; 1965.0<br/>entropy = 0.187<br/>samples = 492<br/>value = [478, 14]<br/>class = satisfied>, fillcolor="#e6853f"] ;
67 -> 68 ;
69 [label=<Departure Delay in Minutes &le; 11.5<br/>entropy = 0.918<br/>samples = 6<br/>value = [4, 2]<br/>class = satisfied>, fillcolor="#f2c09c"] ;
68 -> 69 ;
70 [label=<entropy = 0.0<br/>samples = 3<br/>value = [3, 0]<br/>class = satisfied>, fillcolor="#e58139"] ;
69 -> 70 ;
71 [label=<Departure/Arrival time convenient &le; 2.5<br/>entropy = 0.918<br/>samples = 3<br/>value = [1, 2]<br/>class = dissatisfied>, fillcolor="#9ccef2"] ;
69 -> 71 ;
72 [label=<entropy = 0.0<br/>samples = 1<br/>value = [1, 0]<br/>class = satisfied>, fillcolor="#e58139"] ;
71 -> 72 ;
73 [label=<entropy = 0.0<br/>samples = 2<br/>value = [0, 2]<br/>class = dissatisfied>, fillcolor="#399de5"] ;
71 -> 73 ;
74 [label=<Checkin service &le; 4.5<br/>entropy = 0.167<br/>samples = 486<br/>value = [474, 12]<br/>class = satisfied>, fillcolor="#e6843e"] ;
68 -> 74 ;
75 [label=<Age &le; 19.5<br/>entropy = 0.126<br/>samples = 404<br/>value = [397.0, 7.0]<br/>class = satisfied>, fillcolor="#e5833c"] ;
74 -> 75 ;
76 [label=<entropy = 0.0<br/>samples = 98<br/>value = [98, 0]<br/>class = satisfied>, fillcolor="#e58139"] ;
75 -> 76 ;
77 [label=<Ease of Online booking &le; 4.5<br/>entropy = 0.157<br/>samples = 306<br/>value = [299.0, 7.0]<br/>class = satisfied>, fillcolor="#e6843e"] ;
75 -> 77 ;
78 [label=<Inflight wifi service &le; 3.5<br/>entropy = 0.188<br/>samples = 243<br/>value = [236, 7]<br/>class = satisfied>, fillcolor="#e6853f"] ;
77 -> 78 ;
79 [label=<On-board service &le; 4.5<br/>entropy = 0.087<br/>samples = 184<br/>value = [182, 2]<br/>class = satisfied>, fillcolor="#e5823b"] ;
78 -> 79 ;
80 [label=<entropy = 0.0<br/>samples = 154<br/>value = [154, 0]<br/>class = satisfied>, fillcolor="#e58139"] ;
79 -> 80 ;
81 [label=<Food and drink &le; 2.5<br/>entropy = 0.353<br/>samples = 30<br/>value = [28, 2]<br/>class = satisfied>, fillcolor="#e78a47"] ;
79 -> 81 ;
82 [label=<entropy = 0.0<br/>samples = 17<br/>value = [17, 0]<br/>class = satisfied>, fillcolor="#e58139"] ;
81 -> 82 ;
83 [label=<Flight Distance &le; 2055.0<br/>entropy = 0.619<br/>samples = 13<br/>value = [11, 2]<br/>class = satisfied>, fillcolor="#ea985d"] ;
81 -> 83 ;
84 [label=<Flight Distance &le; 2014.0<br/>entropy = 0.971<br/>samples = 5<br/>value = [3, 2]<br/>class = satisfied>, fillcolor="#f6d5bd"] ;
83 -> 84 ;
85 [label=<entropy = 0.0<br/>samples = 3<br/>value = [3, 0]<br/>class = satisfied>, fillcolor="#e58139"] ;
84 -> 85 ;
86 [label=<entropy = 0.0<br/>samples = 2<br/>value = [0, 2]<br/>class = dissatisfied>, fillcolor="#399de5"] ;
84 -> 86 ;
87 [label=<entropy = 0.0<br/>samples = 8<br/>value = [8, 0]<br/>class = satisfied>, fillcolor="#e58139"] ;
83 -> 87 ;
88 [label=<Online support &le; 2.0<br/>entropy = 0.419<br/>samples = 59<br/>value = [54, 5]<br/>class = satisfied>, fillcolor="#e78d4b"] ;
78 -> 88 ;
89 [label=<On-board service &le; 4.5<br/>entropy = 0.918<br/>samples = 6<br/>value = [4, 2]<br/>class = satisfied>, fillcolor="#f2c09c"] ;
88 -> 89 ;
90 [label=<Flight Distance &le; 2266.0<br/>entropy = 0.918<br/>samples = 3<br/>value = [1, 2]<br/>class = dissatisfied>, fillcolor="#9ccef2"] ;
89 -> 90 ;
91 [label=<entropy = 0.0<br/>samples = 1<br/>value = [1, 0]<br/>class = satisfied>, fillcolor="#e58139"] ;
90 -> 91 ;
92 [label=<entropy = 0.0<br/>samples = 2<br/>value = [0, 2]<br/>class = dissatisfied>, fillcolor="#399de5"] ;
90 -> 92 ;
93 [label=<entropy = 0.0<br/>samples = 3<br/>value = [3, 0]<br/>class = satisfied>, fillcolor="#e58139"] ;
89 -> 93 ;
94 [label=<Arrival Delay in Minutes &le; 101.0<br/>entropy = 0.314<br/>samples = 53<br/>value = [50, 3]<br/>class = satisfied>, fillcolor="#e78945"] ;
88 -> 94 ;
95 [label=<Baggage handling &le; 3.5<br/>entropy = 0.242<br/>samples = 50<br/>value = [48, 2]<br/>class = satisfied>, fillcolor="#e68641"] ;
94 -> 95 ;
96 [label=<Flight Distance &le; 2225.5<br/>entropy = 0.544<br/>samples = 16<br/>value = [14, 2]<br/>class = satisfied>, fillcolor="#e99355"] ;
95 -> 96 ;
97 [label=<entropy = 0.0<br/>samples = 9<br/>value = [9, 0]<br/>class = satisfied>, fillcolor="#e58139"] ;
96 -> 97 ;
98 [label=<Baggage handling &le; 2.5<br/>entropy = 0.863<br/>samples = 7<br/>value = [5, 2]<br/>class = satisfied>, fillcolor="#efb388"] ;
96 -> 98 ;
99 [label=<entropy = 0.0<br/>samples = 1<br/>value = [0, 1]<br/>class = dissatisfied>, fillcolor="#399de5"] ;
98 -> 99 ;
100 [label=<Age &le; 24.5<br/>entropy = 0.65<br/>samples = 6<br/>value = [5, 1]<br/>class = satisfied>, fillcolor="#ea9a61"] ;
98 -> 100 ;
101 [label=<entropy = 0.0<br/>samples = 4<br/>value = [4, 0]<br/>class = satisfied>, fillcolor="#e58139"] ;
100 -> 101 ;
102 [label=<Leg room service &le; 4.0<br/>entropy = 1.0<br/>samples = 2<br/>value = [1, 1]<br/>class = satisfied>, fillcolor="#ffffff"] ;
100 -> 102 ;
103 [label=<entropy = 0.0<br/>samples = 1<br/>value = [1, 0]<br/>class = satisfied>, fillcolor="#e58139"] ;
102 -> 103 ;
104 [label=<entropy = 0.0<br/>samples = 1<br/>value = [0, 1]<br/>class = dissatisfied>, fillcolor="#399de5"] ;
102 -> 104 ;
105 [label=<entropy = 0.0<br/>samples = 34<br/>value = [34, 0]<br/>class = satisfied>, fillcolor="#e58139"] ;
95 -> 105 ;
106 [label=<Flight Distance &le; 2198.0<br/>entropy = 0.918<br/>samples = 3<br/>value = [2, 1]<br/>class = satisfied>, fillcolor="#f2c09c"] ;
94 -> 106 ;
107 [label=<entropy = 0.0<br/>samples = 1<br/>value = [0, 1]<br/>class = dissatisfied>, fillcolor="#399de5"] ;
106 -> 107 ;
108 [label=<entropy = 0.0<br/>samples = 2<br/>value = [2, 0]<br/>class = satisfied>, fillcolor="#e58139"] ;
106 -> 108 ;
109 [label=<entropy = 0.0<br/>samples = 63<br/>value = [63, 0]<br/>class = satisfied>, fillcolor="#e58139"] ;
77 -> 109 ;
110 [label=<Departure Delay in Minutes &le; 0.5<br/>entropy = 0.331<br/>samples = 82<br/>value = [77, 5]<br/>class = satisfied>, fillcolor="#e78946"] ;
74 -> 110 ;
111 [label=<Age &le; 9.5<br/>entropy = 0.457<br/>samples = 52<br/>value = [47, 5]<br/>class = satisfied>, fillcolor="#e88e4e"] ;
110 -> 111 ;
112 [label=<entropy = 0.0<br/>samples = 1<br/>value = [0, 1]<br/>class = dissatisfied>, fillcolor="#399de5"] ;
111 -> 112 ;
113 [label=<Departure/Arrival time convenient &le; 2.5<br/>entropy = 0.397<br/>samples = 51<br/>value = [47, 4]<br/>class = satisfied>, fillcolor="#e78c4a"] ;
111 -> 113 ;
114 [label=<Gate location &le; 3.5<br/>entropy = 0.667<br/>samples = 23<br/>value = [19, 4]<br/>class = satisfied>, fillcolor="#ea9c63"] ;
113 -> 114 ;
115 [label=<Gate location &le; 2.5<br/>entropy = 0.89<br/>samples = 13<br/>value = [9, 4]<br/>class = satisfied>, fillcolor="#f1b991"] ;
114 -> 115 ;
116 [label=<entropy = 0.0<br/>samples = 5<br/>value = [5, 0]<br/>class = satisfied>, fillcolor="#e58139"] ;
115 -> 116 ;
117 [label=<Baggage handling &le; 4.5<br/>entropy = 1.0<br/>samples = 8<br/>value = [4, 4]<br/>class = satisfied>, fillcolor="#ffffff"] ;
115 -> 117 ;
118 [label=<Online support &le; 4.5<br/>entropy = 0.722<br/>samples = 5<br/>value = [4, 1]<br/>class = satisfied>, fillcolor="#eca06a"] ;
117 -> 118 ;
119 [label=<entropy = 0.0<br/>samples = 4<br/>value = [4, 0]<br/>class = satisfied>, fillcolor="#e58139"] ;
118 -> 119 ;
120 [label=<entropy = 0.0<br/>samples = 1<br/>value = [0, 1]<br/>class = dissatisfied>, fillcolor="#399de5"] ;
118 -> 120 ;
121 [label=<entropy = 0.0<br/>samples = 3<br/>value = [0, 3]<br/>class = dissatisfied>, fillcolor="#399de5"] ;
117 -> 121 ;
122 [label=<entropy = 0.0<br/>samples = 10<br/>value = [10, 0]<br/>class = satisfied>, fillcolor="#e58139"] ;
114 -> 122 ;
123 [label=<entropy = 0.0<br/>samples = 28<br/>value = [28, 0]<br/>class = satisfied>, fillcolor="#e58139"] ;
113 -> 123 ;
124 [label=<entropy = 0.0<br/>samples = 30<br/>value = [30, 0]<br/>class = satisfied>, fillcolor="#e58139"] ;
110 -> 124 ;
125 [label=<Arrival Delay in Minutes &le; 17.5<br/>entropy = 0.446<br/>samples = 226<br/>value = [205, 21]<br/>class = satisfied>, fillcolor="#e88e4d"] ;
67 -> 125 ;
126 [label=<Flight Distance &le; 2529.5<br/>entropy = 0.554<br/>samples = 163<br/>value = [142, 21]<br/>class = satisfied>, fillcolor="#e99456"] ;
125 -> 126 ;
127 [label=<Age &le; 19.5<br/>entropy = 0.811<br/>samples = 4<br/>value = [1, 3]<br/>class = dissatisfied>, fillcolor="#7bbeee"] ;
126 -> 127 ;
128 [label=<entropy = 0.0<br/>samples = 1<br/>value = [1, 0]<br/>class = satisfied>, fillcolor="#e58139"] ;
127 -> 128 ;
129 [label=<entropy = 0.0<br/>samples = 3<br/>value = [0, 3]<br/>class = dissatisfied>, fillcolor="#399de5"] ;
127 -> 129 ;
130 [label=<Departure Delay in Minutes &le; 1.5<br/>entropy = 0.51<br/>samples = 159<br/>value = [141, 18]<br/>class = satisfied>, fillcolor="#e89152"] ;
126 -> 130 ;
131 [label=<Departure/Arrival time convenient &le; 2.5<br/>entropy = 0.378<br/>samples = 109<br/>value = [101, 8]<br/>class = satisfied>, fillcolor="#e78b49"] ;
130 -> 131 ;
132 [label=<Baggage handling &le; 3.5<br/>entropy = 0.556<br/>samples = 54<br/>value = [47, 7]<br/>class = satisfied>, fillcolor="#e99456"] ;
131 -> 132 ;
133 [label=<entropy = 0.0<br/>samples = 20<br/>value = [20, 0]<br/>class = satisfied>, fillcolor="#e58139"] ;
132 -> 133 ;
134 [label=<Flight Distance &le; 2623.5<br/>entropy = 0.734<br/>samples = 34<br/>value = [27, 7]<br/>class = satisfied>, fillcolor="#eca26c"] ;
132 -> 134 ;
135 [label=<entropy = 0.0<br/>samples = 10<br/>value = [10, 0]<br/>class = satisfied>, fillcolor="#e58139"] ;
134 -> 135 ;
136 [label=<Flight Distance &le; 2630.5<br/>entropy = 0.871<br/>samples = 24<br/>value = [17, 7]<br/>class = satisfied>, fillcolor="#f0b58b"] ;
134 -> 136 ;
137 [label=<entropy = 0.0<br/>samples = 1<br/>value = [0, 1]<br/>class = dissatisfied>, fillcolor="#399de5"] ;
136 -> 137 ;
138 [label=<Checkin service &le; 2.0<br/>entropy = 0.828<br/>samples = 23<br/>value = [17, 6]<br/>class = satisfied>, fillcolor="#eead7f"] ;
136 -> 138 ;
139 [label=<entropy = 0.0<br/>samples = 1<br/>value = [0, 1]<br/>class = dissatisfied>, fillcolor="#399de5"] ;
138 -> 139 ;
140 [label=<Age &le; 19.0<br/>entropy = 0.773<br/>samples = 22<br/>value = [17, 5]<br/>class = satisfied>, fillcolor="#eda673"] ;
138 -> 140 ;
141 [label=<Ease of Online booking &le; 3.5<br/>entropy = 1.0<br/>samples = 6<br/>value = [3, 3]<br/>class = satisfied>, fillcolor="#ffffff"] ;
140 -> 141 ;
142 [label=<entropy = 0.0<br/>samples = 3<br/>value = [3, 0]<br/>class = satisfied>, fillcolor="#e58139"] ;
141 -> 142 ;
143 [label=<entropy = 0.0<br/>samples = 3<br/>value = [0, 3]<br/>class = dissatisfied>, fillcolor="#399de5"] ;
141 -> 143 ;
144 [label=<Seat comfort &le; 2.5<br/>entropy = 0.544<br/>samples = 16<br/>value = [14, 2]<br/>class = satisfied>, fillcolor="#e99355"] ;
140 -> 144 ;
145 [label=<Flight Distance &le; 2926.5<br/>entropy = 0.353<br/>samples = 15<br/>value = [14, 1]<br/>class = satisfied>, fillcolor="#e78a47"] ;
144 -> 145 ;
146 [label=<entropy = 0.0<br/>samples = 10<br/>value = [10, 0]<br/>class = satisfied>, fillcolor="#e58139"] ;
145 -> 146 ;
147 [label=<Inflight wifi service &le; 3.0<br/>entropy = 0.722<br/>samples = 5<br/>value = [4, 1]<br/>class = satisfied>, fillcolor="#eca06a"] ;
145 -> 147 ;
148 [label=<entropy = 0.0<br/>samples = 1<br/>value = [0, 1]<br/>class = dissatisfied>, fillcolor="#399de5"] ;
147 -> 148 ;
149 [label=<entropy = 0.0<br/>samples = 4<br/>value = [4, 0]<br/>class = satisfied>, fillcolor="#e58139"] ;
147 -> 149 ;
150 [label=<entropy = 0.0<br/>samples = 1<br/>value = [0, 1]<br/>class = dissatisfied>, fillcolor="#399de5"] ;
144 -> 150 ;
151 [label=<Cleanliness &le; 1.5<br/>entropy = 0.131<br/>samples = 55<br/>value = [54, 1]<br/>class = satisfied>, fillcolor="#e5833d"] ;
131 -> 151 ;
152 [label=<Age &le; 23.5<br/>entropy = 0.722<br/>samples = 5<br/>value = [4, 1]<br/>class = satisfied>, fillcolor="#eca06a"] ;
151 -> 152 ;
153 [label=<entropy = 0.0<br/>samples = 4<br/>value = [4, 0]<br/>class = satisfied>, fillcolor="#e58139"] ;
152 -> 153 ;
154 [label=<entropy = 0.0<br/>samples = 1<br/>value = [0, 1]<br/>class = dissatisfied>, fillcolor="#399de5"] ;
152 -> 154 ;
155 [label=<entropy = 0.0<br/>samples = 50<br/>value = [50, 0]<br/>class = satisfied>, fillcolor="#e58139"] ;
151 -> 155 ;
156 [label=<Gate location &le; 4.5<br/>entropy = 0.722<br/>samples = 50<br/>value = [40, 10]<br/>class = satisfied>, fillcolor="#eca06a"] ;
130 -> 156 ;
157 [label=<Age &le; 21.5<br/>entropy = 0.65<br/>samples = 48<br/>value = [40, 8]<br/>class = satisfied>, fillcolor="#ea9a61"] ;
156 -> 157 ;
158 [label=<entropy = 0.0<br/>samples = 13<br/>value = [13, 0]<br/>class = satisfied>, fillcolor="#e58139"] ;
157 -> 158 ;
159 [label=<Age &le; 24.5<br/>entropy = 0.776<br/>samples = 35<br/>value = [27, 8]<br/>class = satisfied>, fillcolor="#eda674"] ;
157 -> 159 ;
160 [label=<Checkin service &le; 2.5<br/>entropy = 0.863<br/>samples = 28<br/>value = [20, 8]<br/>class = satisfied>, fillcolor="#efb388"] ;
159 -> 160 ;
161 [label=<Gate location &le; 2.5<br/>entropy = 0.469<br/>samples = 10<br/>value = [9, 1]<br/>class = satisfied>, fillcolor="#e88f4f"] ;
160 -> 161 ;
162 [label=<entropy = 0.0<br/>samples = 1<br/>value = [0, 1]<br/>class = dissatisfied>, fillcolor="#399de5"] ;
161 -> 162 ;
163 [label=<entropy = 0.0<br/>samples = 9<br/>value = [9, 0]<br/>class = satisfied>, fillcolor="#e58139"] ;
161 -> 163 ;
164 [label=<Arrival Delay in Minutes &le; 10.0<br/>entropy = 0.964<br/>samples = 18<br/>value = [11, 7]<br/>class = satisfied>, fillcolor="#f6d1b7"] ;
160 -> 164 ;
165 [label=<Cleanliness &le; 3.5<br/>entropy = 0.896<br/>samples = 16<br/>value = [11, 5]<br/>class = satisfied>, fillcolor="#f1ba93"] ;
164 -> 165 ;
166 [label=<entropy = 0.0<br/>samples = 4<br/>value = [4, 0]<br/>class = satisfied>, fillcolor="#e58139"] ;
165 -> 166 ;
167 [label=<Arrival Delay in Minutes &le; 0.5<br/>entropy = 0.98<br/>samples = 12<br/>value = [7, 5]<br/>class = satisfied>, fillcolor="#f8dbc6"] ;
165 -> 167 ;
168 [label=<Cleanliness &le; 4.5<br/>entropy = 0.881<br/>samples = 10<br/>value = [7, 3]<br/>class = satisfied>, fillcolor="#f0b78e"] ;
167 -> 168 ;
169 [label=<entropy = 0.0<br/>samples = 5<br/>value = [5, 0]<br/>class = satisfied>, fillcolor="#e58139"] ;
168 -> 169 ;
170 [label=<On-board service &le; 3.5<br/>entropy = 0.971<br/>samples = 5<br/>value = [2, 3]<br/>class = dissatisfied>, fillcolor="#bddef6"] ;
168 -> 170 ;
171 [label=<entropy = 0.0<br/>samples = 2<br/>value = [0, 2]<br/>class = dissatisfied>, fillcolor="#399de5"] ;
170 -> 171 ;
172 [label=<Departure Delay in Minutes &le; 7.5<br/>entropy = 0.918<br/>samples = 3<br/>value = [2, 1]<br/>class = satisfied>, fillcolor="#f2c09c"] ;
170 -> 172 ;
173 [label=<entropy = 0.0<br/>samples = 2<br/>value = [2, 0]<br/>class = satisfied>, fillcolor="#e58139"] ;
172 -> 173 ;
174 [label=<entropy = 0.0<br/>samples = 1<br/>value = [0, 1]<br/>class = dissatisfied>, fillcolor="#399de5"] ;
172 -> 174 ;
175 [label=<entropy = 0.0<br/>samples = 2<br/>value = [0, 2]<br/>class = dissatisfied>, fillcolor="#399de5"] ;
167 -> 175 ;
176 [label=<entropy = 0.0<br/>samples = 2<br/>value = [0, 2]<br/>class = dissatisfied>, fillcolor="#399de5"] ;
164 -> 176 ;
177 [label=<entropy = 0.0<br/>samples = 7<br/>value = [7, 0]<br/>class = satisfied>, fillcolor="#e58139"] ;
159 -> 177 ;
178 [label=<entropy = 0.0<br/>samples = 2<br/>value = [0, 2]<br/>class = dissatisfied>, fillcolor="#399de5"] ;
156 -> 178 ;
179 [label=<entropy = 0.0<br/>samples = 63<br/>value = [63, 0]<br/>class = satisfied>, fillcolor="#e58139"] ;
125 -> 179 ;
180 [label=<Checkin service &le; 4.5<br/>entropy = 0.036<br/>samples = 1571<br/>value = [1565, 6]<br/>class = satisfied>, fillcolor="#e5813a"] ;
38 -> 180 ;
181 [label=<Flight Distance &le; 1968.5<br/>entropy = 0.015<br/>samples = 1442<br/>value = [1440, 2]<br/>class = satisfied>, fillcolor="#e58139"] ;
180 -> 181 ;
182 [label=<Baggage handling &le; 4.5<br/>entropy = 0.286<br/>samples = 20<br/>value = [19, 1]<br/>class = satisfied>, fillcolor="#e68843"] ;
181 -> 182 ;
183 [label=<entropy = 0.0<br/>samples = 18<br/>value = [18, 0]<br/>class = satisfied>, fillcolor="#e58139"] ;
182 -> 183 ;
184 [label=<On-board service &le; 3.0<br/>entropy = 1.0<br/>samples = 2<br/>value = [1, 1]<br/>class = satisfied>, fillcolor="#ffffff"] ;
182 -> 184 ;
185 [label=<entropy = 0.0<br/>samples = 1<br/>value = [0, 1]<br/>class = dissatisfied>, fillcolor="#399de5"] ;
184 -> 185 ;
186 [label=<entropy = 0.0<br/>samples = 1<br/>value = [1, 0]<br/>class = satisfied>, fillcolor="#e58139"] ;
184 -> 186 ;
187 [label=<Cleanliness &le; 4.5<br/>entropy = 0.008<br/>samples = 1422<br/>value = [1421, 1]<br/>class = satisfied>, fillcolor="#e58139"] ;
181 -> 187 ;
188 [label=<entropy = 0.0<br/>samples = 1314<br/>value = [1314, 0]<br/>class = satisfied>, fillcolor="#e58139"] ;
187 -> 188 ;
189 [label=<Departure Delay in Minutes &le; 32.5<br/>entropy = 0.076<br/>samples = 108<br/>value = [107, 1]<br/>class = satisfied>, fillcolor="#e5823b"] ;
187 -> 189 ;
190 [label=<entropy = 0.0<br/>samples = 97<br/>value = [97, 0]<br/>class = satisfied>, fillcolor="#e58139"] ;
189 -> 190 ;
191 [label=<Arrival Delay in Minutes &le; 51.0<br/>entropy = 0.439<br/>samples = 11<br/>value = [10, 1]<br/>class = satisfied>, fillcolor="#e88e4d"] ;
189 -> 191 ;
192 [label=<entropy = 0.0<br/>samples = 1<br/>value = [0, 1]<br/>class = dissatisfied>, fillcolor="#399de5"] ;
191 -> 192 ;
193 [label=<entropy = 0.0<br/>samples = 10<br/>value = [10, 0]<br/>class = satisfied>, fillcolor="#e58139"] ;
191 -> 193 ;
194 [label=<Arrival Delay in Minutes &le; 20.5<br/>entropy = 0.199<br/>samples = 129<br/>value = [125, 4]<br/>class = satisfied>, fillcolor="#e6853f"] ;
180 -> 194 ;
195 [label=<Leg room service &le; 1.5<br/>entropy = 0.077<br/>samples = 106<br/>value = [105, 1]<br/>class = satisfied>, fillcolor="#e5823b"] ;
194 -> 195 ;
196 [label=<Age &le; 36.0<br/>entropy = 0.297<br/>samples = 19<br/>value = [18, 1]<br/>class = satisfied>, fillcolor="#e68844"] ;
195 -> 196 ;
197 [label=<entropy = 0.0<br/>samples = 13<br/>value = [13, 0]<br/>class = satisfied>, fillcolor="#e58139"] ;
196 -> 197 ;
198 [label=<Age &le; 39.0<br/>entropy = 0.65<br/>samples = 6<br/>value = [5, 1]<br/>class = satisfied>, fillcolor="#ea9a61"] ;
196 -> 198 ;
199 [label=<Seat comfort &le; 2.5<br/>entropy = 1.0<br/>samples = 2<br/>value = [1, 1]<br/>class = satisfied>, fillcolor="#ffffff"] ;
198 -> 199 ;
200 [label=<entropy = 0.0<br/>samples = 1<br/>value = [1, 0]<br/>class = satisfied>, fillcolor="#e58139"] ;
199 -> 200 ;
201 [label=<entropy = 0.0<br/>samples = 1<br/>value = [0, 1]<br/>class = dissatisfied>, fillcolor="#399de5"] ;
199 -> 201 ;
202 [label=<entropy = 0.0<br/>samples = 4<br/>value = [4, 0]<br/>class = satisfied>, fillcolor="#e58139"] ;
198 -> 202 ;
203 [label=<entropy = 0.0<br/>samples = 87<br/>value = [87, 0]<br/>class = satisfied>, fillcolor="#e58139"] ;
195 -> 203 ;
204 [label=<Arrival Delay in Minutes &le; 21.5<br/>entropy = 0.559<br/>samples = 23<br/>value = [20, 3]<br/>class = satisfied>, fillcolor="#e99457"] ;
194 -> 204 ;
205 [label=<entropy = 0.0<br/>samples = 2<br/>value = [0, 2]<br/>class = dissatisfied>, fillcolor="#399de5"] ;
204 -> 205 ;
206 [label=<Departure Delay in Minutes &le; 4.5<br/>entropy = 0.276<br/>samples = 21<br/>value = [20, 1]<br/>class = satisfied>, fillcolor="#e68743"] ;
204 -> 206 ;
207 [label=<Inflight wifi service &le; 1.5<br/>entropy = 1.0<br/>samples = 2<br/>value = [1, 1]<br/>class = satisfied>, fillcolor="#ffffff"] ;
206 -> 207 ;
208 [label=<entropy = 0.0<br/>samples = 1<br/>value = [1, 0]<br/>class = satisfied>, fillcolor="#e58139"] ;
207 -> 208 ;
209 [label=<entropy = 0.0<br/>samples = 1<br/>value = [0, 1]<br/>class = dissatisfied>, fillcolor="#399de5"] ;
207 -> 209 ;
210 [label=<entropy = 0.0<br/>samples = 19<br/>value = [19, 0]<br/>class = satisfied>, fillcolor="#e58139"] ;
206 -> 210 ;
211 [label=<Departure/Arrival time convenient &le; 3.5<br/>entropy = 0.364<br/>samples = 19891<br/>value = [18508, 1383]<br/>class = satisfied>, fillcolor="#e78a48"] ;
7 -> 211 ;
212 [label=<Cleanliness &le; 4.5<br/>entropy = 0.547<br/>samples = 8660<br/>value = [7568, 1092]<br/>class = satisfied>, fillcolor="#e99356"] ;
211 -> 212 ;
213 [label=<Checkin service &le; 4.5<br/>entropy = 0.449<br/>samples = 8035<br/>value = [7282, 753]<br/>class = satisfied>, fillcolor="#e88e4d"] ;
212 -> 213 ;
214 [label=<Flight Distance &le; 1045.5<br/>entropy = 0.392<br/>samples = 7696<br/>value = [7103, 593]<br/>class = satisfied>, fillcolor="#e78c4a"] ;
213 -> 214 ;
215 [label=<Type of Travel &le; 0.5<br/>entropy = 0.77<br/>samples = 808<br/>value = [626, 182]<br/>class = satisfied>, fillcolor="#eda673"] ;
214 -> 215 ;
216 [label=<Flight Distance &le; 710.5<br/>entropy = 0.875<br/>samples = 166<br/>value = [49, 117]<br/>class = dissatisfied>, fillcolor="#8cc6f0"] ;
215 -> 216 ;
217 [label=<entropy = 0.0<br/>samples = 76<br/>value = [0, 76]<br/>class = dissatisfied>, fillcolor="#399de5"] ;
216 -> 217 ;
218 [label=<Age &le; 40.5<br/>entropy = 0.994<br/>samples = 90<br/>value = [49.0, 41.0]<br/>class = satisfied>, fillcolor="#fbeadf"] ;
216 -> 218 ;
219 [label=<Food and drink &le; 4.0<br/>entropy = 0.235<br/>samples = 26<br/>value = [25, 1]<br/>class = satisfied>, fillcolor="#e68641"] ;
218 -> 219 ;
220 [label=<entropy = 0.0<br/>samples = 25<br/>value = [25, 0]<br/>class = satisfied>, fillcolor="#e58139"] ;
219 -> 220 ;
221 [label=<entropy = 0.0<br/>samples = 1<br/>value = [0, 1]<br/>class = dissatisfied>, fillcolor="#399de5"] ;
219 -> 221 ;
222 [label=<Gate location &le; 3.5<br/>entropy = 0.954<br/>samples = 64<br/>value = [24, 40]<br/>class = dissatisfied>, fillcolor="#b0d8f5"] ;
218 -> 222 ;
223 [label=<Baggage handling &le; 3.5<br/>entropy = 0.752<br/>samples = 51<br/>value = [11, 40]<br/>class = dissatisfied>, fillcolor="#6fb8ec"] ;
222 -> 223 ;
224 [label=<Ease of Online booking &le; 3.5<br/>entropy = 0.99<br/>samples = 25<br/>value = [11.0, 14.0]<br/>class = dissatisfied>, fillcolor="#d5eaf9"] ;
223 -> 224 ;
225 [label=<Online boarding &le; 3.5<br/>entropy = 0.831<br/>samples = 19<br/>value = [5, 14]<br/>class = dissatisfied>, fillcolor="#80c0ee"] ;
224 -> 225 ;
226 [label=<Age &le; 56.0<br/>entropy = 0.991<br/>samples = 9<br/>value = [5, 4]<br/>class = satisfied>, fillcolor="#fae6d7"] ;
225 -> 226 ;
227 [label=<Checkin service &le; 3.5<br/>entropy = 0.722<br/>samples = 5<br/>value = [1, 4]<br/>class = dissatisfied>, fillcolor="#6ab6ec"] ;
226 -> 227 ;
228 [label=<entropy = 0.0<br/>samples = 4<br/>value = [0, 4]<br/>class = dissatisfied>, fillcolor="#399de5"] ;
227 -> 228 ;
229 [label=<entropy = 0.0<br/>samples = 1<br/>value = [1, 0]<br/>class = satisfied>, fillcolor="#e58139"] ;
227 -> 229 ;
230 [label=<entropy = 0.0<br/>samples = 4<br/>value = [4, 0]<br/>class = satisfied>, fillcolor="#e58139"] ;
226 -> 230 ;
231 [label=<entropy = 0.0<br/>samples = 10<br/>value = [0, 10]<br/>class = dissatisfied>, fillcolor="#399de5"] ;
225 -> 231 ;
232 [label=<entropy = 0.0<br/>samples = 6<br/>value = [6, 0]<br/>class = satisfied>, fillcolor="#e58139"] ;
224 -> 232 ;
233 [label=<entropy = 0.0<br/>samples = 26<br/>value = [0, 26]<br/>class = dissatisfied>, fillcolor="#399de5"] ;
223 -> 233 ;
234 [label=<entropy = 0.0<br/>samples = 13<br/>value = [13, 0]<br/>class = satisfied>, fillcolor="#e58139"] ;
222 -> 234 ;
235 [label=<Online support &le; 4.5<br/>entropy = 0.473<br/>samples = 642<br/>value = [577, 65]<br/>class = satisfied>, fillcolor="#e88f4f"] ;
215 -> 235 ;
236 [label=<Online boarding &le; 4.5<br/>entropy = 0.386<br/>samples = 623<br/>value = [576.0, 47.0]<br/>class = satisfied>, fillcolor="#e78b49"] ;
235 -> 236 ;
237 [label=<Inflight entertainment &le; 2.5<br/>entropy = 0.341<br/>samples = 615<br/>value = [576, 39]<br/>class = satisfied>, fillcolor="#e78a46"] ;
236 -> 237 ;
238 [label=<Online support &le; 3.5<br/>entropy = 0.596<br/>samples = 180<br/>value = [154.0, 26.0]<br/>class = satisfied>, fillcolor="#e9965a"] ;
237 -> 238 ;
239 [label=<Flight Distance &le; 892.5<br/>entropy = 0.487<br/>samples = 170<br/>value = [152, 18]<br/>class = satisfied>, fillcolor="#e89050"] ;
238 -> 239 ;
240 [label=<Inflight entertainment &le; 1.5<br/>entropy = 0.564<br/>samples = 136<br/>value = [118, 18]<br/>class = satisfied>, fillcolor="#e99457"] ;
239 -> 240 ;
241 [label=<Departure/Arrival time convenient &le; 1.5<br/>entropy = 0.894<br/>samples = 29<br/>value = [20, 9]<br/>class = satisfied>, fillcolor="#f1ba92"] ;
240 -> 241 ;
242 [label=<entropy = 0.0<br/>samples = 9<br/>value = [9, 0]<br/>class = satisfied>, fillcolor="#e58139"] ;
241 -> 242 ;
243 [label=<Online support &le; 2.5<br/>entropy = 0.993<br/>samples = 20<br/>value = [11, 9]<br/>class = satisfied>, fillcolor="#fae8db"] ;
241 -> 243 ;
244 [label=<Departure Delay in Minutes &le; 4.5<br/>entropy = 0.937<br/>samples = 17<br/>value = [11, 6]<br/>class = satisfied>, fillcolor="#f3c6a5"] ;
243 -> 244 ;
245 [label=<entropy = 0.0<br/>samples = 7<br/>value = [7, 0]<br/>class = satisfied>, fillcolor="#e58139"] ;
244 -> 245 ;
246 [label=<Checkin service &le; 3.5<br/>entropy = 0.971<br/>samples = 10<br/>value = [4, 6]<br/>class = dissatisfied>, fillcolor="#bddef6"] ;
244 -> 246 ;
247 [label=<Seat comfort &le; 2.5<br/>entropy = 0.918<br/>samples = 6<br/>value = [4, 2]<br/>class = satisfied>, fillcolor="#f2c09c"] ;
246 -> 247 ;
248 [label=<Inflight wifi service &le; 4.5<br/>entropy = 0.918<br/>samples = 3<br/>value = [1, 2]<br/>class = dissatisfied>, fillcolor="#9ccef2"] ;
247 -> 248 ;
249 [label=<entropy = 0.0<br/>samples = 2<br/>value = [0, 2]<br/>class = dissatisfied>, fillcolor="#399de5"] ;
248 -> 249 ;
250 [label=<entropy = 0.0<br/>samples = 1<br/>value = [1, 0]<br/>class = satisfied>, fillcolor="#e58139"] ;
248 -> 250 ;
251 [label=<entropy = 0.0<br/>samples = 3<br/>value = [3, 0]<br/>class = satisfied>, fillcolor="#e58139"] ;
247 -> 251 ;
252 [label=<entropy = 0.0<br/>samples = 4<br/>value = [0, 4]<br/>class = dissatisfied>, fillcolor="#399de5"] ;
246 -> 252 ;
253 [label=<entropy = 0.0<br/>samples = 3<br/>value = [0, 3]<br/>class = dissatisfied>, fillcolor="#399de5"] ;
243 -> 253 ;
254 [label=<Age &le; 57.5<br/>entropy = 0.417<br/>samples = 107<br/>value = [98, 9]<br/>class = satisfied>, fillcolor="#e78d4b"] ;
240 -> 254 ;
255 [label=<Age &le; 44.5<br/>entropy = 0.58<br/>samples = 65<br/>value = [56, 9]<br/>class = satisfied>, fillcolor="#e99559"] ;
254 -> 255 ;
256 [label=<entropy = 0.0<br/>samples = 13<br/>value = [13, 0]<br/>class = satisfied>, fillcolor="#e58139"] ;
255 -> 256 ;
257 [label=<Departure Delay in Minutes &le; 0.5<br/>entropy = 0.665<br/>samples = 52<br/>value = [43, 9]<br/>class = satisfied>, fillcolor="#ea9b62"] ;
255 -> 257 ;
258 [label=<Age &le; 51.5<br/>entropy = 0.871<br/>samples = 24<br/>value = [17, 7]<br/>class = satisfied>, fillcolor="#f0b58b"] ;
257 -> 258 ;
259 [label=<Food and drink &le; 2.5<br/>entropy = 0.989<br/>samples = 16<br/>value = [9, 7]<br/>class = satisfied>, fillcolor="#f9e3d3"] ;
258 -> 259 ;
260 [label=<Checkin service &le; 1.5<br/>entropy = 0.918<br/>samples = 9<br/>value = [3, 6]<br/>class = dissatisfied>, fillcolor="#9ccef2"] ;
259 -> 260 ;
261 [label=<entropy = 0.0<br/>samples = 2<br/>value = [2, 0]<br/>class = satisfied>, fillcolor="#e58139"] ;
260 -> 261 ;
262 [label=<Online boarding &le; 1.5<br/>entropy = 0.592<br/>samples = 7<br/>value = [1, 6]<br/>class = dissatisfied>, fillcolor="#5aade9"] ;
260 -> 262 ;
263 [label=<entropy = 0.0<br/>samples = 1<br/>value = [1, 0]<br/>class = satisfied>, fillcolor="#e58139"] ;
262 -> 263 ;
264 [label=<entropy = 0.0<br/>samples = 6<br/>value = [0, 6]<br/>class = dissatisfied>, fillcolor="#399de5"] ;
262 -> 264 ;
265 [label=<Inflight wifi service &le; 4.5<br/>entropy = 0.592<br/>samples = 7<br/>value = [6, 1]<br/>class = satisfied>, fillcolor="#e9965a"] ;
259 -> 265 ;
266 [label=<entropy = 0.0<br/>samples = 6<br/>value = [6, 0]<br/>class = satisfied>, fillcolor="#e58139"] ;
265 -> 266 ;
267 [label=<entropy = 0.0<br/>samples = 1<br/>value = [0, 1]<br/>class = dissatisfied>, fillcolor="#399de5"] ;
265 -> 267 ;
268 [label=<entropy = 0.0<br/>samples = 8<br/>value = [8, 0]<br/>class = satisfied>, fillcolor="#e58139"] ;
258 -> 268 ;
269 [label=<Flight Distance &le; 276.5<br/>entropy = 0.371<br/>samples = 28<br/>value = [26, 2]<br/>class = satisfied>, fillcolor="#e78b48"] ;
257 -> 269 ;
270 [label=<Age &le; 45.5<br/>entropy = 0.863<br/>samples = 7<br/>value = [5, 2]<br/>class = satisfied>, fillcolor="#efb388"] ;
269 -> 270 ;
271 [label=<entropy = 0.0<br/>samples = 1<br/>value = [0, 1]<br/>class = dissatisfied>, fillcolor="#399de5"] ;
270 -> 271 ;
272 [label=<Age &le; 55.0<br/>entropy = 0.65<br/>samples = 6<br/>value = [5, 1]<br/>class = satisfied>, fillcolor="#ea9a61"] ;
270 -> 272 ;
273 [label=<entropy = 0.0<br/>samples = 5<br/>value = [5, 0]<br/>class = satisfied>, fillcolor="#e58139"] ;
272 -> 273 ;
274 [label=<entropy = 0.0<br/>samples = 1<br/>value = [0, 1]<br/>class = dissatisfied>, fillcolor="#399de5"] ;
272 -> 274 ;
275 [label=<entropy = 0.0<br/>samples = 21<br/>value = [21, 0]<br/>class = satisfied>, fillcolor="#e58139"] ;
269 -> 275 ;
276 [label=<entropy = 0.0<br/>samples = 42<br/>value = [42, 0]<br/>class = satisfied>, fillcolor="#e58139"] ;
254 -> 276 ;
277 [label=<entropy = 0.0<br/>samples = 34<br/>value = [34, 0]<br/>class = satisfied>, fillcolor="#e58139"] ;
239 -> 277 ;
278 [label=<Flight Distance &le; 887.0<br/>entropy = 0.722<br/>samples = 10<br/>value = [2, 8]<br/>class = dissatisfied>, fillcolor="#6ab6ec"] ;
238 -> 278 ;
279 [label=<entropy = 0.0<br/>samples = 8<br/>value = [0, 8]<br/>class = dissatisfied>, fillcolor="#399de5"] ;
278 -> 279 ;
280 [label=<entropy = 0.0<br/>samples = 2<br/>value = [2, 0]<br/>class = satisfied>, fillcolor="#e58139"] ;
278 -> 280 ;
281 [label=<Baggage handling &le; 4.5<br/>entropy = 0.194<br/>samples = 435<br/>value = [422, 13]<br/>class = satisfied>, fillcolor="#e6853f"] ;
237 -> 281 ;
282 [label=<Online support &le; 2.5<br/>entropy = 0.171<br/>samples = 433<br/>value = [422, 11]<br/>class = satisfied>, fillcolor="#e6843e"] ;
281 -> 282 ;
283 [label=<Flight Distance &le; 954.0<br/>entropy = 0.475<br/>samples = 49<br/>value = [44, 5]<br/>class = satisfied>, fillcolor="#e88f50"] ;
282 -> 283 ;
284 [label=<Age &le; 50.5<br/>entropy = 0.348<br/>samples = 46<br/>value = [43, 3]<br/>class = satisfied>, fillcolor="#e78a47"] ;
283 -> 284 ;
285 [label=<entropy = 0.0<br/>samples = 20<br/>value = [20, 0]<br/>class = satisfied>, fillcolor="#e58139"] ;
284 -> 285 ;
286 [label=<Arrival Delay in Minutes &le; 0.5<br/>entropy = 0.516<br/>samples = 26<br/>value = [23, 3]<br/>class = satisfied>, fillcolor="#e89153"] ;
284 -> 286 ;
287 [label=<entropy = 0.0<br/>samples = 11<br/>value = [11, 0]<br/>class = satisfied>, fillcolor="#e58139"] ;
286 -> 287 ;
288 [label=<Checkin service &le; 1.5<br/>entropy = 0.722<br/>samples = 15<br/>value = [12, 3]<br/>class = satisfied>, fillcolor="#eca06a"] ;
286 -> 288 ;
289 [label=<entropy = 0.0<br/>samples = 6<br/>value = [6, 0]<br/>class = satisfied>, fillcolor="#e58139"] ;
288 -> 289 ;
290 [label=<Arrival Delay in Minutes &le; 33.5<br/>entropy = 0.918<br/>samples = 9<br/>value = [6, 3]<br/>class = satisfied>, fillcolor="#f2c09c"] ;
288 -> 290 ;
291 [label=<Departure Delay in Minutes &le; 7.0<br/>entropy = 0.811<br/>samples = 8<br/>value = [6, 2]<br/>class = satisfied>, fillcolor="#eeab7b"] ;
290 -> 291 ;
292 [label=<Arrival Delay in Minutes &le; 12.5<br/>entropy = 1.0<br/>samples = 4<br/>value = [2, 2]<br/>class = satisfied>, fillcolor="#ffffff"] ;
291 -> 292 ;
293 [label=<Departure/Arrival time convenient &le; 1.5<br/>entropy = 0.918<br/>samples = 3<br/>value = [2, 1]<br/>class = satisfied>, fillcolor="#f2c09c"] ;
292 -> 293 ;
294 [label=<entropy = 0.0<br/>samples = 2<br/>value = [2, 0]<br/>class = satisfied>, fillcolor="#e58139"] ;
293 -> 294 ;
295 [label=<entropy = 0.0<br/>samples = 1<br/>value = [0, 1]<br/>class = dissatisfied>, fillcolor="#399de5"] ;
293 -> 295 ;
296 [label=<entropy = 0.0<br/>samples = 1<br/>value = [0, 1]<br/>class = dissatisfied>, fillcolor="#399de5"] ;
292 -> 296 ;
297 [label=<entropy = 0.0<br/>samples = 4<br/>value = [4, 0]<br/>class = satisfied>, fillcolor="#e58139"] ;
291 -> 297 ;
298 [label=<entropy = 0.0<br/>samples = 1<br/>value = [0, 1]<br/>class = dissatisfied>, fillcolor="#399de5"] ;
290 -> 298 ;
299 [label=<On-board service &le; 1.5<br/>entropy = 0.918<br/>samples = 3<br/>value = [1, 2]<br/>class = dissatisfied>, fillcolor="#9ccef2"] ;
283 -> 299 ;
300 [label=<entropy = 0.0<br/>samples = 1<br/>value = [1, 0]<br/>class = satisfied>, fillcolor="#e58139"] ;
299 -> 300 ;
301 [label=<entropy = 0.0<br/>samples = 2<br/>value = [0, 2]<br/>class = dissatisfied>, fillcolor="#399de5"] ;
299 -> 301 ;
302 [label=<Seat comfort &le; 2.5<br/>entropy = 0.116<br/>samples = 384<br/>value = [378, 6]<br/>class = satisfied>, fillcolor="#e5833c"] ;
282 -> 302 ;
303 [label=<Inflight wifi service &le; 1.5<br/>entropy = 0.039<br/>samples = 237<br/>value = [236.0, 1.0]<br/>class = satisfied>, fillcolor="#e5823a"] ;
302 -> 303 ;
304 [label=<Checkin service &le; 3.5<br/>entropy = 0.133<br/>samples = 54<br/>value = [53, 1]<br/>class = satisfied>, fillcolor="#e5833d"] ;
303 -> 304 ;
305 [label=<entropy = 0.0<br/>samples = 42<br/>value = [42, 0]<br/>class = satisfied>, fillcolor="#e58139"] ;
304 -> 305 ;
306 [label=<Flight Distance &le; 347.0<br/>entropy = 0.414<br/>samples = 12<br/>value = [11, 1]<br/>class = satisfied>, fillcolor="#e78c4b"] ;
304 -> 306 ;
307 [label=<Age &le; 61.5<br/>entropy = 1.0<br/>samples = 2<br/>value = [1, 1]<br/>class = satisfied>, fillcolor="#ffffff"] ;
306 -> 307 ;
308 [label=<entropy = 0.0<br/>samples = 1<br/>value = [0, 1]<br/>class = dissatisfied>, fillcolor="#399de5"] ;
307 -> 308 ;
309 [label=<entropy = 0.0<br/>samples = 1<br/>value = [1, 0]<br/>class = satisfied>, fillcolor="#e58139"] ;
307 -> 309 ;
310 [label=<entropy = 0.0<br/>samples = 10<br/>value = [10, 0]<br/>class = satisfied>, fillcolor="#e58139"] ;
306 -> 310 ;
311 [label=<entropy = 0.0<br/>samples = 183<br/>value = [183, 0]<br/>class = satisfied>, fillcolor="#e58139"] ;
303 -> 311 ;
312 [label=<Flight Distance &le; 891.0<br/>entropy = 0.214<br/>samples = 147<br/>value = [142.0, 5.0]<br/>class = satisfied>, fillcolor="#e68540"] ;
302 -> 312 ;
313 [label=<Inflight wifi service &le; 4.5<br/>entropy = 0.119<br/>samples = 124<br/>value = [122, 2]<br/>class = satisfied>, fillcolor="#e5833c"] ;
312 -> 313 ;
314 [label=<entropy = 0.0<br/>samples = 101<br/>value = [101, 0]<br/>class = satisfied>, fillcolor="#e58139"] ;
313 -> 314 ;
315 [label=<Food and drink &le; 2.5<br/>entropy = 0.426<br/>samples = 23<br/>value = [21, 2]<br/>class = satisfied>, fillcolor="#e78d4c"] ;
313 -> 315 ;
316 [label=<entropy = 0.0<br/>samples = 13<br/>value = [13, 0]<br/>class = satisfied>, fillcolor="#e58139"] ;
315 -> 316 ;
317 [label=<Checkin service &le; 3.5<br/>entropy = 0.722<br/>samples = 10<br/>value = [8, 2]<br/>class = satisfied>, fillcolor="#eca06a"] ;
315 -> 317 ;
318 [label=<Gate location &le; 2.0<br/>entropy = 0.503<br/>samples = 9<br/>value = [8, 1]<br/>class = satisfied>, fillcolor="#e89152"] ;
317 -> 318 ;
319 [label=<entropy = 0.0<br/>samples = 1<br/>value = [0, 1]<br/>class = dissatisfied>, fillcolor="#399de5"] ;
318 -> 319 ;
320 [label=<entropy = 0.0<br/>samples = 8<br/>value = [8, 0]<br/>class = satisfied>, fillcolor="#e58139"] ;
318 -> 320 ;
321 [label=<entropy = 0.0<br/>samples = 1<br/>value = [0, 1]<br/>class = dissatisfied>, fillcolor="#399de5"] ;
317 -> 321 ;
322 [label=<Ease of Online booking &le; 2.5<br/>entropy = 0.559<br/>samples = 23<br/>value = [20, 3]<br/>class = satisfied>, fillcolor="#e99457"] ;
312 -> 322 ;
323 [label=<entropy = 0.0<br/>samples = 1<br/>value = [0, 1]<br/>class = dissatisfied>, fillcolor="#399de5"] ;
322 -> 323 ;
324 [label=<Flight Distance &le; 897.5<br/>entropy = 0.439<br/>samples = 22<br/>value = [20, 2]<br/>class = satisfied>, fillcolor="#e88e4d"] ;
322 -> 324 ;
325 [label=<entropy = 0.0<br/>samples = 1<br/>value = [0, 1]<br/>class = dissatisfied>, fillcolor="#399de5"] ;
324 -> 325 ;
326 [label=<Online support &le; 3.5<br/>entropy = 0.276<br/>samples = 21<br/>value = [20, 1]<br/>class = satisfied>, fillcolor="#e68743"] ;
324 -> 326 ;
327 [label=<entropy = 0.0<br/>samples = 15<br/>value = [15, 0]<br/>class = satisfied>, fillcolor="#e58139"] ;
326 -> 327 ;
328 [label=<Flight Distance &le; 962.0<br/>entropy = 0.65<br/>samples = 6<br/>value = [5, 1]<br/>class = satisfied>, fillcolor="#ea9a61"] ;
326 -> 328 ;
329 [label=<entropy = 0.0<br/>samples = 5<br/>value = [5, 0]<br/>class = satisfied>, fillcolor="#e58139"] ;
328 -> 329 ;
330 [label=<entropy = 0.0<br/>samples = 1<br/>value = [0, 1]<br/>class = dissatisfied>, fillcolor="#399de5"] ;
328 -> 330 ;
331 [label=<entropy = 0.0<br/>samples = 2<br/>value = [0, 2]<br/>class = dissatisfied>, fillcolor="#399de5"] ;
281 -> 331 ;
332 [label=<entropy = 0.0<br/>samples = 8<br/>value = [0, 8]<br/>class = dissatisfied>, fillcolor="#399de5"] ;
236 -> 332 ;
333 [label=<Checkin service &le; 1.5<br/>entropy = 0.297<br/>samples = 19<br/>value = [1, 18]<br/>class = dissatisfied>, fillcolor="#44a2e6"] ;
235 -> 333 ;
334 [label=<Age &le; 50.5<br/>entropy = 0.811<br/>samples = 4<br/>value = [1, 3]<br/>class = dissatisfied>, fillcolor="#7bbeee"] ;
333 -> 334 ;
335 [label=<entropy = 0.0<br/>samples = 1<br/>value = [1, 0]<br/>class = satisfied>, fillcolor="#e58139"] ;
334 -> 335 ;
336 [label=<entropy = 0.0<br/>samples = 3<br/>value = [0, 3]<br/>class = dissatisfied>, fillcolor="#399de5"] ;
334 -> 336 ;
337 [label=<entropy = 0.0<br/>samples = 15<br/>value = [0, 15]<br/>class = dissatisfied>, fillcolor="#399de5"] ;
333 -> 337 ;
338 [label=<Gate location &le; 3.5<br/>entropy = 0.326<br/>samples = 6888<br/>value = [6477, 411]<br/>class = satisfied>, fillcolor="#e78946"] ;
214 -> 338 ;
339 [label=<Ease of Online booking &le; 1.5<br/>entropy = 0.377<br/>samples = 5562<br/>value = [5156, 406]<br/>class = satisfied>, fillcolor="#e78b49"] ;
338 -> 339 ;
340 [label=<Inflight entertainment &le; 1.5<br/>entropy = 0.069<br/>samples = 1098<br/>value = [1089, 9]<br/>class = satisfied>, fillcolor="#e5823b"] ;
339 -> 340 ;
341 [label=<entropy = 0.0<br/>samples = 655<br/>value = [655, 0]<br/>class = satisfied>, fillcolor="#e58139"] ;
340 -> 341 ;
342 [label=<Type of Travel &le; 0.5<br/>entropy = 0.143<br/>samples = 443<br/>value = [434, 9]<br/>class = satisfied>, fillcolor="#e6843d"] ;
340 -> 342 ;
343 [label=<Flight Distance &le; 3591.5<br/>entropy = 0.031<br/>samples = 311<br/>value = [310, 1]<br/>class = satisfied>, fillcolor="#e5813a"] ;
342 -> 343 ;
344 [label=<entropy = 0.0<br/>samples = 294<br/>value = [294, 0]<br/>class = satisfied>, fillcolor="#e58139"] ;
343 -> 344 ;
345 [label=<Baggage handling &le; 1.5<br/>entropy = 0.323<br/>samples = 17<br/>value = [16, 1]<br/>class = satisfied>, fillcolor="#e78945"] ;
343 -> 345 ;
346 [label=<entropy = 0.0<br/>samples = 1<br/>value = [0, 1]<br/>class = dissatisfied>, fillcolor="#399de5"] ;
345 -> 346 ;
347 [label=<entropy = 0.0<br/>samples = 16<br/>value = [16, 0]<br/>class = satisfied>, fillcolor="#e58139"] ;
345 -> 347 ;
348 [label=<Cleanliness &le; 1.5<br/>entropy = 0.33<br/>samples = 132<br/>value = [124, 8]<br/>class = satisfied>, fillcolor="#e78946"] ;
342 -> 348 ;
349 [label=<entropy = 0.0<br/>samples = 39<br/>value = [39, 0]<br/>class = satisfied>, fillcolor="#e58139"] ;
348 -> 349 ;
350 [label=<Age &le; 35.5<br/>entropy = 0.423<br/>samples = 93<br/>value = [85, 8]<br/>class = satisfied>, fillcolor="#e78d4c"] ;
348 -> 350 ;
351 [label=<entropy = 0.0<br/>samples = 25<br/>value = [25, 0]<br/>class = satisfied>, fillcolor="#e58139"] ;
350 -> 351 ;
352 [label=<Baggage handling &le; 1.5<br/>entropy = 0.523<br/>samples = 68<br/>value = [60, 8]<br/>class = satisfied>, fillcolor="#e89253"] ;
350 -> 352 ;
353 [label=<entropy = 0.0<br/>samples = 2<br/>value = [0, 2]<br/>class = dissatisfied>, fillcolor="#399de5"] ;
352 -> 353 ;
354 [label=<Departure Delay in Minutes &le; 427.5<br/>entropy = 0.439<br/>samples = 66<br/>value = [60, 6]<br/>class = satisfied>, fillcolor="#e88e4d"] ;
352 -> 354 ;
355 [label=<Leg room service &le; 2.5<br/>entropy = 0.391<br/>samples = 65<br/>value = [60, 5]<br/>class = satisfied>, fillcolor="#e78c49"] ;
354 -> 355 ;
356 [label=<Age &le; 41.5<br/>entropy = 0.742<br/>samples = 19<br/>value = [15, 4]<br/>class = satisfied>, fillcolor="#eca36e"] ;
355 -> 356 ;
357 [label=<entropy = 0.0<br/>samples = 6<br/>value = [6, 0]<br/>class = satisfied>, fillcolor="#e58139"] ;
356 -> 357 ;
358 [label=<Online support &le; 1.5<br/>entropy = 0.89<br/>samples = 13<br/>value = [9, 4]<br/>class = satisfied>, fillcolor="#f1b991"] ;
356 -> 358 ;
359 [label=<Arrival Delay in Minutes &le; 2.0<br/>entropy = 0.991<br/>samples = 9<br/>value = [5, 4]<br/>class = satisfied>, fillcolor="#fae6d7"] ;
358 -> 359 ;
360 [label=<Cleanliness &le; 2.5<br/>entropy = 0.722<br/>samples = 5<br/>value = [4, 1]<br/>class = satisfied>, fillcolor="#eca06a"] ;
359 -> 360 ;
361 [label=<entropy = 0.0<br/>samples = 1<br/>value = [0, 1]<br/>class = dissatisfied>, fillcolor="#399de5"] ;
360 -> 361 ;
362 [label=<entropy = 0.0<br/>samples = 4<br/>value = [4, 0]<br/>class = satisfied>, fillcolor="#e58139"] ;
360 -> 362 ;
363 [label=<Checkin service &le; 1.5<br/>entropy = 0.811<br/>samples = 4<br/>value = [1, 3]<br/>class = dissatisfied>, fillcolor="#7bbeee"] ;
359 -> 363 ;
364 [label=<entropy = 0.0<br/>samples = 1<br/>value = [1, 0]<br/>class = satisfied>, fillcolor="#e58139"] ;
363 -> 364 ;
365 [label=<entropy = 0.0<br/>samples = 3<br/>value = [0, 3]<br/>class = dissatisfied>, fillcolor="#399de5"] ;
363 -> 365 ;
366 [label=<entropy = 0.0<br/>samples = 4<br/>value = [4, 0]<br/>class = satisfied>, fillcolor="#e58139"] ;
358 -> 366 ;
367 [label=<Food and drink &le; 3.5<br/>entropy = 0.151<br/>samples = 46<br/>value = [45, 1]<br/>class = satisfied>, fillcolor="#e6843d"] ;
355 -> 367 ;
368 [label=<entropy = 0.0<br/>samples = 42<br/>value = [42, 0]<br/>class = satisfied>, fillcolor="#e58139"] ;
367 -> 368 ;
369 [label=<Flight Distance &le; 2222.0<br/>entropy = 0.811<br/>samples = 4<br/>value = [3, 1]<br/>class = satisfied>, fillcolor="#eeab7b"] ;
367 -> 369 ;
370 [label=<entropy = 0.0<br/>samples = 3<br/>value = [3, 0]<br/>class = satisfied>, fillcolor="#e58139"] ;
369 -> 370 ;
371 [label=<entropy = 0.0<br/>samples = 1<br/>value = [0, 1]<br/>class = dissatisfied>, fillcolor="#399de5"] ;
369 -> 371 ;
372 [label=<entropy = 0.0<br/>samples = 1<br/>value = [0, 1]<br/>class = dissatisfied>, fillcolor="#399de5"] ;
354 -> 372 ;
373 [label=<On-board service &le; 3.5<br/>entropy = 0.433<br/>samples = 4464<br/>value = [4067, 397]<br/>class = satisfied>, fillcolor="#e88d4c"] ;
339 -> 373 ;
374 [label=<Baggage handling &le; 4.5<br/>entropy = 0.319<br/>samples = 3143<br/>value = [2961, 182]<br/>class = satisfied>, fillcolor="#e78945"] ;
373 -> 374 ;
375 [label=<Ease of Online booking &le; 3.5<br/>entropy = 0.289<br/>samples = 3066<br/>value = [2911, 155]<br/>class = satisfied>, fillcolor="#e68844"] ;
374 -> 375 ;
376 [label=<Inflight wifi service &le; 3.5<br/>entropy = 0.337<br/>samples = 2336<br/>value = [2190, 146]<br/>class = satisfied>, fillcolor="#e78946"] ;
375 -> 376 ;
377 [label=<Online boarding &le; 3.5<br/>entropy = 0.281<br/>samples = 2259<br/>value = [2149, 110]<br/>class = satisfied>, fillcolor="#e68743"] ;
376 -> 377 ;
378 [label=<Cleanliness &le; 2.5<br/>entropy = 0.259<br/>samples = 2223<br/>value = [2126, 97]<br/>class = satisfied>, fillcolor="#e68742"] ;
377 -> 378 ;
379 [label=<Arrival Delay in Minutes &le; 53.5<br/>entropy = 0.455<br/>samples = 471<br/>value = [426, 45]<br/>class = satisfied>, fillcolor="#e88e4e"] ;
378 -> 379 ;
380 [label=<Baggage handling &le; 3.5<br/>entropy = 0.498<br/>samples = 411<br/>value = [366, 45]<br/>class = satisfied>, fillcolor="#e89051"] ;
379 -> 380 ;
381 [label=<Age &le; 55.5<br/>entropy = 0.439<br/>samples = 385<br/>value = [350, 35]<br/>class = satisfied>, fillcolor="#e88e4d"] ;
380 -> 381 ;
382 [label=<Food and drink &le; 3.5<br/>entropy = 0.489<br/>samples = 310<br/>value = [277, 33]<br/>class = satisfied>, fillcolor="#e89051"] ;
381 -> 382 ;
383 [label=<Flight Distance &le; 1316.0<br/>entropy = 0.457<br/>samples = 301<br/>value = [272.0, 29.0]<br/>class = satisfied>, fillcolor="#e88e4e"] ;
382 -> 383 ;
384 [label=<entropy = 0.0<br/>samples = 35<br/>value = [35, 0]<br/>class = satisfied>, fillcolor="#e58139"] ;
383 -> 384 ;
385 [label=<Online support &le; 3.5<br/>entropy = 0.497<br/>samples = 266<br/>value = [237, 29]<br/>class = satisfied>, fillcolor="#e89051"] ;
383 -> 385 ;
386 [label=<Arrival Delay in Minutes &le; 14.5<br/>entropy = 0.462<br/>samples = 256<br/>value = [231, 25]<br/>class = satisfied>, fillcolor="#e88f4e"] ;
385 -> 386 ;
387 [label=<Departure Delay in Minutes &le; 8.5<br/>entropy = 0.521<br/>samples = 205<br/>value = [181, 24]<br/>class = satisfied>, fillcolor="#e89253"] ;
386 -> 387 ;
388 [label=<Flight Distance &le; 1364.5<br/>entropy = 0.451<br/>samples = 180<br/>value = [163, 17]<br/>class = satisfied>, fillcolor="#e88e4e"] ;
387 -> 388 ;
389 [label=<Type of Travel &le; 0.5<br/>entropy = 0.918<br/>samples = 3<br/>value = [1, 2]<br/>class = dissatisfied>, fillcolor="#9ccef2"] ;
388 -> 389 ;
390 [label=<entropy = 0.0<br/>samples = 1<br/>value = [1, 0]<br/>class = satisfied>, fillcolor="#e58139"] ;
389 -> 390 ;
391 [label=<entropy = 0.0<br/>samples = 2<br/>value = [0, 2]<br/>class = dissatisfied>, fillcolor="#399de5"] ;
389 -> 391 ;
392 [label=<Age &le; 49.5<br/>entropy = 0.419<br/>samples = 177<br/>value = [162, 15]<br/>class = satisfied>, fillcolor="#e78d4b"] ;
388 -> 392 ;
393 [label=<Age &le; 34.5<br/>entropy = 0.469<br/>samples = 150<br/>value = [135, 15]<br/>class = satisfied>, fillcolor="#e88f4f"] ;
392 -> 393 ;
394 [label=<Inflight wifi service &le; 1.5<br/>entropy = 0.264<br/>samples = 67<br/>value = [64, 3]<br/>class = satisfied>, fillcolor="#e68742"] ;
393 -> 394 ;
395 [label=<entropy = 0.0<br/>samples = 1<br/>value = [0, 1]<br/>class = dissatisfied>, fillcolor="#399de5"] ;
394 -> 395 ;
396 [label=<Ease of Online booking &le; 2.5<br/>entropy = 0.196<br/>samples = 66<br/>value = [64, 2]<br/>class = satisfied>, fillcolor="#e6853f"] ;
394 -> 396 ;
397 [label=<Online boarding &le; 2.5<br/>entropy = 0.371<br/>samples = 28<br/>value = [26, 2]<br/>class = satisfied>, fillcolor="#e78b48"] ;
396 -> 397 ;
398 [label=<Baggage handling &le; 2.5<br/>entropy = 0.229<br/>samples = 27<br/>value = [26, 1]<br/>class = satisfied>, fillcolor="#e68641"] ;
397 -> 398 ;
399 [label=<entropy = 0.0<br/>samples = 20<br/>value = [20, 0]<br/>class = satisfied>, fillcolor="#e58139"] ;
398 -> 399 ;
400 [label=<On-board service &le; 1.5<br/>entropy = 0.592<br/>samples = 7<br/>value = [6, 1]<br/>class = satisfied>, fillcolor="#e9965a"] ;
398 -> 400 ;
401 [label=<Leg room service &le; 3.5<br/>entropy = 1.0<br/>samples = 2<br/>value = [1, 1]<br/>class = satisfied>, fillcolor="#ffffff"] ;
400 -> 401 ;
402 [label=<entropy = 0.0<br/>samples = 1<br/>value = [0, 1]<br/>class = dissatisfied>, fillcolor="#399de5"] ;
401 -> 402 ;
403 [label=<entropy = 0.0<br/>samples = 1<br/>value = [1, 0]<br/>class = satisfied>, fillcolor="#e58139"] ;
401 -> 403 ;
404 [label=<entropy = 0.0<br/>samples = 5<br/>value = [5, 0]<br/>class = satisfied>, fillcolor="#e58139"] ;
400 -> 404 ;
405 [label=<entropy = 0.0<br/>samples = 1<br/>value = [0, 1]<br/>class = dissatisfied>, fillcolor="#399de5"] ;
397 -> 405 ;
406 [label=<entropy = 0.0<br/>samples = 38<br/>value = [38, 0]<br/>class = satisfied>, fillcolor="#e58139"] ;
396 -> 406 ;
407 [label=<Cleanliness &le; 1.5<br/>entropy = 0.596<br/>samples = 83<br/>value = [71, 12]<br/>class = satisfied>, fillcolor="#e9965a"] ;
393 -> 407 ;
408 [label=<Flight Distance &le; 2219.0<br/>entropy = 0.937<br/>samples = 17<br/>value = [11, 6]<br/>class = satisfied>, fillcolor="#f3c6a5"] ;
407 -> 408 ;
409 [label=<Online support &le; 2.5<br/>entropy = 0.75<br/>samples = 14<br/>value = [11, 3]<br/>class = satisfied>, fillcolor="#eca36f"] ;
408 -> 409 ;
410 [label=<entropy = 0.0<br/>samples = 6<br/>value = [6, 0]<br/>class = satisfied>, fillcolor="#e58139"] ;
409 -> 410 ;
411 [label=<Type of Travel &le; 0.5<br/>entropy = 0.954<br/>samples = 8<br/>value = [5, 3]<br/>class = satisfied>, fillcolor="#f5cdb0"] ;
409 -> 411 ;
412 [label=<entropy = 0.0<br/>samples = 2<br/>value = [2, 0]<br/>class = satisfied>, fillcolor="#e58139"] ;
411 -> 412 ;
413 [label=<Food and drink &le; 2.5<br/>entropy = 1.0<br/>samples = 6<br/>value = [3, 3]<br/>class = satisfied>, fillcolor="#ffffff"] ;
411 -> 413 ;
414 [label=<Checkin service &le; 3.5<br/>entropy = 0.811<br/>samples = 4<br/>value = [3, 1]<br/>class = satisfied>, fillcolor="#eeab7b"] ;
413 -> 414 ;
415 [label=<entropy = 0.0<br/>samples = 3<br/>value = [3, 0]<br/>class = satisfied>, fillcolor="#e58139"] ;
414 -> 415 ;
416 [label=<entropy = 0.0<br/>samples = 1<br/>value = [0, 1]<br/>class = dissatisfied>, fillcolor="#399de5"] ;
414 -> 416 ;
417 [label=<entropy = 0.0<br/>samples = 2<br/>value = [0, 2]<br/>class = dissatisfied>, fillcolor="#399de5"] ;
413 -> 417 ;
418 [label=<entropy = 0.0<br/>samples = 3<br/>value = [0, 3]<br/>class = dissatisfied>, fillcolor="#399de5"] ;
408 -> 418 ;
419 [label=<Leg room service &le; 3.5<br/>entropy = 0.439<br/>samples = 66<br/>value = [60, 6]<br/>class = satisfied>, fillcolor="#e88e4d"] ;
407 -> 419 ;
420 [label=<Food and drink &le; 1.5<br/>entropy = 0.583<br/>samples = 43<br/>value = [37, 6]<br/>class = satisfied>, fillcolor="#e99559"] ;
419 -> 420 ;
421 [label=<On-board service &le; 2.5<br/>entropy = 0.946<br/>samples = 11<br/>value = [7, 4]<br/>class = satisfied>, fillcolor="#f4c9aa"] ;
420 -> 421 ;
422 [label=<Departure/Arrival time convenient &le; 2.0<br/>entropy = 1.0<br/>samples = 8<br/>value = [4, 4]<br/>class = satisfied>, fillcolor="#ffffff"] ;
421 -> 422 ;
423 [label=<Age &le; 37.5<br/>entropy = 0.918<br/>samples = 6<br/>value = [4, 2]<br/>class = satisfied>, fillcolor="#f2c09c"] ;
422 -> 423 ;
424 [label=<Inflight entertainment &le; 2.5<br/>entropy = 0.918<br/>samples = 3<br/>value = [1, 2]<br/>class = dissatisfied>, fillcolor="#9ccef2"] ;
423 -> 424 ;
425 [label=<entropy = 0.0<br/>samples = 1<br/>value = [1, 0]<br/>class = satisfied>, fillcolor="#e58139"] ;
424 -> 425 ;
426 [label=<entropy = 0.0<br/>samples = 2<br/>value = [0, 2]<br/>class = dissatisfied>, fillcolor="#399de5"] ;
424 -> 426 ;
427 [label=<entropy = 0.0<br/>samples = 3<br/>value = [3, 0]<br/>class = satisfied>, fillcolor="#e58139"] ;
423 -> 427 ;
428 [label=<entropy = 0.0<br/>samples = 2<br/>value = [0, 2]<br/>class = dissatisfied>, fillcolor="#399de5"] ;
422 -> 428 ;
429 [label=<entropy = 0.0<br/>samples = 3<br/>value = [3, 0]<br/>class = satisfied>, fillcolor="#e58139"] ;
421 -> 429 ;
430 [label=<Type of Travel &le; 0.5<br/>entropy = 0.337<br/>samples = 32<br/>value = [30, 2]<br/>class = satisfied>, fillcolor="#e78946"] ;
420 -> 430 ;
431 [label=<entropy = 0.0<br/>samples = 17<br/>value = [17, 0]<br/>class = satisfied>, fillcolor="#e58139"] ;
430 -> 431 ;
432 [label=<Inflight wifi service &le; 2.5<br/>entropy = 0.567<br/>samples = 15<br/>value = [13, 2]<br/>class = satisfied>, fillcolor="#e99457"] ;
430 -> 432 ;
433 [label=<entropy = 0.0<br/>samples = 7<br/>value = [7, 0]<br/>class = satisfied>, fillcolor="#e58139"] ;
432 -> 433 ;
434 [label=<Age &le; 40.5<br/>entropy = 0.811<br/>samples = 8<br/>value = [6, 2]<br/>class = satisfied>, fillcolor="#eeab7b"] ;
432 -> 434 ;
435 [label=<entropy = 0.0<br/>samples = 4<br/>value = [4, 0]<br/>class = satisfied>, fillcolor="#e58139"] ;
434 -> 435 ;
436 [label=<Baggage handling &le; 1.5<br/>entropy = 1.0<br/>samples = 4<br/>value = [2, 2]<br/>class = satisfied>, fillcolor="#ffffff"] ;
434 -> 436 ;
437 [label=<entropy = 0.0<br/>samples = 1<br/>value = [0, 1]<br/>class = dissatisfied>, fillcolor="#399de5"] ;
436 -> 437 ;
438 [label=<Inflight entertainment &le; 2.5<br/>entropy = 0.918<br/>samples = 3<br/>value = [2, 1]<br/>class = satisfied>, fillcolor="#f2c09c"] ;
436 -> 438 ;
439 [label=<entropy = 0.0<br/>samples = 1<br/>value = [0, 1]<br/>class = dissatisfied>, fillcolor="#399de5"] ;
438 -> 439 ;
440 [label=<entropy = 0.0<br/>samples = 2<br/>value = [2, 0]<br/>class = satisfied>, fillcolor="#e58139"] ;
438 -> 440 ;
441 [label=<entropy = 0.0<br/>samples = 23<br/>value = [23, 0]<br/>class = satisfied>, fillcolor="#e58139"] ;
419 -> 441 ;
442 [label=<entropy = 0.0<br/>samples = 27<br/>value = [27, 0]<br/>class = satisfied>, fillcolor="#e58139"] ;
392 -> 442 ;
443 [label=<Flight Distance &le; 1616.5<br/>entropy = 0.855<br/>samples = 25<br/>value = [18.0, 7.0]<br/>class = satisfied>, fillcolor="#efb286"] ;
387 -> 443 ;
444 [label=<entropy = 0.0<br/>samples = 7<br/>value = [7, 0]<br/>class = satisfied>, fillcolor="#e58139"] ;
443 -> 444 ;
445 [label=<Ease of Online booking &le; 2.5<br/>entropy = 0.964<br/>samples = 18<br/>value = [11, 7]<br/>class = satisfied>, fillcolor="#f6d1b7"] ;
443 -> 445 ;
446 [label=<Flight Distance &le; 3108.0<br/>entropy = 0.65<br/>samples = 6<br/>value = [1, 5]<br/>class = dissatisfied>, fillcolor="#61b1ea"] ;
445 -> 446 ;
447 [label=<entropy = 0.0<br/>samples = 5<br/>value = [0, 5]<br/>class = dissatisfied>, fillcolor="#399de5"] ;
446 -> 447 ;
448 [label=<entropy = 0.0<br/>samples = 1<br/>value = [1, 0]<br/>class = satisfied>, fillcolor="#e58139"] ;
446 -> 448 ;
449 [label=<Checkin service &le; 3.5<br/>entropy = 0.65<br/>samples = 12<br/>value = [10, 2]<br/>class = satisfied>, fillcolor="#ea9a61"] ;
445 -> 449 ;
450 [label=<entropy = 0.0<br/>samples = 8<br/>value = [8, 0]<br/>class = satisfied>, fillcolor="#e58139"] ;
449 -> 450 ;
451 [label=<Food and drink &le; 2.5<br/>entropy = 1.0<br/>samples = 4<br/>value = [2, 2]<br/>class = satisfied>, fillcolor="#ffffff"] ;
449 -> 451 ;
452 [label=<entropy = 0.0<br/>samples = 2<br/>value = [0, 2]<br/>class = dissatisfied>, fillcolor="#399de5"] ;
451 -> 452 ;
453 [label=<entropy = 0.0<br/>samples = 2<br/>value = [2, 0]<br/>class = satisfied>, fillcolor="#e58139"] ;
451 -> 453 ;
454 [label=<Departure Delay in Minutes &le; 53.5<br/>entropy = 0.139<br/>samples = 51<br/>value = [50, 1]<br/>class = satisfied>, fillcolor="#e6843d"] ;
386 -> 454 ;
455 [label=<entropy = 0.0<br/>samples = 46<br/>value = [46, 0]<br/>class = satisfied>, fillcolor="#e58139"] ;
454 -> 455 ;
456 [label=<Departure Delay in Minutes &le; 55.5<br/>entropy = 0.722<br/>samples = 5<br/>value = [4, 1]<br/>class = satisfied>, fillcolor="#eca06a"] ;
454 -> 456 ;
457 [label=<entropy = 0.0<br/>samples = 1<br/>value = [0, 1]<br/>class = dissatisfied>, fillcolor="#399de5"] ;
456 -> 457 ;
458 [label=<entropy = 0.0<br/>samples = 4<br/>value = [4, 0]<br/>class = satisfied>, fillcolor="#e58139"] ;
456 -> 458 ;
459 [label=<Leg room service &le; 2.5<br/>entropy = 0.971<br/>samples = 10<br/>value = [6, 4]<br/>class = satisfied>, fillcolor="#f6d5bd"] ;
385 -> 459 ;
460 [label=<Ease of Online booking &le; 2.5<br/>entropy = 0.722<br/>samples = 5<br/>value = [1, 4]<br/>class = dissatisfied>, fillcolor="#6ab6ec"] ;
459 -> 460 ;
461 [label=<entropy = 0.0<br/>samples = 4<br/>value = [0, 4]<br/>class = dissatisfied>, fillcolor="#399de5"] ;
460 -> 461 ;
462 [label=<entropy = 0.0<br/>samples = 1<br/>value = [1, 0]<br/>class = satisfied>, fillcolor="#e58139"] ;
460 -> 462 ;
463 [label=<entropy = 0.0<br/>samples = 5<br/>value = [5, 0]<br/>class = satisfied>, fillcolor="#e58139"] ;
459 -> 463 ;
464 [label=<Inflight wifi service &le; 2.5<br/>entropy = 0.991<br/>samples = 9<br/>value = [5, 4]<br/>class = satisfied>, fillcolor="#fae6d7"] ;
382 -> 464 ;
465 [label=<entropy = 0.0<br/>samples = 3<br/>value = [3, 0]<br/>class = satisfied>, fillcolor="#e58139"] ;
464 -> 465 ;
466 [label=<Departure/Arrival time convenient &le; 2.5<br/>entropy = 0.918<br/>samples = 6<br/>value = [2, 4]<br/>class = dissatisfied>, fillcolor="#9ccef2"] ;
464 -> 466 ;
467 [label=<entropy = 0.0<br/>samples = 3<br/>value = [0, 3]<br/>class = dissatisfied>, fillcolor="#399de5"] ;
466 -> 467 ;
468 [label=<Departure Delay in Minutes &le; 25.0<br/>entropy = 0.918<br/>samples = 3<br/>value = [2, 1]<br/>class = satisfied>, fillcolor="#f2c09c"] ;
466 -> 468 ;
469 [label=<entropy = 0.0<br/>samples = 2<br/>value = [2, 0]<br/>class = satisfied>, fillcolor="#e58139"] ;
468 -> 469 ;
470 [label=<entropy = 0.0<br/>samples = 1<br/>value = [0, 1]<br/>class = dissatisfied>, fillcolor="#399de5"] ;
468 -> 470 ;
471 [label=<Inflight wifi service &le; 1.5<br/>entropy = 0.177<br/>samples = 75<br/>value = [73, 2]<br/>class = satisfied>, fillcolor="#e6843e"] ;
381 -> 471 ;
472 [label=<Inflight entertainment &le; 2.5<br/>entropy = 1.0<br/>samples = 2<br/>value = [1, 1]<br/>class = satisfied>, fillcolor="#ffffff"] ;
471 -> 472 ;
473 [label=<entropy = 0.0<br/>samples = 1<br/>value = [0, 1]<br/>class = dissatisfied>, fillcolor="#399de5"] ;
472 -> 473 ;
474 [label=<entropy = 0.0<br/>samples = 1<br/>value = [1, 0]<br/>class = satisfied>, fillcolor="#e58139"] ;
472 -> 474 ;
475 [label=<Baggage handling &le; 1.5<br/>entropy = 0.104<br/>samples = 73<br/>value = [72, 1]<br/>class = satisfied>, fillcolor="#e5833c"] ;
471 -> 475 ;
476 [label=<On-board service &le; 2.5<br/>entropy = 0.414<br/>samples = 12<br/>value = [11, 1]<br/>class = satisfied>, fillcolor="#e78c4b"] ;
475 -> 476 ;
477 [label=<entropy = 0.0<br/>samples = 9<br/>value = [9, 0]<br/>class = satisfied>, fillcolor="#e58139"] ;
476 -> 477 ;
478 [label=<Age &le; 64.0<br/>entropy = 0.918<br/>samples = 3<br/>value = [2, 1]<br/>class = satisfied>, fillcolor="#f2c09c"] ;
476 -> 478 ;
479 [label=<entropy = 0.0<br/>samples = 1<br/>value = [0, 1]<br/>class = dissatisfied>, fillcolor="#399de5"] ;
478 -> 479 ;
480 [label=<entropy = 0.0<br/>samples = 2<br/>value = [2, 0]<br/>class = satisfied>, fillcolor="#e58139"] ;
478 -> 480 ;
481 [label=<entropy = 0.0<br/>samples = 61<br/>value = [61, 0]<br/>class = satisfied>, fillcolor="#e58139"] ;
475 -> 481 ;
482 [label=<Type of Travel &le; 0.5<br/>entropy = 0.961<br/>samples = 26<br/>value = [16, 10]<br/>class = satisfied>, fillcolor="#f5d0b5"] ;
380 -> 482 ;
483 [label=<Departure Delay in Minutes &le; 11.0<br/>entropy = 0.337<br/>samples = 16<br/>value = [15, 1]<br/>class = satisfied>, fillcolor="#e78946"] ;
482 -> 483 ;
484 [label=<entropy = 0.0<br/>samples = 14<br/>value = [14, 0]<br/>class = satisfied>, fillcolor="#e58139"] ;
483 -> 484 ;
485 [label=<On-board service &le; 1.5<br/>entropy = 1.0<br/>samples = 2<br/>value = [1, 1]<br/>class = satisfied>, fillcolor="#ffffff"] ;
483 -> 485 ;
486 [label=<entropy = 0.0<br/>samples = 1<br/>value = [1, 0]<br/>class = satisfied>, fillcolor="#e58139"] ;
485 -> 486 ;
487 [label=<entropy = 0.0<br/>samples = 1<br/>value = [0, 1]<br/>class = dissatisfied>, fillcolor="#399de5"] ;
485 -> 487 ;
488 [label=<Flight Distance &le; 3042.5<br/>entropy = 0.469<br/>samples = 10<br/>value = [1, 9]<br/>class = dissatisfied>, fillcolor="#4fa8e8"] ;
482 -> 488 ;
489 [label=<entropy = 0.0<br/>samples = 9<br/>value = [0, 9]<br/>class = dissatisfied>, fillcolor="#399de5"] ;
488 -> 489 ;
490 [label=<entropy = 0.0<br/>samples = 1<br/>value = [1, 0]<br/>class = satisfied>, fillcolor="#e58139"] ;
488 -> 490 ;
491 [label=<entropy = 0.0<br/>samples = 60<br/>value = [60, 0]<br/>class = satisfied>, fillcolor="#e58139"] ;
379 -> 491 ;
492 [label=<Baggage handling &le; 1.5<br/>entropy = 0.193<br/>samples = 1752<br/>value = [1700, 52]<br/>class = satisfied>, fillcolor="#e6853f"] ;
378 -> 492 ;
493 [label=<Age &le; 39.0<br/>entropy = 0.894<br/>samples = 29<br/>value = [20, 9]<br/>class = satisfied>, fillcolor="#f1ba92"] ;
492 -> 493 ;
494 [label=<entropy = 0.0<br/>samples = 11<br/>value = [11, 0]<br/>class = satisfied>, fillcolor="#e58139"] ;
493 -> 494 ;
495 [label=<Flight Distance &le; 2568.0<br/>entropy = 1.0<br/>samples = 18<br/>value = [9, 9]<br/>class = satisfied>, fillcolor="#ffffff"] ;
493 -> 495 ;
496 [label=<Age &le; 49.5<br/>entropy = 0.89<br/>samples = 13<br/>value = [4, 9]<br/>class = dissatisfied>, fillcolor="#91c9f1"] ;
495 -> 496 ;
497 [label=<entropy = 0.0<br/>samples = 8<br/>value = [0, 8]<br/>class = dissatisfied>, fillcolor="#399de5"] ;
496 -> 497 ;
498 [label=<On-board service &le; 2.5<br/>entropy = 0.722<br/>samples = 5<br/>value = [4, 1]<br/>class = satisfied>, fillcolor="#eca06a"] ;
496 -> 498 ;
499 [label=<entropy = 0.0<br/>samples = 4<br/>value = [4, 0]<br/>class = satisfied>, fillcolor="#e58139"] ;
498 -> 499 ;
500 [label=<entropy = 0.0<br/>samples = 1<br/>value = [0, 1]<br/>class = dissatisfied>, fillcolor="#399de5"] ;
498 -> 500 ;
501 [label=<entropy = 0.0<br/>samples = 5<br/>value = [5, 0]<br/>class = satisfied>, fillcolor="#e58139"] ;
495 -> 501 ;
502 [label=<Online boarding &le; 1.5<br/>entropy = 0.168<br/>samples = 1723<br/>value = [1680, 43]<br/>class = satisfied>, fillcolor="#e6843e"] ;
492 -> 502 ;
503 [label=<Online support &le; 2.5<br/>entropy = 0.918<br/>samples = 15<br/>value = [10, 5]<br/>class = satisfied>, fillcolor="#f2c09c"] ;
502 -> 503 ;
504 [label=<entropy = 0.0<br/>samples = 10<br/>value = [10, 0]<br/>class = satisfied>, fillcolor="#e58139"] ;
503 -> 504 ;
505 [label=<entropy = 0.0<br/>samples = 5<br/>value = [0, 5]<br/>class = dissatisfied>, fillcolor="#399de5"] ;
503 -> 505 ;
506 [label=<Flight Distance &le; 1271.5<br/>entropy = 0.154<br/>samples = 1708<br/>value = [1670, 38]<br/>class = satisfied>, fillcolor="#e6843e"] ;
502 -> 506 ;
507 [label=<Arrival Delay in Minutes &le; 2.0<br/>entropy = 0.419<br/>samples = 106<br/>value = [97, 9]<br/>class = satisfied>, fillcolor="#e78d4b"] ;
506 -> 507 ;
508 [label=<Age &le; 35.5<br/>entropy = 0.592<br/>samples = 63<br/>value = [54, 9]<br/>class = satisfied>, fillcolor="#e9965a"] ;
507 -> 508 ;
509 [label=<entropy = 0.0<br/>samples = 22<br/>value = [22, 0]<br/>class = satisfied>, fillcolor="#e58139"] ;
508 -> 509 ;
510 [label=<Baggage handling &le; 2.5<br/>entropy = 0.759<br/>samples = 41<br/>value = [32, 9]<br/>class = satisfied>, fillcolor="#eca471"] ;
508 -> 510 ;
511 [label=<Cleanliness &le; 3.5<br/>entropy = 0.918<br/>samples = 6<br/>value = [2, 4]<br/>class = dissatisfied>, fillcolor="#9ccef2"] ;
510 -> 511 ;
512 [label=<entropy = 0.0<br/>samples = 2<br/>value = [2, 0]<br/>class = satisfied>, fillcolor="#e58139"] ;
511 -> 512 ;
513 [label=<entropy = 0.0<br/>samples = 4<br/>value = [0, 4]<br/>class = dissatisfied>, fillcolor="#399de5"] ;
511 -> 513 ;
514 [label=<Departure Delay in Minutes &le; 1.5<br/>entropy = 0.592<br/>samples = 35<br/>value = [30, 5]<br/>class = satisfied>, fillcolor="#e9965a"] ;
510 -> 514 ;
515 [label=<Flight Distance &le; 1270.5<br/>entropy = 0.353<br/>samples = 30<br/>value = [28, 2]<br/>class = satisfied>, fillcolor="#e78a47"] ;
514 -> 515 ;
516 [label=<Class &le; 1.5<br/>entropy = 0.216<br/>samples = 29<br/>value = [28, 1]<br/>class = satisfied>, fillcolor="#e68640"] ;
515 -> 516 ;
517 [label=<entropy = 0.0<br/>samples = 24<br/>value = [24, 0]<br/>class = satisfied>, fillcolor="#e58139"] ;
516 -> 517 ;
518 [label=<Age &le; 42.5<br/>entropy = 0.722<br/>samples = 5<br/>value = [4, 1]<br/>class = satisfied>, fillcolor="#eca06a"] ;
516 -> 518 ;
519 [label=<entropy = 0.0<br/>samples = 1<br/>value = [0, 1]<br/>class = dissatisfied>, fillcolor="#399de5"] ;
518 -> 519 ;
520 [label=<entropy = 0.0<br/>samples = 4<br/>value = [4, 0]<br/>class = satisfied>, fillcolor="#e58139"] ;
518 -> 520 ;
521 [label=<entropy = 0.0<br/>samples = 1<br/>value = [0, 1]<br/>class = dissatisfied>, fillcolor="#399de5"] ;
515 -> 521 ;
522 [label=<Leg room service &le; 1.5<br/>entropy = 0.971<br/>samples = 5<br/>value = [2, 3]<br/>class = dissatisfied>, fillcolor="#bddef6"] ;
514 -> 522 ;
523 [label=<entropy = 0.0<br/>samples = 2<br/>value = [2, 0]<br/>class = satisfied>, fillcolor="#e58139"] ;
522 -> 523 ;
524 [label=<entropy = 0.0<br/>samples = 3<br/>value = [0, 3]<br/>class = dissatisfied>, fillcolor="#399de5"] ;
522 -> 524 ;
525 [label=<entropy = 0.0<br/>samples = 43<br/>value = [43, 0]<br/>class = satisfied>, fillcolor="#e58139"] ;
507 -> 525 ;
526 [label=<On-board service &le; 2.5<br/>entropy = 0.131<br/>samples = 1602<br/>value = [1573, 29]<br/>class = satisfied>, fillcolor="#e5833d"] ;
506 -> 526 ;
527 [label=<Age &le; 39.5<br/>entropy = 0.09<br/>samples = 1048<br/>value = [1036, 12]<br/>class = satisfied>, fillcolor="#e5823b"] ;
526 -> 527 ;
528 [label=<Age &le; 7.5<br/>entropy = 0.019<br/>samples = 560<br/>value = [559, 1]<br/>class = satisfied>, fillcolor="#e58139"] ;
527 -> 528 ;
529 [label=<Departure Delay in Minutes &le; 71.0<br/>entropy = 0.722<br/>samples = 5<br/>value = [4, 1]<br/>class = satisfied>, fillcolor="#eca06a"] ;
528 -> 529 ;
530 [label=<entropy = 0.0<br/>samples = 4<br/>value = [4, 0]<br/>class = satisfied>, fillcolor="#e58139"] ;
529 -> 530 ;
531 [label=<entropy = 0.0<br/>samples = 1<br/>value = [0, 1]<br/>class = dissatisfied>, fillcolor="#399de5"] ;
529 -> 531 ;
532 [label=<entropy = 0.0<br/>samples = 555<br/>value = [555, 0]<br/>class = satisfied>, fillcolor="#e58139"] ;
528 -> 532 ;
533 [label=<Type of Travel &le; 0.5<br/>entropy = 0.155<br/>samples = 488<br/>value = [477, 11]<br/>class = satisfied>, fillcolor="#e6843e"] ;
527 -> 533 ;
534 [label=<entropy = 0.0<br/>samples = 136<br/>value = [136, 0]<br/>class = satisfied>, fillcolor="#e58139"] ;
533 -> 534 ;
535 [label=<Checkin service &le; 3.5<br/>entropy = 0.201<br/>samples = 352<br/>value = [341, 11]<br/>class = satisfied>, fillcolor="#e6853f"] ;
533 -> 535 ;
536 [label=<Flight Distance &le; 4180.0<br/>entropy = 0.255<br/>samples = 257<br/>value = [246, 11]<br/>class = satisfied>, fillcolor="#e68742"] ;
535 -> 536 ;
537 [label=<Flight Distance &le; 2034.5<br/>entropy = 0.238<br/>samples = 256<br/>value = [246, 10]<br/>class = satisfied>, fillcolor="#e68641"] ;
536 -> 537 ;
538 [label=<Arrival Delay in Minutes &le; 0.5<br/>entropy = 0.35<br/>samples = 137<br/>value = [128, 9]<br/>class = satisfied>, fillcolor="#e78a47"] ;
537 -> 538 ;
539 [label=<Flight Distance &le; 1446.5<br/>entropy = 0.544<br/>samples = 56<br/>value = [49, 7]<br/>class = satisfied>, fillcolor="#e99355"] ;
538 -> 539 ;
540 [label=<entropy = 0.0<br/>samples = 12<br/>value = [12, 0]<br/>class = satisfied>, fillcolor="#e58139"] ;
539 -> 540 ;
541 [label=<Flight Distance &le; 1472.5<br/>entropy = 0.632<br/>samples = 44<br/>value = [37, 7]<br/>class = satisfied>, fillcolor="#ea995e"] ;
539 -> 541 ;
542 [label=<entropy = 0.0<br/>samples = 1<br/>value = [0, 1]<br/>class = dissatisfied>, fillcolor="#399de5"] ;
541 -> 542 ;
543 [label=<Flight Distance &le; 1782.5<br/>entropy = 0.583<br/>samples = 43<br/>value = [37, 6]<br/>class = satisfied>, fillcolor="#e99559"] ;
541 -> 543 ;
544 [label=<Flight Distance &le; 1588.5<br/>entropy = 0.755<br/>samples = 23<br/>value = [18, 5]<br/>class = satisfied>, fillcolor="#eca470"] ;
543 -> 544 ;
545 [label=<entropy = 0.0<br/>samples = 7<br/>value = [7, 0]<br/>class = satisfied>, fillcolor="#e58139"] ;
544 -> 545 ;
546 [label=<Food and drink &le; 3.5<br/>entropy = 0.896<br/>samples = 16<br/>value = [11, 5]<br/>class = satisfied>, fillcolor="#f1ba93"] ;
544 -> 546 ;
547 [label=<Checkin service &le; 2.5<br/>entropy = 0.98<br/>samples = 12<br/>value = [7, 5]<br/>class = satisfied>, fillcolor="#f8dbc6"] ;
546 -> 547 ;
548 [label=<Departure Delay in Minutes &le; 3.5<br/>entropy = 0.764<br/>samples = 9<br/>value = [7, 2]<br/>class = satisfied>, fillcolor="#eca572"] ;
547 -> 548 ;
549 [label=<Flight Distance &le; 1768.0<br/>entropy = 0.544<br/>samples = 8<br/>value = [7, 1]<br/>class = satisfied>, fillcolor="#e99355"] ;
548 -> 549 ;
550 [label=<entropy = 0.0<br/>samples = 7<br/>value = [7, 0]<br/>class = satisfied>, fillcolor="#e58139"] ;
549 -> 550 ;
551 [label=<entropy = 0.0<br/>samples = 1<br/>value = [0, 1]<br/>class = dissatisfied>, fillcolor="#399de5"] ;
549 -> 551 ;
552 [label=<entropy = 0.0<br/>samples = 1<br/>value = [0, 1]<br/>class = dissatisfied>, fillcolor="#399de5"] ;
548 -> 552 ;
553 [label=<entropy = 0.0<br/>samples = 3<br/>value = [0, 3]<br/>class = dissatisfied>, fillcolor="#399de5"] ;
547 -> 553 ;
554 [label=<entropy = 0.0<br/>samples = 4<br/>value = [4, 0]<br/>class = satisfied>, fillcolor="#e58139"] ;
546 -> 554 ;
555 [label=<Flight Distance &le; 2031.0<br/>entropy = 0.286<br/>samples = 20<br/>value = [19, 1]<br/>class = satisfied>, fillcolor="#e68843"] ;
543 -> 555 ;
556 [label=<entropy = 0.0<br/>samples = 18<br/>value = [18, 0]<br/>class = satisfied>, fillcolor="#e58139"] ;
555 -> 556 ;
557 [label=<Leg room service &le; 3.5<br/>entropy = 1.0<br/>samples = 2<br/>value = [1, 1]<br/>class = satisfied>, fillcolor="#ffffff"] ;
555 -> 557 ;
558 [label=<entropy = 0.0<br/>samples = 1<br/>value = [1, 0]<br/>class = satisfied>, fillcolor="#e58139"] ;
557 -> 558 ;
559 [label=<entropy = 0.0<br/>samples = 1<br/>value = [0, 1]<br/>class = dissatisfied>, fillcolor="#399de5"] ;
557 -> 559 ;
560 [label=<Baggage handling &le; 2.5<br/>entropy = 0.167<br/>samples = 81<br/>value = [79, 2]<br/>class = satisfied>, fillcolor="#e6843e"] ;
538 -> 560 ;
561 [label=<Departure Delay in Minutes &le; 26.0<br/>entropy = 0.764<br/>samples = 9<br/>value = [7, 2]<br/>class = satisfied>, fillcolor="#eca572"] ;
560 -> 561 ;
562 [label=<entropy = 0.0<br/>samples = 7<br/>value = [7, 0]<br/>class = satisfied>, fillcolor="#e58139"] ;
561 -> 562 ;
563 [label=<entropy = 0.0<br/>samples = 2<br/>value = [0, 2]<br/>class = dissatisfied>, fillcolor="#399de5"] ;
561 -> 563 ;
564 [label=<entropy = 0.0<br/>samples = 72<br/>value = [72, 0]<br/>class = satisfied>, fillcolor="#e58139"] ;
560 -> 564 ;
565 [label=<Age &le; 60.5<br/>entropy = 0.07<br/>samples = 119<br/>value = [118, 1]<br/>class = satisfied>, fillcolor="#e5823b"] ;
537 -> 565 ;
566 [label=<entropy = 0.0<br/>samples = 103<br/>value = [103, 0]<br/>class = satisfied>, fillcolor="#e58139"] ;
565 -> 566 ;
567 [label=<Age &le; 61.5<br/>entropy = 0.337<br/>samples = 16<br/>value = [15, 1]<br/>class = satisfied>, fillcolor="#e78946"] ;
565 -> 567 ;
568 [label=<Online boarding &le; 2.5<br/>entropy = 0.918<br/>samples = 3<br/>value = [2, 1]<br/>class = satisfied>, fillcolor="#f2c09c"] ;
567 -> 568 ;
569 [label=<entropy = 0.0<br/>samples = 2<br/>value = [2, 0]<br/>class = satisfied>, fillcolor="#e58139"] ;
568 -> 569 ;
570 [label=<entropy = 0.0<br/>samples = 1<br/>value = [0, 1]<br/>class = dissatisfied>, fillcolor="#399de5"] ;
568 -> 570 ;
571 [label=<entropy = 0.0<br/>samples = 13<br/>value = [13, 0]<br/>class = satisfied>, fillcolor="#e58139"] ;
567 -> 571 ;
572 [label=<entropy = 0.0<br/>samples = 1<br/>value = [0, 1]<br/>class = dissatisfied>, fillcolor="#399de5"] ;
536 -> 572 ;
573 [label=<entropy = 0.0<br/>samples = 95<br/>value = [95, 0]<br/>class = satisfied>, fillcolor="#e58139"] ;
535 -> 573 ;
574 [label=<Gate location &le; 1.5<br/>entropy = 0.198<br/>samples = 554<br/>value = [537, 17]<br/>class = satisfied>, fillcolor="#e6853f"] ;
526 -> 574 ;
575 [label=<Type of Travel &le; 0.5<br/>entropy = 0.385<br/>samples = 133<br/>value = [123, 10]<br/>class = satisfied>, fillcolor="#e78b49"] ;
574 -> 575 ;
576 [label=<Age &le; 38.0<br/>entropy = 0.971<br/>samples = 10<br/>value = [4, 6]<br/>class = dissatisfied>, fillcolor="#bddef6"] ;
575 -> 576 ;
577 [label=<Age &le; 17.5<br/>entropy = 0.592<br/>samples = 7<br/>value = [1, 6]<br/>class = dissatisfied>, fillcolor="#5aade9"] ;
576 -> 577 ;
578 [label=<entropy = 0.0<br/>samples = 1<br/>value = [1, 0]<br/>class = satisfied>, fillcolor="#e58139"] ;
577 -> 578 ;
579 [label=<entropy = 0.0<br/>samples = 6<br/>value = [0, 6]<br/>class = dissatisfied>, fillcolor="#399de5"] ;
577 -> 579 ;
580 [label=<entropy = 0.0<br/>samples = 3<br/>value = [3, 0]<br/>class = satisfied>, fillcolor="#e58139"] ;
576 -> 580 ;
581 [label=<Age &le; 37.5<br/>entropy = 0.207<br/>samples = 123<br/>value = [119, 4]<br/>class = satisfied>, fillcolor="#e68540"] ;
575 -> 581 ;
582 [label=<entropy = 0.0<br/>samples = 61<br/>value = [61, 0]<br/>class = satisfied>, fillcolor="#e58139"] ;
581 -> 582 ;
583 [label=<Age &le; 41.5<br/>entropy = 0.345<br/>samples = 62<br/>value = [58, 4]<br/>class = satisfied>, fillcolor="#e78a47"] ;
581 -> 583 ;
584 [label=<Leg room service &le; 3.5<br/>entropy = 0.696<br/>samples = 16<br/>value = [13, 3]<br/>class = satisfied>, fillcolor="#eb9e67"] ;
583 -> 584 ;
585 [label=<Checkin service &le; 3.0<br/>entropy = 1.0<br/>samples = 6<br/>value = [3, 3]<br/>class = satisfied>, fillcolor="#ffffff"] ;
584 -> 585 ;
586 [label=<Online support &le; 2.5<br/>entropy = 0.811<br/>samples = 4<br/>value = [3, 1]<br/>class = satisfied>, fillcolor="#eeab7b"] ;
585 -> 586 ;
587 [label=<Leg room service &le; 2.5<br/>entropy = 1.0<br/>samples = 2<br/>value = [1, 1]<br/>class = satisfied>, fillcolor="#ffffff"] ;
586 -> 587 ;
588 [label=<entropy = 0.0<br/>samples = 1<br/>value = [1, 0]<br/>class = satisfied>, fillcolor="#e58139"] ;
587 -> 588 ;
589 [label=<entropy = 0.0<br/>samples = 1<br/>value = [0, 1]<br/>class = dissatisfied>, fillcolor="#399de5"] ;
587 -> 589 ;
590 [label=<entropy = 0.0<br/>samples = 2<br/>value = [2, 0]<br/>class = satisfied>, fillcolor="#e58139"] ;
586 -> 590 ;
591 [label=<entropy = 0.0<br/>samples = 2<br/>value = [0, 2]<br/>class = dissatisfied>, fillcolor="#399de5"] ;
585 -> 591 ;
592 [label=<entropy = 0.0<br/>samples = 10<br/>value = [10, 0]<br/>class = satisfied>, fillcolor="#e58139"] ;
584 -> 592 ;
593 [label=<Flight Distance &le; 1592.0<br/>entropy = 0.151<br/>samples = 46<br/>value = [45, 1]<br/>class = satisfied>, fillcolor="#e6843d"] ;
583 -> 593 ;
594 [label=<Baggage handling &le; 3.5<br/>entropy = 0.544<br/>samples = 8<br/>value = [7, 1]<br/>class = satisfied>, fillcolor="#e99355"] ;
593 -> 594 ;
595 [label=<entropy = 0.0<br/>samples = 7<br/>value = [7, 0]<br/>class = satisfied>, fillcolor="#e58139"] ;
594 -> 595 ;
596 [label=<entropy = 0.0<br/>samples = 1<br/>value = [0, 1]<br/>class = dissatisfied>, fillcolor="#399de5"] ;
594 -> 596 ;
597 [label=<entropy = 0.0<br/>samples = 38<br/>value = [38, 0]<br/>class = satisfied>, fillcolor="#e58139"] ;
593 -> 597 ;
598 [label=<Seat comfort &le; 2.5<br/>entropy = 0.122<br/>samples = 421<br/>value = [414, 7]<br/>class = satisfied>, fillcolor="#e5833c"] ;
574 -> 598 ;
599 [label=<Flight Distance &le; 1516.5<br/>entropy = 0.037<br/>samples = 257<br/>value = [256, 1]<br/>class = satisfied>, fillcolor="#e5813a"] ;
598 -> 599 ;
600 [label=<Flight Distance &le; 1502.0<br/>entropy = 0.196<br/>samples = 33<br/>value = [32, 1]<br/>class = satisfied>, fillcolor="#e6853f"] ;
599 -> 600 ;
601 [label=<entropy = 0.0<br/>samples = 32<br/>value = [32, 0]<br/>class = satisfied>, fillcolor="#e58139"] ;
600 -> 601 ;
602 [label=<entropy = 0.0<br/>samples = 1<br/>value = [0, 1]<br/>class = dissatisfied>, fillcolor="#399de5"] ;
600 -> 602 ;
603 [label=<entropy = 0.0<br/>samples = 224<br/>value = [224, 0]<br/>class = satisfied>, fillcolor="#e58139"] ;
599 -> 603 ;
604 [label=<Inflight entertainment &le; 2.5<br/>entropy = 0.226<br/>samples = 164<br/>value = [158, 6]<br/>class = satisfied>, fillcolor="#e68641"] ;
598 -> 604 ;
605 [label=<Inflight wifi service &le; 1.5<br/>entropy = 0.722<br/>samples = 10<br/>value = [8, 2]<br/>class = satisfied>, fillcolor="#eca06a"] ;
604 -> 605 ;
606 [label=<entropy = 0.0<br/>samples = 1<br/>value = [0, 1]<br/>class = dissatisfied>, fillcolor="#399de5"] ;
605 -> 606 ;
607 [label=<Baggage handling &le; 3.5<br/>entropy = 0.503<br/>samples = 9<br/>value = [8, 1]<br/>class = satisfied>, fillcolor="#e89152"] ;
605 -> 607 ;
608 [label=<entropy = 0.0<br/>samples = 7<br/>value = [7, 0]<br/>class = satisfied>, fillcolor="#e58139"] ;
607 -> 608 ;
609 [label=<Departure/Arrival time convenient &le; 2.5<br/>entropy = 1.0<br/>samples = 2<br/>value = [1, 1]<br/>class = satisfied>, fillcolor="#ffffff"] ;
607 -> 609 ;
610 [label=<entropy = 0.0<br/>samples = 1<br/>value = [1, 0]<br/>class = satisfied>, fillcolor="#e58139"] ;
609 -> 610 ;
611 [label=<entropy = 0.0<br/>samples = 1<br/>value = [0, 1]<br/>class = dissatisfied>, fillcolor="#399de5"] ;
609 -> 611 ;
612 [label=<Arrival Delay in Minutes &le; 54.0<br/>entropy = 0.174<br/>samples = 154<br/>value = [150, 4]<br/>class = satisfied>, fillcolor="#e6843e"] ;
604 -> 612 ;
613 [label=<Flight Distance &le; 1808.5<br/>entropy = 0.106<br/>samples = 144<br/>value = [142, 2]<br/>class = satisfied>, fillcolor="#e5833c"] ;
612 -> 613 ;
614 [label=<Flight Distance &le; 1761.5<br/>entropy = 0.271<br/>samples = 43<br/>value = [41, 2]<br/>class = satisfied>, fillcolor="#e68743"] ;
613 -> 614 ;
615 [label=<entropy = 0.0<br/>samples = 36<br/>value = [36, 0]<br/>class = satisfied>, fillcolor="#e58139"] ;
614 -> 615 ;
616 [label=<Checkin service &le; 3.5<br/>entropy = 0.863<br/>samples = 7<br/>value = [5, 2]<br/>class = satisfied>, fillcolor="#efb388"] ;
614 -> 616 ;
617 [label=<entropy = 0.0<br/>samples = 4<br/>value = [4, 0]<br/>class = satisfied>, fillcolor="#e58139"] ;
616 -> 617 ;
618 [label=<Cleanliness &le; 3.5<br/>entropy = 0.918<br/>samples = 3<br/>value = [1, 2]<br/>class = dissatisfied>, fillcolor="#9ccef2"] ;
616 -> 618 ;
619 [label=<entropy = 0.0<br/>samples = 1<br/>value = [1, 0]<br/>class = satisfied>, fillcolor="#e58139"] ;
618 -> 619 ;
620 [label=<entropy = 0.0<br/>samples = 2<br/>value = [0, 2]<br/>class = dissatisfied>, fillcolor="#399de5"] ;
618 -> 620 ;
621 [label=<entropy = 0.0<br/>samples = 101<br/>value = [101, 0]<br/>class = satisfied>, fillcolor="#e58139"] ;
613 -> 621 ;
622 [label=<Leg room service &le; 4.5<br/>entropy = 0.722<br/>samples = 10<br/>value = [8, 2]<br/>class = satisfied>, fillcolor="#eca06a"] ;
612 -> 622 ;
623 [label=<entropy = 0.0<br/>samples = 8<br/>value = [8, 0]<br/>class = satisfied>, fillcolor="#e58139"] ;
622 -> 623 ;
624 [label=<entropy = 0.0<br/>samples = 2<br/>value = [0, 2]<br/>class = dissatisfied>, fillcolor="#399de5"] ;
622 -> 624 ;
625 [label=<Age &le; 33.0<br/>entropy = 0.944<br/>samples = 36<br/>value = [23, 13]<br/>class = satisfied>, fillcolor="#f4c8a9"] ;
377 -> 625 ;
626 [label=<entropy = 0.0<br/>samples = 9<br/>value = [0, 9]<br/>class = dissatisfied>, fillcolor="#399de5"] ;
625 -> 626 ;
627 [label=<Online support &le; 4.5<br/>entropy = 0.605<br/>samples = 27<br/>value = [23, 4]<br/>class = satisfied>, fillcolor="#ea975b"] ;
625 -> 627 ;
628 [label=<entropy = 0.0<br/>samples = 23<br/>value = [23, 0]<br/>class = satisfied>, fillcolor="#e58139"] ;
627 -> 628 ;
629 [label=<entropy = 0.0<br/>samples = 4<br/>value = [0, 4]<br/>class = dissatisfied>, fillcolor="#399de5"] ;
627 -> 629 ;
630 [label=<Type of Travel &le; 0.5<br/>entropy = 0.997<br/>samples = 77<br/>value = [41, 36]<br/>class = satisfied>, fillcolor="#fcf0e7"] ;
376 -> 630 ;
631 [label=<Cleanliness &le; 3.5<br/>entropy = 0.187<br/>samples = 35<br/>value = [1, 34]<br/>class = dissatisfied>, fillcolor="#3fa0e6"] ;
630 -> 631 ;
632 [label=<entropy = 0.0<br/>samples = 34<br/>value = [0, 34]<br/>class = dissatisfied>, fillcolor="#399de5"] ;
631 -> 632 ;
633 [label=<entropy = 0.0<br/>samples = 1<br/>value = [1, 0]<br/>class = satisfied>, fillcolor="#e58139"] ;
631 -> 633 ;
634 [label=<Arrival Delay in Minutes &le; 18.0<br/>entropy = 0.276<br/>samples = 42<br/>value = [40, 2]<br/>class = satisfied>, fillcolor="#e68743"] ;
630 -> 634 ;
635 [label=<entropy = 0.0<br/>samples = 34<br/>value = [34, 0]<br/>class = satisfied>, fillcolor="#e58139"] ;
634 -> 635 ;
636 [label=<Age &le; 38.5<br/>entropy = 0.811<br/>samples = 8<br/>value = [6, 2]<br/>class = satisfied>, fillcolor="#eeab7b"] ;
634 -> 636 ;
637 [label=<entropy = 0.0<br/>samples = 1<br/>value = [0, 1]<br/>class = dissatisfied>, fillcolor="#399de5"] ;
636 -> 637 ;
638 [label=<Inflight entertainment &le; 1.5<br/>entropy = 0.592<br/>samples = 7<br/>value = [6, 1]<br/>class = satisfied>, fillcolor="#e9965a"] ;
636 -> 638 ;
639 [label=<entropy = 0.0<br/>samples = 1<br/>value = [0, 1]<br/>class = dissatisfied>, fillcolor="#399de5"] ;
638 -> 639 ;
640 [label=<entropy = 0.0<br/>samples = 6<br/>value = [6, 0]<br/>class = satisfied>, fillcolor="#e58139"] ;
638 -> 640 ;
641 [label=<Type of Travel &le; 0.5<br/>entropy = 0.096<br/>samples = 730<br/>value = [721, 9]<br/>class = satisfied>, fillcolor="#e5833b"] ;
375 -> 641 ;
642 [label=<Online boarding &le; 3.5<br/>entropy = 0.03<br/>samples = 665<br/>value = [663, 2]<br/>class = satisfied>, fillcolor="#e5813a"] ;
641 -> 642 ;
643 [label=<Flight Distance &le; 1493.0<br/>entropy = 0.323<br/>samples = 17<br/>value = [16, 1]<br/>class = satisfied>, fillcolor="#e78945"] ;
642 -> 643 ;
644 [label=<entropy = 0.0<br/>samples = 1<br/>value = [0, 1]<br/>class = dissatisfied>, fillcolor="#399de5"] ;
643 -> 644 ;
645 [label=<entropy = 0.0<br/>samples = 16<br/>value = [16, 0]<br/>class = satisfied>, fillcolor="#e58139"] ;
643 -> 645 ;
646 [label=<Departure Delay in Minutes &le; 46.5<br/>entropy = 0.017<br/>samples = 648<br/>value = [647, 1]<br/>class = satisfied>, fillcolor="#e58139"] ;
642 -> 646 ;
647 [label=<entropy = 0.0<br/>samples = 603<br/>value = [603, 0]<br/>class = satisfied>, fillcolor="#e58139"] ;
646 -> 647 ;
648 [label=<Departure Delay in Minutes &le; 47.5<br/>entropy = 0.154<br/>samples = 45<br/>value = [44, 1]<br/>class = satisfied>, fillcolor="#e6843d"] ;
646 -> 648 ;
649 [label=<Flight Distance &le; 2251.5<br/>entropy = 1.0<br/>samples = 2<br/>value = [1, 1]<br/>class = satisfied>, fillcolor="#ffffff"] ;
648 -> 649 ;
650 [label=<entropy = 0.0<br/>samples = 1<br/>value = [1, 0]<br/>class = satisfied>, fillcolor="#e58139"] ;
649 -> 650 ;
651 [label=<entropy = 0.0<br/>samples = 1<br/>value = [0, 1]<br/>class = dissatisfied>, fillcolor="#399de5"] ;
649 -> 651 ;
652 [label=<entropy = 0.0<br/>samples = 43<br/>value = [43, 0]<br/>class = satisfied>, fillcolor="#e58139"] ;
648 -> 652 ;
653 [label=<Inflight entertainment &le; 2.5<br/>entropy = 0.493<br/>samples = 65<br/>value = [58, 7]<br/>class = satisfied>, fillcolor="#e89051"] ;
641 -> 653 ;
654 [label=<entropy = 0.0<br/>samples = 26<br/>value = [26, 0]<br/>class = satisfied>, fillcolor="#e58139"] ;
653 -> 654 ;
655 [label=<Age &le; 53.0<br/>entropy = 0.679<br/>samples = 39<br/>value = [32, 7]<br/>class = satisfied>, fillcolor="#eb9d64"] ;
653 -> 655 ;
656 [label=<Baggage handling &le; 2.5<br/>entropy = 0.84<br/>samples = 26<br/>value = [19, 7]<br/>class = satisfied>, fillcolor="#efaf82"] ;
655 -> 656 ;
657 [label=<On-board service &le; 2.5<br/>entropy = 0.722<br/>samples = 5<br/>value = [1, 4]<br/>class = dissatisfied>, fillcolor="#6ab6ec"] ;
656 -> 657 ;
658 [label=<entropy = 0.0<br/>samples = 3<br/>value = [0, 3]<br/>class = dissatisfied>, fillcolor="#399de5"] ;
657 -> 658 ;
659 [label=<Online boarding &le; 3.5<br/>entropy = 1.0<br/>samples = 2<br/>value = [1, 1]<br/>class = satisfied>, fillcolor="#ffffff"] ;
657 -> 659 ;
660 [label=<entropy = 0.0<br/>samples = 1<br/>value = [1, 0]<br/>class = satisfied>, fillcolor="#e58139"] ;
659 -> 660 ;
661 [label=<entropy = 0.0<br/>samples = 1<br/>value = [0, 1]<br/>class = dissatisfied>, fillcolor="#399de5"] ;
659 -> 661 ;
662 [label=<Arrival Delay in Minutes &le; 15.5<br/>entropy = 0.592<br/>samples = 21<br/>value = [18, 3]<br/>class = satisfied>, fillcolor="#e9965a"] ;
656 -> 662 ;
663 [label=<Arrival Delay in Minutes &le; 5.0<br/>entropy = 0.845<br/>samples = 11<br/>value = [8, 3]<br/>class = satisfied>, fillcolor="#efb083"] ;
662 -> 663 ;
664 [label=<Food and drink &le; 4.5<br/>entropy = 0.503<br/>samples = 9<br/>value = [8, 1]<br/>class = satisfied>, fillcolor="#e89152"] ;
663 -> 664 ;
665 [label=<entropy = 0.0<br/>samples = 8<br/>value = [8, 0]<br/>class = satisfied>, fillcolor="#e58139"] ;
664 -> 665 ;
666 [label=<entropy = 0.0<br/>samples = 1<br/>value = [0, 1]<br/>class = dissatisfied>, fillcolor="#399de5"] ;
664 -> 666 ;
667 [label=<entropy = 0.0<br/>samples = 2<br/>value = [0, 2]<br/>class = dissatisfied>, fillcolor="#399de5"] ;
663 -> 667 ;
668 [label=<entropy = 0.0<br/>samples = 10<br/>value = [10, 0]<br/>class = satisfied>, fillcolor="#e58139"] ;
662 -> 668 ;
669 [label=<entropy = 0.0<br/>samples = 13<br/>value = [13, 0]<br/>class = satisfied>, fillcolor="#e58139"] ;
655 -> 669 ;
670 [label=<Type of Travel &le; 0.5<br/>entropy = 0.935<br/>samples = 77<br/>value = [50, 27]<br/>class = satisfied>, fillcolor="#f3c5a4"] ;
374 -> 670 ;
671 [label=<Online boarding &le; 3.5<br/>entropy = 0.537<br/>samples = 57<br/>value = [50, 7]<br/>class = satisfied>, fillcolor="#e99355"] ;
670 -> 671 ;
672 [label=<Flight Distance &le; 1172.5<br/>entropy = 0.7<br/>samples = 37<br/>value = [30, 7]<br/>class = satisfied>, fillcolor="#eb9e67"] ;
671 -> 672 ;
673 [label=<entropy = 0.0<br/>samples = 2<br/>value = [0, 2]<br/>class = dissatisfied>, fillcolor="#399de5"] ;
672 -> 673 ;
674 [label=<Leg room service &le; 3.5<br/>entropy = 0.592<br/>samples = 35<br/>value = [30, 5]<br/>class = satisfied>, fillcolor="#e9965a"] ;
672 -> 674 ;
675 [label=<Flight Distance &le; 4036.0<br/>entropy = 0.25<br/>samples = 24<br/>value = [23, 1]<br/>class = satisfied>, fillcolor="#e68642"] ;
674 -> 675 ;
676 [label=<entropy = 0.0<br/>samples = 23<br/>value = [23, 0]<br/>class = satisfied>, fillcolor="#e58139"] ;
675 -> 676 ;
677 [label=<entropy = 0.0<br/>samples = 1<br/>value = [0, 1]<br/>class = dissatisfied>, fillcolor="#399de5"] ;
675 -> 677 ;
678 [label=<Flight Distance &le; 1791.0<br/>entropy = 0.946<br/>samples = 11<br/>value = [7, 4]<br/>class = satisfied>, fillcolor="#f4c9aa"] ;
674 -> 678 ;
679 [label=<entropy = 0.0<br/>samples = 5<br/>value = [5, 0]<br/>class = satisfied>, fillcolor="#e58139"] ;
678 -> 679 ;
680 [label=<Ease of Online booking &le; 2.5<br/>entropy = 0.918<br/>samples = 6<br/>value = [2, 4]<br/>class = dissatisfied>, fillcolor="#9ccef2"] ;
678 -> 680 ;
681 [label=<Food and drink &le; 2.5<br/>entropy = 0.918<br/>samples = 3<br/>value = [2, 1]<br/>class = satisfied>, fillcolor="#f2c09c"] ;
680 -> 681 ;
682 [label=<entropy = 0.0<br/>samples = 2<br/>value = [2, 0]<br/>class = satisfied>, fillcolor="#e58139"] ;
681 -> 682 ;
683 [label=<entropy = 0.0<br/>samples = 1<br/>value = [0, 1]<br/>class = dissatisfied>, fillcolor="#399de5"] ;
681 -> 683 ;
684 [label=<entropy = 0.0<br/>samples = 3<br/>value = [0, 3]<br/>class = dissatisfied>, fillcolor="#399de5"] ;
680 -> 684 ;
685 [label=<entropy = 0.0<br/>samples = 20<br/>value = [20, 0]<br/>class = satisfied>, fillcolor="#e58139"] ;
671 -> 685 ;
686 [label=<entropy = 0.0<br/>samples = 20<br/>value = [0, 20]<br/>class = dissatisfied>, fillcolor="#399de5"] ;
670 -> 686 ;
687 [label=<Baggage handling &le; 3.5<br/>entropy = 0.641<br/>samples = 1321<br/>value = [1106, 215]<br/>class = satisfied>, fillcolor="#ea995f"] ;
373 -> 687 ;
688 [label=<On-board service &le; 4.5<br/>entropy = 0.289<br/>samples = 770<br/>value = [731, 39]<br/>class = satisfied>, fillcolor="#e68844"] ;
687 -> 688 ;
689 [label=<Arrival Delay in Minutes &le; 2.5<br/>entropy = 0.177<br/>samples = 679<br/>value = [661, 18]<br/>class = satisfied>, fillcolor="#e6843e"] ;
688 -> 689 ;
690 [label=<Age &le; 52.5<br/>entropy = 0.266<br/>samples = 376<br/>value = [359, 17]<br/>class = satisfied>, fillcolor="#e68742"] ;
689 -> 690 ;
691 [label=<Type of Travel &le; 0.5<br/>entropy = 0.32<br/>samples = 293<br/>value = [276, 17]<br/>class = satisfied>, fillcolor="#e78945"] ;
690 -> 691 ;
692 [label=<Age &le; 19.5<br/>entropy = 0.169<br/>samples = 160<br/>value = [156, 4]<br/>class = satisfied>, fillcolor="#e6843e"] ;
691 -> 692 ;
693 [label=<Online boarding &le; 3.5<br/>entropy = 0.408<br/>samples = 49<br/>value = [45.0, 4.0]<br/>class = satisfied>, fillcolor="#e78c4b"] ;
692 -> 693 ;
694 [label=<Online support &le; 2.5<br/>entropy = 0.667<br/>samples = 23<br/>value = [19, 4]<br/>class = satisfied>, fillcolor="#ea9c63"] ;
693 -> 694 ;
695 [label=<entropy = 0.0<br/>samples = 11<br/>value = [11, 0]<br/>class = satisfied>, fillcolor="#e58139"] ;
694 -> 695 ;
696 [label=<Baggage handling &le; 2.5<br/>entropy = 0.918<br/>samples = 12<br/>value = [8, 4]<br/>class = satisfied>, fillcolor="#f2c09c"] ;
694 -> 696 ;
697 [label=<entropy = 0.0<br/>samples = 5<br/>value = [5, 0]<br/>class = satisfied>, fillcolor="#e58139"] ;
696 -> 697 ;
698 [label=<Cleanliness &le; 2.5<br/>entropy = 0.985<br/>samples = 7<br/>value = [3, 4]<br/>class = dissatisfied>, fillcolor="#cee6f8"] ;
696 -> 698 ;
699 [label=<Gate location &le; 2.0<br/>entropy = 0.811<br/>samples = 4<br/>value = [3, 1]<br/>class = satisfied>, fillcolor="#eeab7b"] ;
698 -> 699 ;
700 [label=<entropy = 0.0<br/>samples = 1<br/>value = [0, 1]<br/>class = dissatisfied>, fillcolor="#399de5"] ;
699 -> 700 ;
701 [label=<entropy = 0.0<br/>samples = 3<br/>value = [3, 0]<br/>class = satisfied>, fillcolor="#e58139"] ;
699 -> 701 ;
702 [label=<entropy = 0.0<br/>samples = 3<br/>value = [0, 3]<br/>class = dissatisfied>, fillcolor="#399de5"] ;
698 -> 702 ;
703 [label=<entropy = 0.0<br/>samples = 26<br/>value = [26, 0]<br/>class = satisfied>, fillcolor="#e58139"] ;
693 -> 703 ;
704 [label=<entropy = 0.0<br/>samples = 111<br/>value = [111, 0]<br/>class = satisfied>, fillcolor="#e58139"] ;
692 -> 704 ;
705 [label=<Age &le; 35.5<br/>entropy = 0.462<br/>samples = 133<br/>value = [120, 13]<br/>class = satisfied>, fillcolor="#e88f4e"] ;
691 -> 705 ;
706 [label=<entropy = 0.0<br/>samples = 54<br/>value = [54, 0]<br/>class = satisfied>, fillcolor="#e58139"] ;
705 -> 706 ;
707 [label=<Cleanliness &le; 1.5<br/>entropy = 0.645<br/>samples = 79<br/>value = [66, 13]<br/>class = satisfied>, fillcolor="#ea9a60"] ;
705 -> 707 ;
708 [label=<entropy = 0.0<br/>samples = 2<br/>value = [0, 2]<br/>class = dissatisfied>, fillcolor="#399de5"] ;
707 -> 708 ;
709 [label=<Baggage handling &le; 1.5<br/>entropy = 0.592<br/>samples = 77<br/>value = [66, 11]<br/>class = satisfied>, fillcolor="#e9965a"] ;
707 -> 709 ;
710 [label=<Departure Delay in Minutes &le; 0.5<br/>entropy = 0.811<br/>samples = 4<br/>value = [1, 3]<br/>class = dissatisfied>, fillcolor="#7bbeee"] ;
709 -> 710 ;
711 [label=<entropy = 0.0<br/>samples = 3<br/>value = [0, 3]<br/>class = dissatisfied>, fillcolor="#399de5"] ;
710 -> 711 ;
712 [label=<entropy = 0.0<br/>samples = 1<br/>value = [1, 0]<br/>class = satisfied>, fillcolor="#e58139"] ;
710 -> 712 ;
713 [label=<Online support &le; 2.5<br/>entropy = 0.499<br/>samples = 73<br/>value = [65, 8]<br/>class = satisfied>, fillcolor="#e89151"] ;
709 -> 713 ;
714 [label=<Age &le; 38.5<br/>entropy = 0.736<br/>samples = 29<br/>value = [23, 6]<br/>class = satisfied>, fillcolor="#eca26d"] ;
713 -> 714 ;
715 [label=<entropy = 0.0<br/>samples = 7<br/>value = [7, 0]<br/>class = satisfied>, fillcolor="#e58139"] ;
714 -> 715 ;
716 [label=<Flight Distance &le; 1378.0<br/>entropy = 0.845<br/>samples = 22<br/>value = [16, 6]<br/>class = satisfied>, fillcolor="#efb083"] ;
714 -> 716 ;
