digraph Tree {
node [shape=box, style="filled, rounded", color="black", fontname="helvetica"] ;
edge [fontname="helvetica"] ;
0 [label=<Inflight entertainment &le; 3.5<br/>entropy = 0.994<br/>samples = 103589<br/>value = [46894.0, 56695.0]<br/>class = dissatisfied>, fillcolor="#ddeefb"] ;
1 [label=<Seat comfort &le; 3.5<br/>entropy = 0.753<br/>samples = 46406<br/>value = [36376, 10030]<br/>class = satisfied>, fillcolor="#eca470"] ;
0 -> 1 [labeldistance=2.5, labelangle=45, headlabel="True"] ;
2 [label=<Seat comfort &le; 0.5<br/>entropy = 0.596<br/>samples = 40576<br/>value = [34708, 5868]<br/>class = satisfied>, fillcolor="#e9965a"] ;
1 -> 2 ;
3 [label=<Online boarding &le; 0.5<br/>entropy = 0.032<br/>samples = 2121<br/>value = [7, 2114]<br/>class = dissatisfied>, fillcolor="#3a9de5"] ;
2 -> 3 ;
4 [label=<entropy = 0.0<br/>samples = 7<br/>value = [7, 0]<br/>class = satisfied>, fillcolor="#e58139"] ;
3 -> 4 ;
5 [label=<entropy = 0.0<br/>samples = 2114<br/>value = [0, 2114]<br/>class = dissatisfied>, fillcolor="#399de5"] ;
3 -> 5 ;
6 [label=<Class &le; 2.5<br/>entropy = 0.461<br/>samples = 38455<br/>value = [34701, 3754]<br/>class = satisfied>, fillcolor="#e88f4e"] ;
2 -> 6 ;
7 [label=<Customer Type &le; 0.5<br/>entropy = 0.283<br/>samples = 26040<br/>value = [24759, 1281]<br/>class = satisfied>, fillcolor="#e68843"] ;
6 -> 7 ;
8 [label=<Flight Distance &le; 1961.5<br/>entropy = 0.046<br/>samples = 8388<br/>value = [8345, 43]<br/>class = satisfied>, fillcolor="#e5823a"] ;
7 -> 8 ;
9 [label=<Gate location &le; 2.5<br/>entropy = 0.011<br/>samples = 4334<br/>value = [4330, 4]<br/>class = satisfied>, fillcolor="#e58139"] ;
8 -> 9 ;
10 [label=<Checkin service &le; 3.5<br/>entropy = 0.035<br/>samples = 1075<br/>value = [1071, 4]<br/>class = satisfied>, fillcolor="#e5813a"] ;
9 -> 10 ;
11 [label=<entropy = 0.0<br/>samples = 655<br/>value = [655, 0]<br/>class = satisfied>, fillcolor="#e58139"] ;
10 -> 11 ;
12 [label=<Class &le; 1.5<br/>entropy = 0.078<br/>samples = 420<br/>value = [416, 4]<br/>class = satisfied>, fillcolor="#e5823b"] ;
10 -> 12 ;
13 [label=<Age &le; 20.5<br/>entropy = 0.046<br/>samples = 393<br/>value = [391, 2]<br/>class = satisfied>, fillcolor="#e5823a"] ;
12 -> 13 ;
14 [label=<Flight Distance &le; 1852.0<br/>entropy = 0.271<br/>samples = 43<br/>value = [41, 2]<br/>class = satisfied>, fillcolor="#e68743"] ;
13 -> 14 ;
15 [label=<entropy = 0.0<br/>samples = 32<br/>value = [32, 0]<br/>class = satisfied>, fillcolor="#e58139"] ;
14 -> 15 ;
16 [label=<Flight Distance &le; 1879.5<br/>entropy = 0.684<br/>samples = 11<br/>value = [9, 2]<br/>class = satisfied>, fillcolor="#eb9d65"] ;
14 -> 16 ;
17 [label=<Seat comfort &le; 1.5<br/>entropy = 0.918<br/>samples = 3<br/>value = [1, 2]<br/>class = dissatisfied>, fillcolor="#9ccef2"] ;
16 -> 17 ;
18 [label=<entropy = 0.0<br/>samples = 1<br/>value = [1, 0]<br/>class = satisfied>, fillcolor="#e58139"] ;
17 -> 18 ;
19 [label=<entropy = 0.0<br/>samples = 2<br/>value = [0, 2]<br/>class = dissatisfied>, fillcolor="#399de5"] ;
17 -> 19 ;
20 [label=<entropy = 0.0<br/>samples = 8<br/>value = [8, 0]<br/>class = satisfied>, fillcolor="#e58139"] ;
16 -> 20 ;
21 [label=<entropy = 0.0<br/>samples = 350<br/>value = [350, 0]<br/>class = satisfied>, fillcolor="#e58139"] ;
13 -> 21 ;
22 [label=<Online support &le; 2.5<br/>entropy = 0.381<br/>samples = 27<br/>value = [25, 2]<br/>class = satisfied>, fillcolor="#e78b49"] ;
12 -> 22 ;
23 [label=<Leg room service &le; 3.5<br/>entropy = 0.863<br/>samples = 7<br/>value = [5, 2]<br/>class = satisfied>, fillcolor="#efb388"] ;
22 -> 23 ;
24 [label=<entropy = 0.0<br/>samples = 4<br/>value = [4, 0]<br/>class = satisfied>, fillcolor="#e58139"] ;
23 -> 24 ;
25 [label=<On-board service &le; 2.5<br/>entropy = 0.918<br/>samples = 3<br/>value = [1, 2]<br/>class = dissatisfied>, fillcolor="#9ccef2"] ;
23 -> 25 ;
26 [label=<entropy = 0.0<br/>samples = 1<br/>value = [1, 0]<br/>class = satisfied>, fillcolor="#e58139"] ;
25 -> 26 ;
27 [label=<entropy = 0.0<br/>samples = 2<br/>value = [0, 2]<br/>class = dissatisfied>, fillcolor="#399de5"] ;
25 -> 27 ;
28 [label=<entropy = 0.0<br/>samples = 20<br/>value = [20, 0]<br/>class = satisfied>, fillcolor="#e58139"] ;
22 -> 28 ;
29 [label=<entropy = 0.0<br/>samples = 3259<br/>value = [3259, 0]<br/>class = satisfied>, fillcolor="#e58139"] ;
9 -> 29 ;
30 [label=<Departure/Arrival time convenient &le; 1.5<br/>entropy = 0.078<br/>samples = 4054<br/>value = [4015, 39]<br/>class = satisfied>, fillcolor="#e5823b"] ;
8 -> 30 ;
31 [label=<entropy = 0.0<br/>samples = 1142<br/>value = [1142, 0]<br/>class = satisfied>, fillcolor="#e58139"] ;
30 -> 31 ;
32 [label=<Cleanliness &le; 4.5<br/>entropy = 0.103<br/>samples = 2912<br/>value = [2873, 39]<br/>class = satisfied>, fillcolor="#e5833c"] ;
30 -> 32 ;
33 [label=<Age &le; 24.5<br/>entropy = 0.071<br/>samples = 2556<br/>value = [2534, 22]<br/>class = satisfied>, fillcolor="#e5823b"] ;
32 -> 33 ;
34 [label=<Arrival Delay in Minutes &le; 17.5<br/>entropy = 0.13<br/>samples = 1060<br/>value = [1041, 19]<br/>class = satisfied>, fillcolor="#e5833d"] ;
33 -> 34 ;
35 [label=<Checkin service &le; 1.5<br/>entropy = 0.169<br/>samples = 758<br/>value = [739, 19]<br/>class = satisfied>, fillcolor="#e6843e"] ;
34 -> 35 ;
36 [label=<entropy = 0.0<br/>samples = 149<br/>value = [149, 0]<br/>class = satisfied>, fillcolor="#e58139"] ;
35 -> 36 ;
37 [label=<Leg room service &le; 2.5<br/>entropy = 0.2<br/>samples = 609<br/>value = [590, 19]<br/>class = satisfied>, fillcolor="#e6853f"] ;
35 -> 37 ;
38 [label=<Cleanliness &le; 2.5<br/>entropy = 0.072<br/>samples = 229<br/>value = [227, 2]<br/>class = satisfied>, fillcolor="#e5823b"] ;
37 -> 38 ;
39 [label=<Flight Distance &le; 2571.0<br/>entropy = 0.316<br/>samples = 35<br/>value = [33, 2]<br/>class = satisfied>, fillcolor="#e78945"] ;
38 -> 39 ;
40 [label=<entropy = 0.0<br/>samples = 25<br/>value = [25, 0]<br/>class = satisfied>, fillcolor="#e58139"] ;
39 -> 40 ;
41 [label=<Gate location &le; 1.5<br/>entropy = 0.722<br/>samples = 10<br/>value = [8, 2]<br/>class = satisfied>, fillcolor="#eca06a"] ;
39 -> 41 ;
42 [label=<entropy = 0.0<br/>samples = 1<br/>value = [0, 1]<br/>class = dissatisfied>, fillcolor="#399de5"] ;
41 -> 42 ;
43 [label=<Ease of Online booking &le; 1.5<br/>entropy = 0.503<br/>samples = 9<br/>value = [8, 1]<br/>class = satisfied>, fillcolor="#e89152"] ;
41 -> 43 ;
44 [label=<entropy = 0.0<br/>samples = 1<br/>value = [0, 1]<br/>class = dissatisfied>, fillcolor="#399de5"] ;
43 -> 44 ;
45 [label=<entropy = 0.0<br/>samples = 8<br/>value = [8, 0]<br/>class = satisfied>, fillcolor="#e58139"] ;
43 -> 45 ;
46 [label=<entropy = 0.0<br/>samples = 194<br/>value = [194, 0]<br/>class = satisfied>, fillcolor="#e58139"] ;
38 -> 46 ;
47 [label=<On-board service &le; 2.5<br/>entropy = 0.264<br/>samples = 380<br/>value = [363, 17]<br/>class = satisfied>, fillcolor="#e68742"] ;
37 -> 47 ;
48 [label=<Online support &le; 4.5<br/>entropy = 0.067<br/>samples = 125<br/>value = [124, 1]<br/>class = satisfied>, fillcolor="#e5823b"] ;
47 -> 48 ;
49 [label=<entropy = 0.0<br/>samples = 99<br/>value = [99, 0]<br/>class = satisfied>, fillcolor="#e58139"] ;
48 -> 49 ;
50 [label=<Baggage handling &le; 3.5<br/>entropy = 0.235<br/>samples = 26<br/>value = [25, 1]<br/>class = satisfied>, fillcolor="#e68641"] ;
48 -> 50 ;
51 [label=<entropy = 0.0<br/>samples = 17<br/>value = [17, 0]<br/>class = satisfied>, fillcolor="#e58139"] ;
50 -> 51 ;
52 [label=<Checkin service &le; 2.5<br/>entropy = 0.503<br/>samples = 9<br/>value = [8, 1]<br/>class = satisfied>, fillcolor="#e89152"] ;
50 -> 52 ;
53 [label=<Cleanliness &le; 2.5<br/>entropy = 1.0<br/>samples = 2<br/>value = [1, 1]<br/>class = satisfied>, fillcolor="#ffffff"] ;
52 -> 53 ;
54 [label=<entropy = 0.0<br/>samples = 1<br/>value = [1, 0]<br/>class = satisfied>, fillcolor="#e58139"] ;
53 -> 54 ;
55 [label=<entropy = 0.0<br/>samples = 1<br/>value = [0, 1]<br/>class = dissatisfied>, fillcolor="#399de5"] ;
53 -> 55 ;
56 [label=<entropy = 0.0<br/>samples = 7<br/>value = [7, 0]<br/>class = satisfied>, fillcolor="#e58139"] ;
52 -> 56 ;
57 [label=<Flight Distance &le; 2525.5<br/>entropy = 0.338<br/>samples = 255<br/>value = [239, 16]<br/>class = satisfied>, fillcolor="#e78946"] ;
47 -> 57 ;
58 [label=<Checkin service &le; 4.5<br/>entropy = 0.232<br/>samples = 185<br/>value = [178, 7]<br/>class = satisfied>, fillcolor="#e68641"] ;
57 -> 58 ;
59 [label=<Departure Delay in Minutes &le; 24.5<br/>entropy = 0.136<br/>samples = 157<br/>value = [154, 3]<br/>class = satisfied>, fillcolor="#e6833d"] ;
58 -> 59 ;
60 [label=<Baggage handling &le; 1.5<br/>entropy = 0.099<br/>samples = 156<br/>value = [154, 2]<br/>class = satisfied>, fillcolor="#e5833c"] ;
59 -> 60 ;
61 [label=<Leg room service &le; 4.5<br/>entropy = 0.592<br/>samples = 7<br/>value = [6, 1]<br/>class = satisfied>, fillcolor="#e9965a"] ;
60 -> 61 ;
62 [label=<entropy = 0.0<br/>samples = 5<br/>value = [5, 0]<br/>class = satisfied>, fillcolor="#e58139"] ;
61 -> 62 ;
63 [label=<Checkin service &le; 3.5<br/>entropy = 1.0<br/>samples = 2<br/>value = [1, 1]<br/>class = satisfied>, fillcolor="#ffffff"] ;
61 -> 63 ;
64 [label=<entropy = 0.0<br/>samples = 1<br/>value = [1, 0]<br/>class = satisfied>, fillcolor="#e58139"] ;
63 -> 64 ;
65 [label=<entropy = 0.0<br/>samples = 1<br/>value = [0, 1]<br/>class = dissatisfied>, fillcolor="#399de5"] ;
63 -> 65 ;
66 [label=<On-board service &le; 4.5<br/>entropy = 0.058<br/>samples = 149<br/>value = [148, 1]<br/>class = satisfied>, fillcolor="#e5823a"] ;
60 -> 66 ;
67 [label=<entropy = 0.0<br/>samples = 127<br/>value = [127, 0]<br/>class = satisfied>, fillcolor="#e58139"] ;
66 -> 67 ;
68 [label=<Flight Distance &le; 2060.0<br/>entropy = 0.267<br/>samples = 22<br/>value = [21, 1]<br/>class = satisfied>, fillcolor="#e68742"] ;
66 -> 68 ;
69 [label=<Online boarding &le; 2.5<br/>entropy = 0.722<br/>samples = 5<br/>value = [4, 1]<br/>class = satisfied>, fillcolor="#eca06a"] ;
68 -> 69 ;
70 [label=<entropy = 0.0<br/>samples = 4<br/>value = [4, 0]<br/>class = satisfied>, fillcolor="#e58139"] ;
69 -> 70 ;
71 [label=<entropy = 0.0<br/>samples = 1<br/>value = [0, 1]<br/>class = dissatisfied>, fillcolor="#399de5"] ;
69 -> 71 ;
72 [label=<entropy = 0.0<br/>samples = 17<br/>value = [17, 0]<br/>class = satisfied>, fillcolor="#e58139"] ;
68 -> 72 ;
73 [label=<entropy = 0.0<br/>samples = 1<br/>value = [0, 1]<br/>class = dissatisfied>, fillcolor="#399de5"] ;
59 -> 73 ;
74 [label=<Flight Distance &le; 2278.5<br/>entropy = 0.592<br/>samples = 28<br/>value = [24, 4]<br/>class = satisfied>, fillcolor="#e9965a"] ;
58 -> 74 ;
75 [label=<Baggage handling &le; 3.0<br/>entropy = 0.742<br/>samples = 19<br/>value = [15, 4]<br/>class = satisfied>, fillcolor="#eca36e"] ;
74 -> 75 ;
76 [label=<entropy = 0.0<br/>samples = 1<br/>value = [0, 1]<br/>class = dissatisfied>, fillcolor="#399de5"] ;
75 -> 76 ;
77 [label=<Departure/Arrival time convenient &le; 2.5<br/>entropy = 0.65<br/>samples = 18<br/>value = [15, 3]<br/>class = satisfied>, fillcolor="#ea9a61"] ;
75 -> 77 ;
78 [label=<Age &le; 20.5<br/>entropy = 0.845<br/>samples = 11<br/>value = [8, 3]<br/>class = satisfied>, fillcolor="#efb083"] ;
77 -> 78 ;
79 [label=<entropy = 0.0<br/>samples = 4<br/>value = [4, 0]<br/>class = satisfied>, fillcolor="#e58139"] ;
78 -> 79 ;
80 [label=<Leg room service &le; 3.5<br/>entropy = 0.985<br/>samples = 7<br/>value = [4, 3]<br/>class = satisfied>, fillcolor="#f8e0ce"] ;
78 -> 80 ;
81 [label=<entropy = 0.0<br/>samples = 3<br/>value = [3, 0]<br/>class = satisfied>, fillcolor="#e58139"] ;
80 -> 81 ;
82 [label=<Cleanliness &le; 3.0<br/>entropy = 0.811<br/>samples = 4<br/>value = [1, 3]<br/>class = dissatisfied>, fillcolor="#7bbeee"] ;
80 -> 82 ;
83 [label=<entropy = 0.0<br/>samples = 1<br/>value = [1, 0]<br/>class = satisfied>, fillcolor="#e58139"] ;
82 -> 83 ;
84 [label=<entropy = 0.0<br/>samples = 3<br/>value = [0, 3]<br/>class = dissatisfied>, fillcolor="#399de5"] ;
82 -> 84 ;
85 [label=<entropy = 0.0<br/>samples = 7<br/>value = [7, 0]<br/>class = satisfied>, fillcolor="#e58139"] ;
77 -> 85 ;
86 [label=<entropy = 0.0<br/>samples = 9<br/>value = [9, 0]<br/>class = satisfied>, fillcolor="#e58139"] ;
74 -> 86 ;
87 [label=<Arrival Delay in Minutes &le; 16.5<br/>entropy = 0.554<br/>samples = 70<br/>value = [61, 9]<br/>class = satisfied>, fillcolor="#e99456"] ;
57 -> 87 ;
88 [label=<Flight Distance &le; 2531.5<br/>entropy = 0.518<br/>samples = 69<br/>value = [61, 8]<br/>class = satisfied>, fillcolor="#e89253"] ;
87 -> 88 ;
89 [label=<entropy = 0.0<br/>samples = 1<br/>value = [0, 1]<br/>class = dissatisfied>, fillcolor="#399de5"] ;
88 -> 89 ;
90 [label=<Online support &le; 2.5<br/>entropy = 0.478<br/>samples = 68<br/>value = [61, 7]<br/>class = satisfied>, fillcolor="#e88f50"] ;
88 -> 90 ;
91 [label=<On-board service &le; 4.5<br/>entropy = 0.216<br/>samples = 29<br/>value = [28, 1]<br/>class = satisfied>, fillcolor="#e68640"] ;
90 -> 91 ;
92 [label=<entropy = 0.0<br/>samples = 23<br/>value = [23, 0]<br/>class = satisfied>, fillcolor="#e58139"] ;
91 -> 92 ;
93 [label=<Gate location &le; 3.5<br/>entropy = 0.65<br/>samples = 6<br/>value = [5, 1]<br/>class = satisfied>, fillcolor="#ea9a61"] ;
91 -> 93 ;
94 [label=<entropy = 0.0<br/>samples = 4<br/>value = [4, 0]<br/>class = satisfied>, fillcolor="#e58139"] ;
93 -> 94 ;
95 [label=<Seat comfort &le; 2.5<br/>entropy = 1.0<br/>samples = 2<br/>value = [1, 1]<br/>class = satisfied>, fillcolor="#ffffff"] ;
93 -> 95 ;
96 [label=<entropy = 0.0<br/>samples = 1<br/>value = [0, 1]<br/>class = dissatisfied>, fillcolor="#399de5"] ;
95 -> 96 ;
97 [label=<entropy = 0.0<br/>samples = 1<br/>value = [1, 0]<br/>class = satisfied>, fillcolor="#e58139"] ;
95 -> 97 ;
98 [label=<Age &le; 22.5<br/>entropy = 0.619<br/>samples = 39<br/>value = [33, 6]<br/>class = satisfied>, fillcolor="#ea985d"] ;
90 -> 98 ;
99 [label=<Baggage handling &le; 4.5<br/>entropy = 0.439<br/>samples = 33<br/>value = [30, 3]<br/>class = satisfied>, fillcolor="#e88e4d"] ;
98 -> 99 ;
100 [label=<entropy = 0.0<br/>samples = 21<br/>value = [21, 0]<br/>class = satisfied>, fillcolor="#e58139"] ;
99 -> 100 ;
101 [label=<Checkin service &le; 4.5<br/>entropy = 0.811<br/>samples = 12<br/>value = [9, 3]<br/>class = satisfied>, fillcolor="#eeab7b"] ;
99 -> 101 ;
102 [label=<Gate location &le; 4.5<br/>entropy = 0.985<br/>samples = 7<br/>value = [4, 3]<br/>class = satisfied>, fillcolor="#f8e0ce"] ;
101 -> 102 ;
103 [label=<Checkin service &le; 3.5<br/>entropy = 0.918<br/>samples = 6<br/>value = [4, 2]<br/>class = satisfied>, fillcolor="#f2c09c"] ;
102 -> 103 ;
104 [label=<entropy = 0.0<br/>samples = 3<br/>value = [3, 0]<br/>class = satisfied>, fillcolor="#e58139"] ;
103 -> 104 ;
105 [label=<Inflight entertainment &le; 1.5<br/>entropy = 0.918<br/>samples = 3<br/>value = [1, 2]<br/>class = dissatisfied>, fillcolor="#9ccef2"] ;
103 -> 105 ;
106 [label=<entropy = 0.0<br/>samples = 1<br/>value = [1, 0]<br/>class = satisfied>, fillcolor="#e58139"] ;
105 -> 106 ;
107 [label=<entropy = 0.0<br/>samples = 2<br/>value = [0, 2]<br/>class = dissatisfied>, fillcolor="#399de5"] ;
105 -> 107 ;
108 [label=<entropy = 0.0<br/>samples = 1<br/>value = [0, 1]<br/>class = dissatisfied>, fillcolor="#399de5"] ;
102 -> 108 ;
109 [label=<entropy = 0.0<br/>samples = 5<br/>value = [5, 0]<br/>class = satisfied>, fillcolor="#e58139"] ;
101 -> 109 ;
110 [label=<Flight Distance &le; 2614.0<br/>entropy = 1.0<br/>samples = 6<br/>value = [3, 3]<br/>class = satisfied>, fillcolor="#ffffff"] ;
98 -> 110 ;
111 [label=<entropy = 0.0<br/>samples = 1<br/>value = [0, 1]<br/>class = dissatisfied>, fillcolor="#399de5"] ;
110 -> 111 ;
112 [label=<Baggage handling &le; 3.5<br/>entropy = 0.971<br/>samples = 5<br/>value = [3, 2]<br/>class = satisfied>, fillcolor="#f6d5bd"] ;
110 -> 112 ;
113 [label=<Inflight wifi service &le; 4.5<br/>entropy = 0.918<br/>samples = 3<br/>value = [1, 2]<br/>class = dissatisfied>, fillcolor="#9ccef2"] ;
112 -> 113 ;
114 [label=<entropy = 0.0<br/>samples = 2<br/>value = [0, 2]<br/>class = dissatisfied>, fillcolor="#399de5"] ;
113 -> 114 ;
115 [label=<entropy = 0.0<br/>samples = 1<br/>value = [1, 0]<br/>class = satisfied>, fillcolor="#e58139"] ;
113 -> 115 ;
116 [label=<entropy = 0.0<br/>samples = 2<br/>value = [2, 0]<br/>class = satisfied>, fillcolor="#e58139"] ;
112 -> 116 ;
117 [label=<entropy = 0.0<br/>samples = 1<br/>value = [0, 1]<br/>class = dissatisfied>, fillcolor="#399de5"] ;
87 -> 117 ;
118 [label=<entropy = 0.0<br/>samples = 302<br/>value = [302, 0]<br/>class = satisfied>, fillcolor="#e58139"] ;
34 -> 118 ;
119 [label=<Checkin service &le; 4.5<br/>entropy = 0.021<br/>samples = 1496<br/>value = [1493.0, 3.0]<br/>class = satisfied>, fillcolor="#e58139"] ;
33 -> 119 ;
120 [label=<Flight Distance &le; 1968.5<br/>entropy = 0.009<br/>samples = 1383<br/>value = [1382, 1]<br/>class = satisfied>, fillcolor="#e58139"] ;
119 -> 120 ;
121 [label=<Baggage handling &le; 4.5<br/>entropy = 0.286<br/>samples = 20<br/>value = [19, 1]<br/>class = satisfied>, fillcolor="#e68843"] ;
120 -> 121 ;
122 [label=<entropy = 0.0<br/>samples = 18<br/>value = [18, 0]<br/>class = satisfied>, fillcolor="#e58139"] ;
121 -> 122 ;
123 [label=<Online boarding &le; 4.0<br/>entropy = 1.0<br/>samples = 2<br/>value = [1, 1]<br/>class = satisfied>, fillcolor="#ffffff"] ;
121 -> 123 ;
124 [label=<entropy = 0.0<br/>samples = 1<br/>value = [1, 0]<br/>class = satisfied>, fillcolor="#e58139"] ;
123 -> 124 ;
125 [label=<entropy = 0.0<br/>samples = 1<br/>value = [0, 1]<br/>class = dissatisfied>, fillcolor="#399de5"] ;
123 -> 125 ;
126 [label=<entropy = 0.0<br/>samples = 1363<br/>value = [1363, 0]<br/>class = satisfied>, fillcolor="#e58139"] ;
120 -> 126 ;
127 [label=<Flight Distance &le; 2319.0<br/>entropy = 0.128<br/>samples = 113<br/>value = [111, 2]<br/>class = satisfied>, fillcolor="#e5833d"] ;
119 -> 127 ;
128 [label=<entropy = 0.0<br/>samples = 56<br/>value = [56, 0]<br/>class = satisfied>, fillcolor="#e58139"] ;
127 -> 128 ;
129 [label=<Flight Distance &le; 2368.0<br/>entropy = 0.219<br/>samples = 57<br/>value = [55, 2]<br/>class = satisfied>, fillcolor="#e68640"] ;
127 -> 129 ;
130 [label=<Arrival Delay in Minutes &le; 10.5<br/>entropy = 0.811<br/>samples = 8<br/>value = [6, 2]<br/>class = satisfied>, fillcolor="#eeab7b"] ;
129 -> 130 ;
131 [label=<Flight Distance &le; 2352.5<br/>entropy = 0.592<br/>samples = 7<br/>value = [6, 1]<br/>class = satisfied>, fillcolor="#e9965a"] ;
130 -> 131 ;
132 [label=<entropy = 0.0<br/>samples = 6<br/>value = [6, 0]<br/>class = satisfied>, fillcolor="#e58139"] ;
131 -> 132 ;
133 [label=<entropy = 0.0<br/>samples = 1<br/>value = [0, 1]<br/>class = dissatisfied>, fillcolor="#399de5"] ;
131 -> 133 ;
134 [label=<entropy = 0.0<br/>samples = 1<br/>value = [0, 1]<br/>class = dissatisfied>, fillcolor="#399de5"] ;
130 -> 134 ;
135 [label=<entropy = 0.0<br/>samples = 49<br/>value = [49, 0]<br/>class = satisfied>, fillcolor="#e58139"] ;
129 -> 135 ;
136 [label=<Departure/Arrival time convenient &le; 3.5<br/>entropy = 0.277<br/>samples = 356<br/>value = [339, 17]<br/>class = satisfied>, fillcolor="#e68743"] ;
32 -> 136 ;
137 [label=<Departure Delay in Minutes &le; 1.5<br/>entropy = 0.321<br/>samples = 291<br/>value = [274, 17]<br/>class = satisfied>, fillcolor="#e78945"] ;
136 -> 137 ;
138 [label=<Departure/Arrival time convenient &le; 2.5<br/>entropy = 0.201<br/>samples = 191<br/>value = [185, 6]<br/>class = satisfied>, fillcolor="#e6853f"] ;
137 -> 138 ;
139 [label=<Arrival Delay in Minutes &le; 27.5<br/>entropy = 0.374<br/>samples = 83<br/>value = [77, 6]<br/>class = satisfied>, fillcolor="#e78b48"] ;
138 -> 139 ;
140 [label=<Inflight wifi service &le; 3.5<br/>entropy = 0.331<br/>samples = 82<br/>value = [77, 5]<br/>class = satisfied>, fillcolor="#e78946"] ;
139 -> 140 ;
141 [label=<entropy = 0.0<br/>samples = 47<br/>value = [47, 0]<br/>class = satisfied>, fillcolor="#e58139"] ;
140 -> 141 ;
142 [label=<Flight Distance &le; 2331.5<br/>entropy = 0.592<br/>samples = 35<br/>value = [30, 5]<br/>class = satisfied>, fillcolor="#e9965a"] ;
140 -> 142 ;
143 [label=<entropy = 0.0<br/>samples = 14<br/>value = [14, 0]<br/>class = satisfied>, fillcolor="#e58139"] ;
142 -> 143 ;
144 [label=<Leg room service &le; 4.5<br/>entropy = 0.792<br/>samples = 21<br/>value = [16, 5]<br/>class = satisfied>, fillcolor="#eda877"] ;
142 -> 144 ;
145 [label=<Flight Distance &le; 2344.0<br/>entropy = 0.629<br/>samples = 19<br/>value = [16, 3]<br/>class = satisfied>, fillcolor="#ea995e"] ;
144 -> 145 ;
146 [label=<entropy = 0.0<br/>samples = 1<br/>value = [0, 1]<br/>class = dissatisfied>, fillcolor="#399de5"] ;
145 -> 146 ;
147 [label=<Age &le; 15.0<br/>entropy = 0.503<br/>samples = 18<br/>value = [16, 2]<br/>class = satisfied>, fillcolor="#e89152"] ;
145 -> 147 ;
148 [label=<entropy = 0.0<br/>samples = 1<br/>value = [0, 1]<br/>class = dissatisfied>, fillcolor="#399de5"] ;
147 -> 148 ;
149 [label=<On-board service &le; 4.5<br/>entropy = 0.323<br/>samples = 17<br/>value = [16, 1]<br/>class = satisfied>, fillcolor="#e78945"] ;
147 -> 149 ;
150 [label=<entropy = 0.0<br/>samples = 12<br/>value = [12, 0]<br/>class = satisfied>, fillcolor="#e58139"] ;
149 -> 150 ;
151 [label=<Leg room service &le; 2.5<br/>entropy = 0.722<br/>samples = 5<br/>value = [4, 1]<br/>class = satisfied>, fillcolor="#eca06a"] ;
149 -> 151 ;
152 [label=<entropy = 0.0<br/>samples = 3<br/>value = [3, 0]<br/>class = satisfied>, fillcolor="#e58139"] ;
151 -> 152 ;
153 [label=<Seat comfort &le; 1.5<br/>entropy = 1.0<br/>samples = 2<br/>value = [1, 1]<br/>class = satisfied>, fillcolor="#ffffff"] ;
151 -> 153 ;
154 [label=<entropy = 0.0<br/>samples = 1<br/>value = [1, 0]<br/>class = satisfied>, fillcolor="#e58139"] ;
153 -> 154 ;
155 [label=<entropy = 0.0<br/>samples = 1<br/>value = [0, 1]<br/>class = dissatisfied>, fillcolor="#399de5"] ;
153 -> 155 ;
156 [label=<entropy = 0.0<br/>samples = 2<br/>value = [0, 2]<br/>class = dissatisfied>, fillcolor="#399de5"] ;
144 -> 156 ;
157 [label=<entropy = 0.0<br/>samples = 1<br/>value = [0, 1]<br/>class = dissatisfied>, fillcolor="#399de5"] ;
139 -> 157 ;
158 [label=<entropy = 0.0<br/>samples = 108<br/>value = [108, 0]<br/>class = satisfied>, fillcolor="#e58139"] ;
138 -> 158 ;
159 [label=<Arrival Delay in Minutes &le; 0.5<br/>entropy = 0.5<br/>samples = 100<br/>value = [89, 11]<br/>class = satisfied>, fillcolor="#e89151"] ;
137 -> 159 ;
160 [label=<Age &le; 26.0<br/>entropy = 0.746<br/>samples = 33<br/>value = [26, 7]<br/>class = satisfied>, fillcolor="#eca36e"] ;
159 -> 160 ;
161 [label=<Flight Distance &le; 2601.5<br/>entropy = 0.84<br/>samples = 26<br/>value = [19, 7]<br/>class = satisfied>, fillcolor="#efaf82"] ;
160 -> 161 ;
162 [label=<Gate location &le; 3.5<br/>entropy = 0.544<br/>samples = 16<br/>value = [14, 2]<br/>class = satisfied>, fillcolor="#e99355"] ;
161 -> 162 ;
163 [label=<entropy = 0.0<br/>samples = 12<br/>value = [12, 0]<br/>class = satisfied>, fillcolor="#e58139"] ;
162 -> 163 ;
164 [label=<Inflight wifi service &le; 3.0<br/>entropy = 1.0<br/>samples = 4<br/>value = [2, 2]<br/>class = satisfied>, fillcolor="#ffffff"] ;
162 -> 164 ;
165 [label=<entropy = 0.0<br/>samples = 2<br/>value = [2, 0]<br/>class = satisfied>, fillcolor="#e58139"] ;
164 -> 165 ;
166 [label=<entropy = 0.0<br/>samples = 2<br/>value = [0, 2]<br/>class = dissatisfied>, fillcolor="#399de5"] ;
164 -> 166 ;
167 [label=<Checkin service &le; 4.5<br/>entropy = 1.0<br/>samples = 10<br/>value = [5, 5]<br/>class = satisfied>, fillcolor="#ffffff"] ;
161 -> 167 ;
168 [label=<Online boarding &le; 3.5<br/>entropy = 0.65<br/>samples = 6<br/>value = [1, 5]<br/>class = dissatisfied>, fillcolor="#61b1ea"] ;
167 -> 168 ;
169 [label=<entropy = 0.0<br/>samples = 4<br/>value = [0, 4]<br/>class = dissatisfied>, fillcolor="#399de5"] ;
168 -> 169 ;
170 [label=<Departure/Arrival time convenient &le; 2.5<br/>entropy = 1.0<br/>samples = 2<br/>value = [1, 1]<br/>class = satisfied>, fillcolor="#ffffff"] ;
168 -> 170 ;
171 [label=<entropy = 0.0<br/>samples = 1<br/>value = [0, 1]<br/>class = dissatisfied>, fillcolor="#399de5"] ;
170 -> 171 ;
172 [label=<entropy = 0.0<br/>samples = 1<br/>value = [1, 0]<br/>class = satisfied>, fillcolor="#e58139"] ;
170 -> 172 ;
173 [label=<entropy = 0.0<br/>samples = 4<br/>value = [4, 0]<br/>class = satisfied>, fillcolor="#e58139"] ;
167 -> 173 ;
174 [label=<entropy = 0.0<br/>samples = 7<br/>value = [7, 0]<br/>class = satisfied>, fillcolor="#e58139"] ;
160 -> 174 ;
175 [label=<Inflight entertainment &le; 2.5<br/>entropy = 0.326<br/>samples = 67<br/>value = [63, 4]<br/>class = satisfied>, fillcolor="#e78946"] ;
159 -> 175 ;
176 [label=<entropy = 0.0<br/>samples = 32<br/>value = [32, 0]<br/>class = satisfied>, fillcolor="#e58139"] ;
175 -> 176 ;
177 [label=<Flight Distance &le; 1977.0<br/>entropy = 0.513<br/>samples = 35<br/>value = [31, 4]<br/>class = satisfied>, fillcolor="#e89153"] ;
175 -> 177 ;
178 [label=<entropy = 0.0<br/>samples = 1<br/>value = [0, 1]<br/>class = dissatisfied>, fillcolor="#399de5"] ;
177 -> 178 ;
179 [label=<Gate location &le; 2.5<br/>entropy = 0.431<br/>samples = 34<br/>value = [31, 3]<br/>class = satisfied>, fillcolor="#e88d4c"] ;
177 -> 179 ;
180 [label=<Departure Delay in Minutes &le; 31.0<br/>entropy = 0.811<br/>samples = 12<br/>value = [9, 3]<br/>class = satisfied>, fillcolor="#eeab7b"] ;
179 -> 180 ;
181 [label=<entropy = 0.0<br/>samples = 6<br/>value = [6, 0]<br/>class = satisfied>, fillcolor="#e58139"] ;
180 -> 181 ;
182 [label=<Baggage handling &le; 4.5<br/>entropy = 1.0<br/>samples = 6<br/>value = [3, 3]<br/>class = satisfied>, fillcolor="#ffffff"] ;
180 -> 182 ;
183 [label=<entropy = 0.0<br/>samples = 2<br/>value = [0, 2]<br/>class = dissatisfied>, fillcolor="#399de5"] ;
182 -> 183 ;
184 [label=<Ease of Online booking &le; 1.5<br/>entropy = 0.811<br/>samples = 4<br/>value = [3, 1]<br/>class = satisfied>, fillcolor="#eeab7b"] ;
182 -> 184 ;
185 [label=<entropy = 0.0<br/>samples = 1<br/>value = [0, 1]<br/>class = dissatisfied>, fillcolor="#399de5"] ;
184 -> 185 ;
186 [label=<entropy = 0.0<br/>samples = 3<br/>value = [3, 0]<br/>class = satisfied>, fillcolor="#e58139"] ;
184 -> 186 ;
187 [label=<entropy = 0.0<br/>samples = 22<br/>value = [22, 0]<br/>class = satisfied>, fillcolor="#e58139"] ;
179 -> 187 ;
188 [label=<entropy = 0.0<br/>samples = 65<br/>value = [65, 0]<br/>class = satisfied>, fillcolor="#e58139"] ;
136 -> 188 ;
189 [label=<Departure/Arrival time convenient &le; 3.5<br/>entropy = 0.366<br/>samples = 17652<br/>value = [16414, 1238]<br/>class = satisfied>, fillcolor="#e78b48"] ;
7 -> 189 ;
190 [label=<Cleanliness &le; 4.5<br/>entropy = 0.553<br/>samples = 7657<br/>value = [6675.0, 982.0]<br/>class = satisfied>, fillcolor="#e99456"] ;
189 -> 190 ;
191 [label=<Checkin service &le; 4.5<br/>entropy = 0.452<br/>samples = 7087<br/>value = [6415, 672]<br/>class = satisfied>, fillcolor="#e88e4e"] ;
190 -> 191 ;
192 [label=<Flight Distance &le; 1045.5<br/>entropy = 0.394<br/>samples = 6784<br/>value = [6257, 527]<br/>class = satisfied>, fillcolor="#e78c4a"] ;
191 -> 192 ;
193 [label=<Type of Travel &le; 0.5<br/>entropy = 0.76<br/>samples = 723<br/>value = [564, 159]<br/>class = satisfied>, fillcolor="#eca571"] ;
192 -> 193 ;
194 [label=<Flight Distance &le; 745.0<br/>entropy = 0.892<br/>samples = 149<br/>value = [46, 103]<br/>class = dissatisfied>, fillcolor="#91c9f1"] ;
193 -> 194 ;
195 [label=<entropy = 0.0<br/>samples = 70<br/>value = [0, 70]<br/>class = dissatisfied>, fillcolor="#399de5"] ;
194 -> 195 ;
196 [label=<Gate location &le; 3.5<br/>entropy = 0.98<br/>samples = 79<br/>value = [46, 33]<br/>class = satisfied>, fillcolor="#f8dbc7"] ;
194 -> 196 ;
197 [label=<Age &le; 40.5<br/>entropy = 0.986<br/>samples = 58<br/>value = [25, 33]<br/>class = dissatisfied>, fillcolor="#cfe7f9"] ;
196 -> 197 ;
198 [label=<Food and drink &le; 4.0<br/>entropy = 0.323<br/>samples = 17<br/>value = [16, 1]<br/>class = satisfied>, fillcolor="#e78945"] ;
197 -> 198 ;
199 [label=<entropy = 0.0<br/>samples = 16<br/>value = [16, 0]<br/>class = satisfied>, fillcolor="#e58139"] ;
198 -> 199 ;
200 [label=<entropy = 0.0<br/>samples = 1<br/>value = [0, 1]<br/>class = dissatisfied>, fillcolor="#399de5"] ;
198 -> 200 ;
201 [label=<Baggage handling &le; 3.5<br/>entropy = 0.759<br/>samples = 41<br/>value = [9, 32]<br/>class = dissatisfied>, fillcolor="#71b9ec"] ;
197 -> 201 ;
202 [label=<Departure/Arrival time convenient &le; 2.5<br/>entropy = 0.976<br/>samples = 22<br/>value = [9, 13]<br/>class = dissatisfied>, fillcolor="#c2e1f7"] ;
201 -> 202 ;
203 [label=<Gate location &le; 2.5<br/>entropy = 0.971<br/>samples = 15<br/>value = [9, 6]<br/>class = satisfied>, fillcolor="#f6d5bd"] ;
202 -> 203 ;
204 [label=<Arrival Delay in Minutes &le; 5.5<br/>entropy = 0.811<br/>samples = 8<br/>value = [2, 6]<br/>class = dissatisfied>, fillcolor="#7bbeee"] ;
203 -> 204 ;
205 [label=<Departure Delay in Minutes &le; 1.5<br/>entropy = 1.0<br/>samples = 4<br/>value = [2, 2]<br/>class = satisfied>, fillcolor="#ffffff"] ;
204 -> 205 ;
206 [label=<Leg room service &le; 4.5<br/>entropy = 0.918<br/>samples = 3<br/>value = [1, 2]<br/>class = dissatisfied>, fillcolor="#9ccef2"] ;
205 -> 206 ;
207 [label=<entropy = 0.0<br/>samples = 2<br/>value = [0, 2]<br/>class = dissatisfied>, fillcolor="#399de5"] ;
206 -> 207 ;
208 [label=<entropy = 0.0<br/>samples = 1<br/>value = [1, 0]<br/>class = satisfied>, fillcolor="#e58139"] ;
206 -> 208 ;
209 [label=<entropy = 0.0<br/>samples = 1<br/>value = [1, 0]<br/>class = satisfied>, fillcolor="#e58139"] ;
205 -> 209 ;
210 [label=<entropy = 0.0<br/>samples = 4<br/>value = [0, 4]<br/>class = dissatisfied>, fillcolor="#399de5"] ;
204 -> 210 ;
211 [label=<entropy = 0.0<br/>samples = 7<br/>value = [7, 0]<br/>class = satisfied>, fillcolor="#e58139"] ;
203 -> 211 ;
212 [label=<entropy = 0.0<br/>samples = 7<br/>value = [0, 7]<br/>class = dissatisfied>, fillcolor="#399de5"] ;
202 -> 212 ;
213 [label=<entropy = 0.0<br/>samples = 19<br/>value = [0, 19]<br/>class = dissatisfied>, fillcolor="#399de5"] ;
201 -> 213 ;
214 [label=<entropy = 0.0<br/>samples = 21<br/>value = [21, 0]<br/>class = satisfied>, fillcolor="#e58139"] ;
196 -> 214 ;
215 [label=<Online support &le; 4.5<br/>entropy = 0.461<br/>samples = 574<br/>value = [518, 56]<br/>class = satisfied>, fillcolor="#e88f4e"] ;
193 -> 215 ;
216 [label=<Online boarding &le; 4.5<br/>entropy = 0.366<br/>samples = 556<br/>value = [517, 39]<br/>class = satisfied>, fillcolor="#e78b48"] ;
215 -> 216 ;
217 [label=<Inflight entertainment &le; 2.5<br/>entropy = 0.321<br/>samples = 549<br/>value = [517, 32]<br/>class = satisfied>, fillcolor="#e78945"] ;
216 -> 217 ;
218 [label=<Online support &le; 3.5<br/>entropy = 0.582<br/>samples = 151<br/>value = [130, 21]<br/>class = satisfied>, fillcolor="#e99559"] ;
217 -> 218 ;
219 [label=<Online boarding &le; 3.5<br/>entropy = 0.465<br/>samples = 142<br/>value = [128.0, 14.0]<br/>class = satisfied>, fillcolor="#e88f4f"] ;
218 -> 219 ;
220 [label=<Age &le; 57.5<br/>entropy = 0.31<br/>samples = 108<br/>value = [102, 6]<br/>class = satisfied>, fillcolor="#e78845"] ;
219 -> 220 ;
221 [label=<Flight Distance &le; 457.0<br/>entropy = 0.414<br/>samples = 72<br/>value = [66, 6]<br/>class = satisfied>, fillcolor="#e78c4b"] ;
220 -> 221 ;
222 [label=<Inflight wifi service &le; 1.5<br/>entropy = 0.691<br/>samples = 27<br/>value = [22, 5]<br/>class = satisfied>, fillcolor="#eb9e66"] ;
221 -> 222 ;
223 [label=<Departure Delay in Minutes &le; 31.0<br/>entropy = 0.811<br/>samples = 4<br/>value = [1, 3]<br/>class = dissatisfied>, fillcolor="#7bbeee"] ;
222 -> 223 ;
224 [label=<entropy = 0.0<br/>samples = 3<br/>value = [0, 3]<br/>class = dissatisfied>, fillcolor="#399de5"] ;
223 -> 224 ;
225 [label=<entropy = 0.0<br/>samples = 1<br/>value = [1, 0]<br/>class = satisfied>, fillcolor="#e58139"] ;
223 -> 225 ;
226 [label=<Flight Distance &le; 437.5<br/>entropy = 0.426<br/>samples = 23<br/>value = [21, 2]<br/>class = satisfied>, fillcolor="#e78d4c"] ;
222 -> 226 ;
227 [label=<Age &le; 56.0<br/>entropy = 0.267<br/>samples = 22<br/>value = [21, 1]<br/>class = satisfied>, fillcolor="#e68742"] ;
226 -> 227 ;
228 [label=<entropy = 0.0<br/>samples = 21<br/>value = [21, 0]<br/>class = satisfied>, fillcolor="#e58139"] ;
227 -> 228 ;
229 [label=<entropy = 0.0<br/>samples = 1<br/>value = [0, 1]<br/>class = dissatisfied>, fillcolor="#399de5"] ;
227 -> 229 ;
230 [label=<entropy = 0.0<br/>samples = 1<br/>value = [0, 1]<br/>class = dissatisfied>, fillcolor="#399de5"] ;
226 -> 230 ;
231 [label=<Inflight wifi service &le; 4.5<br/>entropy = 0.154<br/>samples = 45<br/>value = [44, 1]<br/>class = satisfied>, fillcolor="#e6843d"] ;
221 -> 231 ;
232 [label=<entropy = 0.0<br/>samples = 36<br/>value = [36, 0]<br/>class = satisfied>, fillcolor="#e58139"] ;
231 -> 232 ;
233 [label=<Online support &le; 1.5<br/>entropy = 0.503<br/>samples = 9<br/>value = [8, 1]<br/>class = satisfied>, fillcolor="#e89152"] ;
231 -> 233 ;
234 [label=<entropy = 0.0<br/>samples = 1<br/>value = [0, 1]<br/>class = dissatisfied>, fillcolor="#399de5"] ;
233 -> 234 ;
235 [label=<entropy = 0.0<br/>samples = 8<br/>value = [8, 0]<br/>class = satisfied>, fillcolor="#e58139"] ;
233 -> 235 ;
236 [label=<entropy = 0.0<br/>samples = 36<br/>value = [36, 0]<br/>class = satisfied>, fillcolor="#e58139"] ;
220 -> 236 ;
237 [label=<Gate location &le; 2.5<br/>entropy = 0.787<br/>samples = 34<br/>value = [26, 8]<br/>class = satisfied>, fillcolor="#eda876"] ;
219 -> 237 ;
238 [label=<Age &le; 54.5<br/>entropy = 0.932<br/>samples = 23<br/>value = [15, 8]<br/>class = satisfied>, fillcolor="#f3c4a3"] ;
237 -> 238 ;
239 [label=<Flight Distance &le; 844.5<br/>entropy = 1.0<br/>samples = 14<br/>value = [7, 7]<br/>class = satisfied>, fillcolor="#ffffff"] ;
238 -> 239 ;
240 [label=<Flight Distance &le; 421.5<br/>entropy = 0.881<br/>samples = 10<br/>value = [7, 3]<br/>class = satisfied>, fillcolor="#f0b78e"] ;
239 -> 240 ;
241 [label=<Food and drink &le; 1.5<br/>entropy = 0.811<br/>samples = 4<br/>value = [1, 3]<br/>class = dissatisfied>, fillcolor="#7bbeee"] ;
240 -> 241 ;
242 [label=<entropy = 0.0<br/>samples = 1<br/>value = [1, 0]<br/>class = satisfied>, fillcolor="#e58139"] ;
241 -> 242 ;
243 [label=<entropy = 0.0<br/>samples = 3<br/>value = [0, 3]<br/>class = dissatisfied>, fillcolor="#399de5"] ;
241 -> 243 ;
244 [label=<entropy = 0.0<br/>samples = 6<br/>value = [6, 0]<br/>class = satisfied>, fillcolor="#e58139"] ;
240 -> 244 ;
245 [label=<entropy = 0.0<br/>samples = 4<br/>value = [0, 4]<br/>class = dissatisfied>, fillcolor="#399de5"] ;
239 -> 245 ;
246 [label=<Inflight entertainment &le; 1.5<br/>entropy = 0.503<br/>samples = 9<br/>value = [8, 1]<br/>class = satisfied>, fillcolor="#e89152"] ;
238 -> 246 ;
247 [label=<Checkin service &le; 3.0<br/>entropy = 1.0<br/>samples = 2<br/>value = [1, 1]<br/>class = satisfied>, fillcolor="#ffffff"] ;
246 -> 247 ;
248 [label=<entropy = 0.0<br/>samples = 1<br/>value = [1, 0]<br/>class = satisfied>, fillcolor="#e58139"] ;
247 -> 248 ;
249 [label=<entropy = 0.0<br/>samples = 1<br/>value = [0, 1]<br/>class = dissatisfied>, fillcolor="#399de5"] ;
247 -> 249 ;
250 [label=<entropy = 0.0<br/>samples = 7<br/>value = [7, 0]<br/>class = satisfied>, fillcolor="#e58139"] ;
246 -> 250 ;
251 [label=<entropy = 0.0<br/>samples = 11<br/>value = [11, 0]<br/>class = satisfied>, fillcolor="#e58139"] ;
237 -> 251 ;
252 [label=<Flight Distance &le; 887.0<br/>entropy = 0.764<br/>samples = 9<br/>value = [2, 7]<br/>class = dissatisfied>, fillcolor="#72b9ec"] ;
218 -> 252 ;
253 [label=<entropy = 0.0<br/>samples = 7<br/>value = [0, 7]<br/>class = dissatisfied>, fillcolor="#399de5"] ;
252 -> 253 ;
254 [label=<entropy = 0.0<br/>samples = 2<br/>value = [2, 0]<br/>class = satisfied>, fillcolor="#e58139"] ;
252 -> 254 ;
255 [label=<Baggage handling &le; 4.5<br/>entropy = 0.182<br/>samples = 398<br/>value = [387, 11]<br/>class = satisfied>, fillcolor="#e6853f"] ;
217 -> 255 ;
256 [label=<Online support &le; 2.5<br/>entropy = 0.156<br/>samples = 396<br/>value = [387, 9]<br/>class = satisfied>, fillcolor="#e6843e"] ;
255 -> 256 ;
257 [label=<Arrival Delay in Minutes &le; 19.0<br/>entropy = 0.446<br/>samples = 43<br/>value = [39, 4]<br/>class = satisfied>, fillcolor="#e88e4d"] ;
256 -> 257 ;
258 [label=<Age &le; 63.5<br/>entropy = 0.196<br/>samples = 33<br/>value = [32, 1]<br/>class = satisfied>, fillcolor="#e6853f"] ;
257 -> 258 ;
259 [label=<entropy = 0.0<br/>samples = 29<br/>value = [29, 0]<br/>class = satisfied>, fillcolor="#e58139"] ;
258 -> 259 ;
260 [label=<Seat comfort &le; 2.5<br/>entropy = 0.811<br/>samples = 4<br/>value = [3, 1]<br/>class = satisfied>, fillcolor="#eeab7b"] ;
258 -> 260 ;
261 [label=<entropy = 0.0<br/>samples = 3<br/>value = [3, 0]<br/>class = satisfied>, fillcolor="#e58139"] ;
260 -> 261 ;
262 [label=<entropy = 0.0<br/>samples = 1<br/>value = [0, 1]<br/>class = dissatisfied>, fillcolor="#399de5"] ;
260 -> 262 ;
263 [label=<Departure/Arrival time convenient &le; 1.5<br/>entropy = 0.881<br/>samples = 10<br/>value = [7, 3]<br/>class = satisfied>, fillcolor="#f0b78e"] ;
257 -> 263 ;
264 [label=<Online boarding &le; 2.5<br/>entropy = 1.0<br/>samples = 6<br/>value = [3, 3]<br/>class = satisfied>, fillcolor="#ffffff"] ;
263 -> 264 ;
265 [label=<entropy = 0.0<br/>samples = 3<br/>value = [0, 3]<br/>class = dissatisfied>, fillcolor="#399de5"] ;
264 -> 265 ;
266 [label=<entropy = 0.0<br/>samples = 3<br/>value = [3, 0]<br/>class = satisfied>, fillcolor="#e58139"] ;
264 -> 266 ;
267 [label=<entropy = 0.0<br/>samples = 4<br/>value = [4, 0]<br/>class = satisfied>, fillcolor="#e58139"] ;
263 -> 267 ;
268 [label=<Checkin service &le; 2.5<br/>entropy = 0.107<br/>samples = 353<br/>value = [348, 5]<br/>class = satisfied>, fillcolor="#e5833c"] ;
256 -> 268 ;
269 [label=<entropy = 0.0<br/>samples = 169<br/>value = [169, 0]<br/>class = satisfied>, fillcolor="#e58139"] ;
268 -> 269 ;
270 [label=<Flight Distance &le; 968.0<br/>entropy = 0.18<br/>samples = 184<br/>value = [179, 5]<br/>class = satisfied>, fillcolor="#e6853f"] ;
268 -> 270 ;
271 [label=<Departure Delay in Minutes &le; 0.5<br/>entropy = 0.127<br/>samples = 171<br/>value = [168, 3]<br/>class = satisfied>, fillcolor="#e5833d"] ;
270 -> 271 ;
272 [label=<Arrival Delay in Minutes &le; 6.5<br/>entropy = 0.209<br/>samples = 91<br/>value = [88, 3]<br/>class = satisfied>, fillcolor="#e68540"] ;
271 -> 272 ;
273 [label=<Inflight wifi service &le; 4.5<br/>entropy = 0.098<br/>samples = 79<br/>value = [78, 1]<br/>class = satisfied>, fillcolor="#e5833c"] ;
272 -> 273 ;
274 [label=<entropy = 0.0<br/>samples = 63<br/>value = [63, 0]<br/>class = satisfied>, fillcolor="#e58139"] ;
273 -> 274 ;
275 [label=<Age &le; 47.5<br/>entropy = 0.337<br/>samples = 16<br/>value = [15, 1]<br/>class = satisfied>, fillcolor="#e78946"] ;
273 -> 275 ;
276 [label=<Age &le; 46.5<br/>entropy = 0.722<br/>samples = 5<br/>value = [4, 1]<br/>class = satisfied>, fillcolor="#eca06a"] ;
275 -> 276 ;
277 [label=<entropy = 0.0<br/>samples = 4<br/>value = [4, 0]<br/>class = satisfied>, fillcolor="#e58139"] ;
276 -> 277 ;
278 [label=<entropy = 0.0<br/>samples = 1<br/>value = [0, 1]<br/>class = dissatisfied>, fillcolor="#399de5"] ;
276 -> 278 ;
279 [label=<entropy = 0.0<br/>samples = 11<br/>value = [11, 0]<br/>class = satisfied>, fillcolor="#e58139"] ;
275 -> 279 ;
280 [label=<Ease of Online booking &le; 3.5<br/>entropy = 0.65<br/>samples = 12<br/>value = [10, 2]<br/>class = satisfied>, fillcolor="#ea9a61"] ;
272 -> 280 ;
281 [label=<Gate location &le; 2.5<br/>entropy = 0.439<br/>samples = 11<br/>value = [10, 1]<br/>class = satisfied>, fillcolor="#e88e4d"] ;
280 -> 281 ;
282 [label=<entropy = 0.0<br/>samples = 9<br/>value = [9, 0]<br/>class = satisfied>, fillcolor="#e58139"] ;
281 -> 282 ;
283 [label=<Class &le; 1.5<br/>entropy = 1.0<br/>samples = 2<br/>value = [1, 1]<br/>class = satisfied>, fillcolor="#ffffff"] ;
281 -> 283 ;
284 [label=<entropy = 0.0<br/>samples = 1<br/>value = [0, 1]<br/>class = dissatisfied>, fillcolor="#399de5"] ;
283 -> 284 ;
285 [label=<entropy = 0.0<br/>samples = 1<br/>value = [1, 0]<br/>class = satisfied>, fillcolor="#e58139"] ;
283 -> 285 ;
286 [label=<entropy = 0.0<br/>samples = 1<br/>value = [0, 1]<br/>class = dissatisfied>, fillcolor="#399de5"] ;
280 -> 286 ;
287 [label=<entropy = 0.0<br/>samples = 80<br/>value = [80, 0]<br/>class = satisfied>, fillcolor="#e58139"] ;
271 -> 287 ;
288 [label=<Flight Distance &le; 984.0<br/>entropy = 0.619<br/>samples = 13<br/>value = [11, 2]<br/>class = satisfied>, fillcolor="#ea985d"] ;
270 -> 288 ;
289 [label=<Age &le; 55.0<br/>entropy = 1.0<br/>samples = 4<br/>value = [2, 2]<br/>class = satisfied>, fillcolor="#ffffff"] ;
288 -> 289 ;
290 [label=<entropy = 0.0<br/>samples = 2<br/>value = [0, 2]<br/>class = dissatisfied>, fillcolor="#399de5"] ;
289 -> 290 ;
291 [label=<entropy = 0.0<br/>samples = 2<br/>value = [2, 0]<br/>class = satisfied>, fillcolor="#e58139"] ;
289 -> 291 ;
292 [label=<entropy = 0.0<br/>samples = 9<br/>value = [9, 0]<br/>class = satisfied>, fillcolor="#e58139"] ;
288 -> 292 ;
293 [label=<entropy = 0.0<br/>samples = 2<br/>value = [0, 2]<br/>class = dissatisfied>, fillcolor="#399de5"] ;
255 -> 293 ;
294 [label=<entropy = 0.0<br/>samples = 7<br/>value = [0, 7]<br/>class = dissatisfied>, fillcolor="#399de5"] ;
216 -> 294 ;
295 [label=<Checkin service &le; 1.5<br/>entropy = 0.31<br/>samples = 18<br/>value = [1, 17]<br/>class = dissatisfied>, fillcolor="#45a3e7"] ;
215 -> 295 ;
296 [label=<Age &le; 51.0<br/>entropy = 0.918<br/>samples = 3<br/>value = [1, 2]<br/>class = dissatisfied>, fillcolor="#9ccef2"] ;
295 -> 296 ;
297 [label=<entropy = 0.0<br/>samples = 1<br/>value = [1, 0]<br/>class = satisfied>, fillcolor="#e58139"] ;
296 -> 297 ;
298 [label=<entropy = 0.0<br/>samples = 2<br/>value = [0, 2]<br/>class = dissatisfied>, fillcolor="#399de5"] ;
296 -> 298 ;
299 [label=<entropy = 0.0<br/>samples = 15<br/>value = [0, 15]<br/>class = dissatisfied>, fillcolor="#399de5"] ;
295 -> 299 ;
300 [label=<Gate location &le; 3.5<br/>entropy = 0.33<br/>samples = 6061<br/>value = [5693, 368]<br/>class = satisfied>, fillcolor="#e78946"] ;
192 -> 300 ;
301 [label=<Ease of Online booking &le; 1.5<br/>entropy = 0.382<br/>samples = 4880<br/>value = [4517, 363]<br/>class = satisfied>, fillcolor="#e78b49"] ;
300 -> 301 ;
302 [label=<Inflight entertainment &le; 1.5<br/>entropy = 0.07<br/>samples = 948<br/>value = [940.0, 8.0]<br/>class = satisfied>, fillcolor="#e5823b"] ;
301 -> 302 ;
303 [label=<entropy = 0.0<br/>samples = 567<br/>value = [567, 0]<br/>class = satisfied>, fillcolor="#e58139"] ;
302 -> 303 ;
304 [label=<Type of Travel &le; 0.5<br/>entropy = 0.147<br/>samples = 381<br/>value = [373, 8]<br/>class = satisfied>, fillcolor="#e6843d"] ;
302 -> 304 ;
305 [label=<Flight Distance &le; 3591.5<br/>entropy = 0.036<br/>samples = 265<br/>value = [264, 1]<br/>class = satisfied>, fillcolor="#e5813a"] ;
304 -> 305 ;
306 [label=<entropy = 0.0<br/>samples = 250<br/>value = [250, 0]<br/>class = satisfied>, fillcolor="#e58139"] ;
305 -> 306 ;
307 [label=<Baggage handling &le; 1.5<br/>entropy = 0.353<br/>samples = 15<br/>value = [14, 1]<br/>class = satisfied>, fillcolor="#e78a47"] ;
305 -> 307 ;
308 [label=<entropy = 0.0<br/>samples = 1<br/>value = [0, 1]<br/>class = dissatisfied>, fillcolor="#399de5"] ;
307 -> 308 ;
309 [label=<entropy = 0.0<br/>samples = 14<br/>value = [14, 0]<br/>class = satisfied>, fillcolor="#e58139"] ;
307 -> 309 ;
310 [label=<Baggage handling &le; 4.5<br/>entropy = 0.329<br/>samples = 116<br/>value = [109, 7]<br/>class = satisfied>, fillcolor="#e78946"] ;
304 -> 310 ;
311 [label=<Arrival Delay in Minutes &le; 397.5<br/>entropy = 0.296<br/>samples = 115<br/>value = [109, 6]<br/>class = satisfied>, fillcolor="#e68844"] ;
310 -> 311 ;
312 [label=<Cleanliness &le; 1.5<br/>entropy = 0.26<br/>samples = 114<br/>value = [109, 5]<br/>class = satisfied>, fillcolor="#e68742"] ;
311 -> 312 ;
313 [label=<entropy = 0.0<br/>samples = 35<br/>value = [35, 0]<br/>class = satisfied>, fillcolor="#e58139"] ;
312 -> 313 ;
314 [label=<Baggage handling &le; 1.5<br/>entropy = 0.34<br/>samples = 79<br/>value = [74, 5]<br/>class = satisfied>, fillcolor="#e78a46"] ;
312 -> 314 ;
315 [label=<Age &le; 36.0<br/>entropy = 0.971<br/>samples = 5<br/>value = [3, 2]<br/>class = satisfied>, fillcolor="#f6d5bd"] ;
314 -> 315 ;
316 [label=<entropy = 0.0<br/>samples = 3<br/>value = [3, 0]<br/>class = satisfied>, fillcolor="#e58139"] ;
315 -> 316 ;
317 [label=<entropy = 0.0<br/>samples = 2<br/>value = [0, 2]<br/>class = dissatisfied>, fillcolor="#399de5"] ;
315 -> 317 ;
318 [label=<On-board service &le; 3.5<br/>entropy = 0.245<br/>samples = 74<br/>value = [71, 3]<br/>class = satisfied>, fillcolor="#e68641"] ;
314 -> 318 ;
319 [label=<entropy = 0.0<br/>samples = 50<br/>value = [50, 0]<br/>class = satisfied>, fillcolor="#e58139"] ;
318 -> 319 ;
320 [label=<Age &le; 41.5<br/>entropy = 0.544<br/>samples = 24<br/>value = [21, 3]<br/>class = satisfied>, fillcolor="#e99355"] ;
318 -> 320 ;
321 [label=<entropy = 0.0<br/>samples = 10<br/>value = [10, 0]<br/>class = satisfied>, fillcolor="#e58139"] ;
320 -> 321 ;
322 [label=<Age &le; 44.0<br/>entropy = 0.75<br/>samples = 14<br/>value = [11, 3]<br/>class = satisfied>, fillcolor="#eca36f"] ;
320 -> 322 ;
323 [label=<entropy = 0.0<br/>samples = 2<br/>value = [0, 2]<br/>class = dissatisfied>, fillcolor="#399de5"] ;
322 -> 323 ;
324 [label=<Leg room service &le; 2.5<br/>entropy = 0.414<br/>samples = 12<br/>value = [11, 1]<br/>class = satisfied>, fillcolor="#e78c4b"] ;
322 -> 324 ;
325 [label=<Departure/Arrival time convenient &le; 2.5<br/>entropy = 0.918<br/>samples = 3<br/>value = [2, 1]<br/>class = satisfied>, fillcolor="#f2c09c"] ;
324 -> 325 ;
326 [label=<entropy = 0.0<br/>samples = 1<br/>value = [0, 1]<br/>class = dissatisfied>, fillcolor="#399de5"] ;
325 -> 326 ;
327 [label=<entropy = 0.0<br/>samples = 2<br/>value = [2, 0]<br/>class = satisfied>, fillcolor="#e58139"] ;
325 -> 327 ;
328 [label=<entropy = 0.0<br/>samples = 9<br/>value = [9, 0]<br/>class = satisfied>, fillcolor="#e58139"] ;
324 -> 328 ;
329 [label=<entropy = 0.0<br/>samples = 1<br/>value = [0, 1]<br/>class = dissatisfied>, fillcolor="#399de5"] ;
311 -> 329 ;
330 [label=<entropy = 0.0<br/>samples = 1<br/>value = [0, 1]<br/>class = dissatisfied>, fillcolor="#399de5"] ;
310 -> 330 ;
331 [label=<On-board service &le; 3.5<br/>entropy = 0.437<br/>samples = 3932<br/>value = [3577, 355]<br/>class = satisfied>, fillcolor="#e88e4d"] ;
301 -> 331 ;
332 [label=<Baggage handling &le; 4.5<br/>entropy = 0.329<br/>samples = 2780<br/>value = [2612, 168]<br/>class = satisfied>, fillcolor="#e78946"] ;
331 -> 332 ;
333 [label=<Ease of Online booking &le; 3.5<br/>entropy = 0.298<br/>samples = 2712<br/>value = [2569, 143]<br/>class = satisfied>, fillcolor="#e68844"] ;
332 -> 333 ;
334 [label=<Inflight wifi service &le; 3.5<br/>entropy = 0.346<br/>samples = 2070<br/>value = [1936, 134]<br/>class = satisfied>, fillcolor="#e78a47"] ;
333 -> 334 ;
335 [label=<Online boarding &le; 3.5<br/>entropy = 0.284<br/>samples = 1999<br/>value = [1900, 99]<br/>class = satisfied>, fillcolor="#e68843"] ;
334 -> 335 ;
336 [label=<Cleanliness &le; 2.5<br/>entropy = 0.261<br/>samples = 1966<br/>value = [1879, 87]<br/>class = satisfied>, fillcolor="#e68742"] ;
335 -> 336 ;
337 [label=<Arrival Delay in Minutes &le; 40.5<br/>entropy = 0.449<br/>samples = 427<br/>value = [387, 40]<br/>class = satisfied>, fillcolor="#e88e4d"] ;
336 -> 337 ;
338 [label=<Baggage handling &le; 3.5<br/>entropy = 0.502<br/>samples = 361<br/>value = [321, 40]<br/>class = satisfied>, fillcolor="#e89152"] ;
337 -> 338 ;
339 [label=<Age &le; 55.5<br/>entropy = 0.432<br/>samples = 338<br/>value = [308, 30]<br/>class = satisfied>, fillcolor="#e88d4c"] ;
338 -> 339 ;
340 [label=<Flight Distance &le; 1241.5<br/>entropy = 0.491<br/>samples = 271<br/>value = [242, 29]<br/>class = satisfied>, fillcolor="#e89051"] ;
339 -> 340 ;
341 [label=<entropy = 0.0<br/>samples = 23<br/>value = [23, 0]<br/>class = satisfied>, fillcolor="#e58139"] ;
340 -> 341 ;
342 [label=<Food and drink &le; 3.5<br/>entropy = 0.52<br/>samples = 248<br/>value = [219, 29]<br/>class = satisfied>, fillcolor="#e89253"] ;
340 -> 342 ;
343 [label=<Arrival Delay in Minutes &le; 39.5<br/>entropy = 0.493<br/>samples = 241<br/>value = [215, 26]<br/>class = satisfied>, fillcolor="#e89051"] ;
342 -> 343 ;
344 [label=<Departure Delay in Minutes &le; 24.5<br/>entropy = 0.482<br/>samples = 240<br/>value = [215, 25]<br/>class = satisfied>, fillcolor="#e89050"] ;
343 -> 344 ;
345 [label=<Departure Delay in Minutes &le; 23.5<br/>entropy = 0.509<br/>samples = 221<br/>value = [196, 25]<br/>class = satisfied>, fillcolor="#e89152"] ;
344 -> 345 ;
346 [label=<Arrival Delay in Minutes &le; 14.5<br/>entropy = 0.497<br/>samples = 220<br/>value = [196, 24]<br/>class = satisfied>, fillcolor="#e89051"] ;
345 -> 346 ;
347 [label=<Leg room service &le; 1.5<br/>entropy = 0.523<br/>samples = 204<br/>value = [180, 24]<br/>class = satisfied>, fillcolor="#e89253"] ;
346 -> 347 ;
348 [label=<Flight Distance &le; 1691.5<br/>entropy = 0.196<br/>samples = 33<br/>value = [32, 1]<br/>class = satisfied>, fillcolor="#e6853f"] ;
347 -> 348 ;
349 [label=<Flight Distance &le; 1653.0<br/>entropy = 0.722<br/>samples = 5<br/>value = [4, 1]<br/>class = satisfied>, fillcolor="#eca06a"] ;
348 -> 349 ;
350 [label=<entropy = 0.0<br/>samples = 4<br/>value = [4, 0]<br/>class = satisfied>, fillcolor="#e58139"] ;
349 -> 350 ;
351 [label=<entropy = 0.0<br/>samples = 1<br/>value = [0, 1]<br/>class = dissatisfied>, fillcolor="#399de5"] ;
349 -> 351 ;
352 [label=<entropy = 0.0<br/>samples = 28<br/>value = [28, 0]<br/>class = satisfied>, fillcolor="#e58139"] ;
348 -> 352 ;
353 [label=<Leg room service &le; 2.5<br/>entropy = 0.57<br/>samples = 171<br/>value = [148, 23]<br/>class = satisfied>, fillcolor="#e99558"] ;
347 -> 353 ;
354 [label=<Departure Delay in Minutes &le; 0.5<br/>entropy = 0.787<br/>samples = 51<br/>value = [39, 12]<br/>class = satisfied>, fillcolor="#eda876"] ;
353 -> 354 ;
355 [label=<Online boarding &le; 2.5<br/>entropy = 0.503<br/>samples = 36<br/>value = [32, 4]<br/>class = satisfied>, fillcolor="#e89152"] ;
354 -> 355 ;
356 [label=<Age &le; 37.5<br/>entropy = 0.702<br/>samples = 21<br/>value = [17, 4]<br/>class = satisfied>, fillcolor="#eb9f68"] ;
355 -> 356 ;
357 [label=<entropy = 0.0<br/>samples = 8<br/>value = [8, 0]<br/>class = satisfied>, fillcolor="#e58139"] ;
356 -> 357 ;
358 [label=<Age &le; 41.5<br/>entropy = 0.89<br/>samples = 13<br/>value = [9, 4]<br/>class = satisfied>, fillcolor="#f1b991"] ;
356 -> 358 ;
359 [label=<Flight Distance &le; 1291.5<br/>entropy = 0.811<br/>samples = 4<br/>value = [1, 3]<br/>class = dissatisfied>, fillcolor="#7bbeee"] ;
358 -> 359 ;
360 [label=<entropy = 0.0<br/>samples = 1<br/>value = [1, 0]<br/>class = satisfied>, fillcolor="#e58139"] ;
359 -> 360 ;
361 [label=<entropy = 0.0<br/>samples = 3<br/>value = [0, 3]<br/>class = dissatisfied>, fillcolor="#399de5"] ;
359 -> 361 ;
362 [label=<Age &le; 52.5<br/>entropy = 0.503<br/>samples = 9<br/>value = [8, 1]<br/>class = satisfied>, fillcolor="#e89152"] ;
358 -> 362 ;
363 [label=<entropy = 0.0<br/>samples = 8<br/>value = [8, 0]<br/>class = satisfied>, fillcolor="#e58139"] ;
362 -> 363 ;
364 [label=<entropy = 0.0<br/>samples = 1<br/>value = [0, 1]<br/>class = dissatisfied>, fillcolor="#399de5"] ;
362 -> 364 ;
365 [label=<entropy = 0.0<br/>samples = 15<br/>value = [15, 0]<br/>class = satisfied>, fillcolor="#e58139"] ;
355 -> 365 ;
366 [label=<Age &le; 18.5<br/>entropy = 0.997<br/>samples = 15<br/>value = [7, 8]<br/>class = dissatisfied>, fillcolor="#e6f3fc"] ;
354 -> 366 ;
367 [label=<entropy = 0.0<br/>samples = 3<br/>value = [0, 3]<br/>class = dissatisfied>, fillcolor="#399de5"] ;
366 -> 367 ;
368 [label=<Age &le; 44.5<br/>entropy = 0.98<br/>samples = 12<br/>value = [7, 5]<br/>class = satisfied>, fillcolor="#f8dbc6"] ;
366 -> 368 ;
369 [label=<Online support &le; 1.5<br/>entropy = 0.881<br/>samples = 10<br/>value = [7, 3]<br/>class = satisfied>, fillcolor="#f0b78e"] ;
368 -> 369 ;
370 [label=<entropy = 0.0<br/>samples = 2<br/>value = [0, 2]<br/>class = dissatisfied>, fillcolor="#399de5"] ;
369 -> 370 ;
371 [label=<Gate location &le; 1.5<br/>entropy = 0.544<br/>samples = 8<br/>value = [7, 1]<br/>class = satisfied>, fillcolor="#e99355"] ;
369 -> 371 ;
372 [label=<Seat comfort &le; 2.5<br/>entropy = 1.0<br/>samples = 2<br/>value = [1, 1]<br/>class = satisfied>, fillcolor="#ffffff"] ;
371 -> 372 ;
373 [label=<entropy = 0.0<br/>samples = 1<br/>value = [1, 0]<br/>class = satisfied>, fillcolor="#e58139"] ;
372 -> 373 ;
374 [label=<entropy = 0.0<br/>samples = 1<br/>value = [0, 1]<br/>class = dissatisfied>, fillcolor="#399de5"] ;
372 -> 374 ;
375 [label=<entropy = 0.0<br/>samples = 6<br/>value = [6, 0]<br/>class = satisfied>, fillcolor="#e58139"] ;
371 -> 375 ;
376 [label=<entropy = 0.0<br/>samples = 2<br/>value = [0, 2]<br/>class = dissatisfied>, fillcolor="#399de5"] ;
368 -> 376 ;
377 [label=<Cleanliness &le; 1.5<br/>entropy = 0.442<br/>samples = 120<br/>value = [109, 11]<br/>class = satisfied>, fillcolor="#e88e4d"] ;
353 -> 377 ;
378 [label=<Age &le; 34.0<br/>entropy = 0.811<br/>samples = 28<br/>value = [21, 7]<br/>class = satisfied>, fillcolor="#eeab7b"] ;
377 -> 378 ;
379 [label=<entropy = 0.0<br/>samples = 10<br/>value = [10, 0]<br/>class = satisfied>, fillcolor="#e58139"] ;
378 -> 379 ;
380 [label=<Baggage handling &le; 2.5<br/>entropy = 0.964<br/>samples = 18<br/>value = [11, 7]<br/>class = satisfied>, fillcolor="#f6d1b7"] ;
378 -> 380 ;
381 [label=<Type of Travel &le; 0.5<br/>entropy = 0.837<br/>samples = 15<br/>value = [11, 4]<br/>class = satisfied>, fillcolor="#eeaf81"] ;
380 -> 381 ;
382 [label=<entropy = 0.0<br/>samples = 6<br/>value = [6, 0]<br/>class = satisfied>, fillcolor="#e58139"] ;
381 -> 382 ;
383 [label=<Food and drink &le; 2.5<br/>entropy = 0.991<br/>samples = 9<br/>value = [5, 4]<br/>class = satisfied>, fillcolor="#fae6d7"] ;
381 -> 383 ;
384 [label=<Arrival Delay in Minutes &le; 6.0<br/>entropy = 0.722<br/>samples = 5<br/>value = [4, 1]<br/>class = satisfied>, fillcolor="#eca06a"] ;
383 -> 384 ;
385 [label=<entropy = 0.0<br/>samples = 4<br/>value = [4, 0]<br/>class = satisfied>, fillcolor="#e58139"] ;
384 -> 385 ;
386 [label=<entropy = 0.0<br/>samples = 1<br/>value = [0, 1]<br/>class = dissatisfied>, fillcolor="#399de5"] ;
384 -> 386 ;
387 [label=<On-board service &le; 2.5<br/>entropy = 0.811<br/>samples = 4<br/>value = [1, 3]<br/>class = dissatisfied>, fillcolor="#7bbeee"] ;
383 -> 387 ;
388 [label=<entropy = 0.0<br/>samples = 3<br/>value = [0, 3]<br/>class = dissatisfied>, fillcolor="#399de5"] ;
387 -> 388 ;
389 [label=<entropy = 0.0<br/>samples = 1<br/>value = [1, 0]<br/>class = satisfied>, fillcolor="#e58139"] ;
387 -> 389 ;
390 [label=<entropy = 0.0<br/>samples = 3<br/>value = [0, 3]<br/>class = dissatisfied>, fillcolor="#399de5"] ;
380 -> 390 ;
391 [label=<Online boarding &le; 1.5<br/>entropy = 0.258<br/>samples = 92<br/>value = [88, 4]<br/>class = satisfied>, fillcolor="#e68742"] ;
377 -> 391 ;
392 [label=<entropy = 0.0<br/>samples = 1<br/>value = [0, 1]<br/>class = dissatisfied>, fillcolor="#399de5"] ;
391 -> 392 ;
393 [label=<On-board service &le; 1.5<br/>entropy = 0.209<br/>samples = 91<br/>value = [88, 3]<br/>class = satisfied>, fillcolor="#e68540"] ;
391 -> 393 ;
394 [label=<Departure/Arrival time convenient &le; 1.5<br/>entropy = 0.431<br/>samples = 34<br/>value = [31, 3]<br/>class = satisfied>, fillcolor="#e88d4c"] ;
393 -> 394 ;
395 [label=<entropy = 0.0<br/>samples = 13<br/>value = [13, 0]<br/>class = satisfied>, fillcolor="#e58139"] ;
394 -> 395 ;
396 [label=<Leg room service &le; 3.5<br/>entropy = 0.592<br/>samples = 21<br/>value = [18, 3]<br/>class = satisfied>, fillcolor="#e9965a"] ;
394 -> 396 ;
397 [label=<Flight Distance &le; 2035.5<br/>entropy = 0.918<br/>samples = 6<br/>value = [4, 2]<br/>class = satisfied>, fillcolor="#f2c09c"] ;
396 -> 397 ;
398 [label=<entropy = 0.0<br/>samples = 4<br/>value = [4, 0]<br/>class = satisfied>, fillcolor="#e58139"] ;
397 -> 398 ;
399 [label=<entropy = 0.0<br/>samples = 2<br/>value = [0, 2]<br/>class = dissatisfied>, fillcolor="#399de5"] ;
397 -> 399 ;
400 [label=<Flight Distance &le; 1364.5<br/>entropy = 0.353<br/>samples = 15<br/>value = [14, 1]<br/>class = satisfied>, fillcolor="#e78a47"] ;
396 -> 400 ;
401 [label=<entropy = 0.0<br/>samples = 1<br/>value = [0, 1]<br/>class = dissatisfied>, fillcolor="#399de5"] ;
400 -> 401 ;
402 [label=<entropy = 0.0<br/>samples = 14<br/>value = [14, 0]<br/>class = satisfied>, fillcolor="#e58139"] ;
400 -> 402 ;
403 [label=<entropy = 0.0<br/>samples = 57<br/>value = [57, 0]<br/>class = satisfied>, fillcolor="#e58139"] ;
393 -> 403 ;
404 [label=<entropy = 0.0<br/>samples = 16<br/>value = [16, 0]<br/>class = satisfied>, fillcolor="#e58139"] ;
346 -> 404 ;
405 [label=<entropy = 0.0<br/>samples = 1<br/>value = [0, 1]<br/>class = dissatisfied>, fillcolor="#399de5"] ;
345 -> 405 ;
406 [label=<entropy = 0.0<br/>samples = 19<br/>value = [19, 0]<br/>class = satisfied>, fillcolor="#e58139"] ;
344 -> 406 ;
407 [label=<entropy = 0.0<br/>samples = 1<br/>value = [0, 1]<br/>class = dissatisfied>, fillcolor="#399de5"] ;
343 -> 407 ;
408 [label=<Inflight wifi service &le; 2.5<br/>entropy = 0.985<br/>samples = 7<br/>value = [4, 3]<br/>class = satisfied>, fillcolor="#f8e0ce"] ;
342 -> 408 ;
409 [label=<entropy = 0.0<br/>samples = 3<br/>value = [3, 0]<br/>class = satisfied>, fillcolor="#e58139"] ;
408 -> 409 ;
410 [label=<Baggage handling &le; 2.5<br/>entropy = 0.811<br/>samples = 4<br/>value = [1, 3]<br/>class = dissatisfied>, fillcolor="#7bbeee"] ;
408 -> 410 ;
411 [label=<entropy = 0.0<br/>samples = 3<br/>value = [0, 3]<br/>class = dissatisfied>, fillcolor="#399de5"] ;
410 -> 411 ;
412 [label=<entropy = 0.0<br/>samples = 1<br/>value = [1, 0]<br/>class = satisfied>, fillcolor="#e58139"] ;
410 -> 412 ;
413 [label=<Baggage handling &le; 1.5<br/>entropy = 0.112<br/>samples = 67<br/>value = [66, 1]<br/>class = satisfied>, fillcolor="#e5833c"] ;
339 -> 413 ;
414 [label=<On-board service &le; 2.5<br/>entropy = 0.439<br/>samples = 11<br/>value = [10, 1]<br/>class = satisfied>, fillcolor="#e88e4d"] ;
413 -> 414 ;
415 [label=<entropy = 0.0<br/>samples = 9<br/>value = [9, 0]<br/>class = satisfied>, fillcolor="#e58139"] ;
414 -> 415 ;
416 [label=<Departure/Arrival time convenient &le; 2.5<br/>entropy = 1.0<br/>samples = 2<br/>value = [1, 1]<br/>class = satisfied>, fillcolor="#ffffff"] ;
414 -> 416 ;
417 [label=<entropy = 0.0<br/>samples = 1<br/>value = [0, 1]<br/>class = dissatisfied>, fillcolor="#399de5"] ;
416 -> 417 ;
418 [label=<entropy = 0.0<br/>samples = 1<br/>value = [1, 0]<br/>class = satisfied>, fillcolor="#e58139"] ;
416 -> 418 ;
419 [label=<entropy = 0.0<br/>samples = 56<br/>value = [56, 0]<br/>class = satisfied>, fillcolor="#e58139"] ;
413 -> 419 ;
420 [label=<Type of Travel &le; 0.5<br/>entropy = 0.988<br/>samples = 23<br/>value = [13.0, 10.0]<br/>class = satisfied>, fillcolor="#f9e2d1"] ;
338 -> 420 ;
421 [label=<Arrival Delay in Minutes &le; 15.5<br/>entropy = 0.371<br/>samples = 14<br/>value = [13, 1]<br/>class = satisfied>, fillcolor="#e78b48"] ;
420 -> 421 ;
422 [label=<entropy = 0.0<br/>samples = 13<br/>value = [13, 0]<br/>class = satisfied>, fillcolor="#e58139"] ;
421 -> 422 ;
423 [label=<entropy = 0.0<br/>samples = 1<br/>value = [0, 1]<br/>class = dissatisfied>, fillcolor="#399de5"] ;
421 -> 423 ;
424 [label=<entropy = 0.0<br/>samples = 9<br/>value = [0, 9]<br/>class = dissatisfied>, fillcolor="#399de5"] ;
420 -> 424 ;
425 [label=<entropy = 0.0<br/>samples = 66<br/>value = [66, 0]<br/>class = satisfied>, fillcolor="#e58139"] ;
337 -> 425 ;
426 [label=<Baggage handling &le; 1.5<br/>entropy = 0.197<br/>samples = 1539<br/>value = [1492, 47]<br/>class = satisfied>, fillcolor="#e6853f"] ;
336 -> 426 ;
427 [label=<Age &le; 39.0<br/>entropy = 0.89<br/>samples = 26<br/>value = [18, 8]<br/>class = satisfied>, fillcolor="#f1b991"] ;
426 -> 427 ;
428 [label=<entropy = 0.0<br/>samples = 10<br/>value = [10, 0]<br/>class = satisfied>, fillcolor="#e58139"] ;
427 -> 428 ;
429 [label=<Flight Distance &le; 2568.0<br/>entropy = 1.0<br/>samples = 16<br/>value = [8, 8]<br/>class = satisfied>, fillcolor="#ffffff"] ;
427 -> 429 ;
430 [label=<Age &le; 49.5<br/>entropy = 0.918<br/>samples = 12<br/>value = [4, 8]<br/>class = dissatisfied>, fillcolor="#9ccef2"] ;
429 -> 430 ;
431 [label=<entropy = 0.0<br/>samples = 7<br/>value = [0, 7]<br/>class = dissatisfied>, fillcolor="#399de5"] ;
430 -> 431 ;
432 [label=<Leg room service &le; 1.5<br/>entropy = 0.722<br/>samples = 5<br/>value = [4, 1]<br/>class = satisfied>, fillcolor="#eca06a"] ;
430 -> 432 ;
433 [label=<entropy = 0.0<br/>samples = 1<br/>value = [0, 1]<br/>class = dissatisfied>, fillcolor="#399de5"] ;
432 -> 433 ;
434 [label=<entropy = 0.0<br/>samples = 4<br/>value = [4, 0]<br/>class = satisfied>, fillcolor="#e58139"] ;
432 -> 434 ;
435 [label=<entropy = 0.0<br/>samples = 4<br/>value = [4, 0]<br/>class = satisfied>, fillcolor="#e58139"] ;
429 -> 435 ;
436 [label=<Online boarding &le; 1.5<br/>entropy = 0.173<br/>samples = 1513<br/>value = [1474, 39]<br/>class = satisfied>, fillcolor="#e6843e"] ;
426 -> 436 ;
437 [label=<Online support &le; 2.5<br/>entropy = 0.961<br/>samples = 13<br/>value = [8, 5]<br/>class = satisfied>, fillcolor="#f5d0b5"] ;
436 -> 437 ;
438 [label=<entropy = 0.0<br/>samples = 8<br/>value = [8, 0]<br/>class = satisfied>, fillcolor="#e58139"] ;
437 -> 438 ;
439 [label=<entropy = 0.0<br/>samples = 5<br/>value = [0, 5]<br/>class = dissatisfied>, fillcolor="#399de5"] ;
437 -> 439 ;
440 [label=<Flight Distance &le; 1770.5<br/>entropy = 0.156<br/>samples = 1500<br/>value = [1466, 34]<br/>class = satisfied>, fillcolor="#e6843e"] ;
436 -> 440 ;
441 [label=<Arrival Delay in Minutes &le; 1.5<br/>entropy = 0.258<br/>samples = 483<br/>value = [462, 21]<br/>class = satisfied>, fillcolor="#e68742"] ;
440 -> 441 ;
442 [label=<Age &le; 39.5<br/>entropy = 0.39<br/>samples = 261<br/>value = [241, 20]<br/>class = satisfied>, fillcolor="#e78b49"] ;
441 -> 442 ;
443 [label=<On-board service &le; 2.5<br/>entropy = 0.231<br/>samples = 133<br/>value = [128, 5]<br/>class = satisfied>, fillcolor="#e68641"] ;
442 -> 443 ;
444 [label=<entropy = 0.0<br/>samples = 85<br/>value = [85, 0]<br/>class = satisfied>, fillcolor="#e58139"] ;
443 -> 444 ;
445 [label=<Gate location &le; 2.5<br/>entropy = 0.482<br/>samples = 48<br/>value = [43, 5]<br/>class = satisfied>, fillcolor="#e89050"] ;
443 -> 445 ;
446 [label=<Type of Travel &le; 0.5<br/>entropy = 0.792<br/>samples = 21<br/>value = [16, 5]<br/>class = satisfied>, fillcolor="#eda877"] ;
445 -> 446 ;
447 [label=<Gate location &le; 1.5<br/>entropy = 0.971<br/>samples = 5<br/>value = [2, 3]<br/>class = dissatisfied>, fillcolor="#bddef6"] ;
446 -> 447 ;
448 [label=<entropy = 0.0<br/>samples = 3<br/>value = [0, 3]<br/>class = dissatisfied>, fillcolor="#399de5"] ;
447 -> 448 ;
449 [label=<entropy = 0.0<br/>samples = 2<br/>value = [2, 0]<br/>class = satisfied>, fillcolor="#e58139"] ;
447 -> 449 ;
450 [label=<Flight Distance &le; 1146.0<br/>entropy = 0.544<br/>samples = 16<br/>value = [14, 2]<br/>class = satisfied>, fillcolor="#e99355"] ;
446 -> 450 ;
451 [label=<entropy = 0.0<br/>samples = 1<br/>value = [0, 1]<br/>class = dissatisfied>, fillcolor="#399de5"] ;
450 -> 451 ;
452 [label=<Leg room service &le; 1.5<br/>entropy = 0.353<br/>samples = 15<br/>value = [14, 1]<br/>class = satisfied>, fillcolor="#e78a47"] ;
450 -> 452 ;
453 [label=<Departure/Arrival time convenient &le; 1.5<br/>entropy = 1.0<br/>samples = 2<br/>value = [1, 1]<br/>class = satisfied>, fillcolor="#ffffff"] ;
452 -> 453 ;
454 [label=<entropy = 0.0<br/>samples = 1<br/>value = [1, 0]<br/>class = satisfied>, fillcolor="#e58139"] ;
453 -> 454 ;
455 [label=<entropy = 0.0<br/>samples = 1<br/>value = [0, 1]<br/>class = dissatisfied>, fillcolor="#399de5"] ;
453 -> 455 ;
456 [label=<entropy = 0.0<br/>samples = 13<br/>value = [13, 0]<br/>class = satisfied>, fillcolor="#e58139"] ;
452 -> 456 ;
457 [label=<entropy = 0.0<br/>samples = 27<br/>value = [27, 0]<br/>class = satisfied>, fillcolor="#e58139"] ;
445 -> 457 ;
458 [label=<Cleanliness &le; 3.5<br/>entropy = 0.521<br/>samples = 128<br/>value = [113, 15]<br/>class = satisfied>, fillcolor="#e89253"] ;
442 -> 458 ;
459 [label=<Flight Distance &le; 1746.5<br/>entropy = 0.3<br/>samples = 75<br/>value = [71, 4]<br/>class = satisfied>, fillcolor="#e68844"] ;
458 -> 459 ;
460 [label=<Class &le; 1.5<br/>entropy = 0.187<br/>samples = 70<br/>value = [68, 2]<br/>class = satisfied>, fillcolor="#e6853f"] ;
459 -> 460 ;
461 [label=<entropy = 0.0<br/>samples = 54<br/>value = [54, 0]<br/>class = satisfied>, fillcolor="#e58139"] ;
460 -> 461 ;
462 [label=<Age &le; 42.0<br/>entropy = 0.544<br/>samples = 16<br/>value = [14, 2]<br/>class = satisfied>, fillcolor="#e99355"] ;
460 -> 462 ;
463 [label=<entropy = 0.0<br/>samples = 1<br/>value = [0, 1]<br/>class = dissatisfied>, fillcolor="#399de5"] ;
462 -> 463 ;
464 [label=<Leg room service &le; 2.5<br/>entropy = 0.353<br/>samples = 15<br/>value = [14, 1]<br/>class = satisfied>, fillcolor="#e78a47"] ;
462 -> 464 ;
465 [label=<Seat comfort &le; 2.5<br/>entropy = 0.811<br/>samples = 4<br/>value = [3, 1]<br/>class = satisfied>, fillcolor="#eeab7b"] ;
464 -> 465 ;
466 [label=<entropy = 0.0<br/>samples = 2<br/>value = [2, 0]<br/>class = satisfied>, fillcolor="#e58139"] ;
465 -> 466 ;
467 [label=<On-board service &le; 1.5<br/>entropy = 1.0<br/>samples = 2<br/>value = [1, 1]<br/>class = satisfied>, fillcolor="#ffffff"] ;
465 -> 467 ;
468 [label=<entropy = 0.0<br/>samples = 1<br/>value = [1, 0]<br/>class = satisfied>, fillcolor="#e58139"] ;
467 -> 468 ;
469 [label=<entropy = 0.0<br/>samples = 1<br/>value = [0, 1]<br/>class = dissatisfied>, fillcolor="#399de5"] ;
467 -> 469 ;
470 [label=<entropy = 0.0<br/>samples = 11<br/>value = [11, 0]<br/>class = satisfied>, fillcolor="#e58139"] ;
464 -> 470 ;
471 [label=<Flight Distance &le; 1752.0<br/>entropy = 0.971<br/>samples = 5<br/>value = [3, 2]<br/>class = satisfied>, fillcolor="#f6d5bd"] ;
459 -> 471 ;
472 [label=<entropy = 0.0<br/>samples = 2<br/>value = [0, 2]<br/>class = dissatisfied>, fillcolor="#399de5"] ;
471 -> 472 ;
473 [label=<entropy = 0.0<br/>samples = 3<br/>value = [3, 0]<br/>class = satisfied>, fillcolor="#e58139"] ;
471 -> 473 ;
474 [label=<Flight Distance &le; 1273.5<br/>entropy = 0.737<br/>samples = 53<br/>value = [42, 11]<br/>class = satisfied>, fillcolor="#eca26d"] ;
458 -> 474 ;
475 [label=<Baggage handling &le; 2.5<br/>entropy = 1.0<br/>samples = 12<br/>value = [6, 6]<br/>class = satisfied>, fillcolor="#ffffff"] ;
474 -> 475 ;
476 [label=<entropy = 0.0<br/>samples = 3<br/>value = [0, 3]<br/>class = dissatisfied>, fillcolor="#399de5"] ;
475 -> 476 ;
477 [label=<Baggage handling &le; 3.5<br/>entropy = 0.918<br/>samples = 9<br/>value = [6, 3]<br/>class = satisfied>, fillcolor="#f2c09c"] ;
475 -> 477 ;
478 [label=<Leg room service &le; 3.5<br/>entropy = 1.0<br/>samples = 6<br/>value = [3, 3]<br/>class = satisfied>, fillcolor="#ffffff"] ;
477 -> 478 ;
479 [label=<Age &le; 54.5<br/>entropy = 0.811<br/>samples = 4<br/>value = [1, 3]<br/>class = dissatisfied>, fillcolor="#7bbeee"] ;
478 -> 479 ;
480 [label=<entropy = 0.0<br/>samples = 3<br/>value = [0, 3]<br/>class = dissatisfied>, fillcolor="#399de5"] ;
479 -> 480 ;
481 [label=<entropy = 0.0<br/>samples = 1<br/>value = [1, 0]<br/>class = satisfied>, fillcolor="#e58139"] ;
479 -> 481 ;
482 [label=<entropy = 0.0<br/>samples = 2<br/>value = [2, 0]<br/>class = satisfied>, fillcolor="#e58139"] ;
478 -> 482 ;
483 [label=<entropy = 0.0<br/>samples = 3<br/>value = [3, 0]<br/>class = satisfied>, fillcolor="#e58139"] ;
477 -> 483 ;
484 [label=<Flight Distance &le; 1759.0<br/>entropy = 0.535<br/>samples = 41<br/>value = [36, 5]<br/>class = satisfied>, fillcolor="#e99254"] ;
474 -> 484 ;
485 [label=<Inflight entertainment &le; 2.5<br/>entropy = 0.398<br/>samples = 38<br/>value = [35, 3]<br/>class = satisfied>, fillcolor="#e78c4a"] ;
484 -> 485 ;
486 [label=<entropy = 0.0<br/>samples = 22<br/>value = [22, 0]<br/>class = satisfied>, fillcolor="#e58139"] ;
485 -> 486 ;
487 [label=<Arrival Delay in Minutes &le; 0.5<br/>entropy = 0.696<br/>samples = 16<br/>value = [13, 3]<br/>class = satisfied>, fillcolor="#eb9e67"] ;
485 -> 487 ;
488 [label=<On-board service &le; 1.5<br/>entropy = 0.567<br/>samples = 15<br/>value = [13, 2]<br/>class = satisfied>, fillcolor="#e99457"] ;
487 -> 488 ;
489 [label=<Departure/Arrival time convenient &le; 2.5<br/>entropy = 0.918<br/>samples = 6<br/>value = [4, 2]<br/>class = satisfied>, fillcolor="#f2c09c"] ;
488 -> 489 ;
490 [label=<entropy = 0.0<br/>samples = 3<br/>value = [3, 0]<br/>class = satisfied>, fillcolor="#e58139"] ;
489 -> 490 ;
491 [label=<Flight Distance &le; 1446.5<br/>entropy = 0.918<br/>samples = 3<br/>value = [1, 2]<br/>class = dissatisfied>, fillcolor="#9ccef2"] ;
489 -> 491 ;
492 [label=<entropy = 0.0<br/>samples = 1<br/>value = [1, 0]<br/>class = satisfied>, fillcolor="#e58139"] ;
491 -> 492 ;
493 [label=<entropy = 0.0<br/>samples = 2<br/>value = [0, 2]<br/>class = dissatisfied>, fillcolor="#399de5"] ;
491 -> 493 ;
494 [label=<entropy = 0.0<br/>samples = 9<br/>value = [9, 0]<br/>class = satisfied>, fillcolor="#e58139"] ;
488 -> 494 ;
495 [label=<entropy = 0.0<br/>samples = 1<br/>value = [0, 1]<br/>class = dissatisfied>, fillcolor="#399de5"] ;
487 -> 495 ;
496 [label=<Age &le; 54.5<br/>entropy = 0.918<br/>samples = 3<br/>value = [1, 2]<br/>class = dissatisfied>, fillcolor="#9ccef2"] ;
484 -> 496 ;
497 [label=<entropy = 0.0<br/>samples = 1<br/>value = [1, 0]<br/>class = satisfied>, fillcolor="#e58139"] ;
496 -> 497 ;
498 [label=<entropy = 0.0<br/>samples = 2<br/>value = [0, 2]<br/>class = dissatisfied>, fillcolor="#399de5"] ;
496 -> 498 ;
499 [label=<Baggage handling &le; 2.5<br/>entropy = 0.042<br/>samples = 222<br/>value = [221, 1]<br/>class = satisfied>, fillcolor="#e5823a"] ;
441 -> 499 ;
500 [label=<Cleanliness &le; 3.5<br/>entropy = 0.371<br/>samples = 14<br/>value = [13, 1]<br/>class = satisfied>, fillcolor="#e78b48"] ;
499 -> 500 ;
501 [label=<entropy = 0.0<br/>samples = 11<br/>value = [11, 0]<br/>class = satisfied>, fillcolor="#e58139"] ;
500 -> 501 ;
502 [label=<Type of Travel &le; 0.5<br/>entropy = 0.918<br/>samples = 3<br/>value = [2, 1]<br/>class = satisfied>, fillcolor="#f2c09c"] ;
500 -> 502 ;
503 [label=<entropy = 0.0<br/>samples = 2<br/>value = [2, 0]<br/>class = satisfied>, fillcolor="#e58139"] ;
502 -> 503 ;
504 [label=<entropy = 0.0<br/>samples = 1<br/>value = [0, 1]<br/>class = dissatisfied>, fillcolor="#399de5"] ;
502 -> 504 ;
505 [label=<entropy = 0.0<br/>samples = 208<br/>value = [208, 0]<br/>class = satisfied>, fillcolor="#e58139"] ;
499 -> 505 ;
506 [label=<Gate location &le; 2.5<br/>entropy = 0.099<br/>samples = 1017<br/>value = [1004, 13]<br/>class = satisfied>, fillcolor="#e5833c"] ;
440 -> 506 ;
507 [label=<Type of Travel &le; 0.5<br/>entropy = 0.151<br/>samples = 508<br/>value = [497, 11]<br/>class = satisfied>, fillcolor="#e6843d"] ;
506 -> 507 ;
508 [label=<Food and drink &le; 3.5<br/>entropy = 0.552<br/>samples = 39<br/>value = [34, 5]<br/>class = satisfied>, fillcolor="#e99456"] ;
507 -> 508 ;
509 [label=<Baggage handling &le; 3.5<br/>entropy = 0.406<br/>samples = 37<br/>value = [34, 3]<br/>class = satisfied>, fillcolor="#e78c4a"] ;
508 -> 509 ;
510 [label=<Inflight wifi service &le; 1.5<br/>entropy = 0.196<br/>samples = 33<br/>value = [32, 1]<br/>class = satisfied>, fillcolor="#e6853f"] ;
509 -> 510 ;
511 [label=<entropy = 0.0<br/>samples = 1<br/>value = [0, 1]<br/>class = dissatisfied>, fillcolor="#399de5"] ;
510 -> 511 ;
512 [label=<entropy = 0.0<br/>samples = 32<br/>value = [32, 0]<br/>class = satisfied>, fillcolor="#e58139"] ;
510 -> 512 ;
513 [label=<Arrival Delay in Minutes &le; 3.5<br/>entropy = 1.0<br/>samples = 4<br/>value = [2, 2]<br/>class = satisfied>, fillcolor="#ffffff"] ;
509 -> 513 ;
514 [label=<entropy = 0.0<br/>samples = 2<br/>value = [0, 2]<br/>class = dissatisfied>, fillcolor="#399de5"] ;
513 -> 514 ;
515 [label=<entropy = 0.0<br/>samples = 2<br/>value = [2, 0]<br/>class = satisfied>, fillcolor="#e58139"] ;
513 -> 515 ;
516 [label=<entropy = 0.0<br/>samples = 2<br/>value = [0, 2]<br/>class = dissatisfied>, fillcolor="#399de5"] ;
508 -> 516 ;
517 [label=<Age &le; 34.5<br/>entropy = 0.099<br/>samples = 469<br/>value = [463, 6]<br/>class = satisfied>, fillcolor="#e5833c"] ;
507 -> 517 ;
518 [label=<entropy = 0.0<br/>samples = 192<br/>value = [192, 0]<br/>class = satisfied>, fillcolor="#e58139"] ;
517 -> 518 ;
519 [label=<Flight Distance &le; 4160.5<br/>entropy = 0.151<br/>samples = 277<br/>value = [271, 6]<br/>class = satisfied>, fillcolor="#e6843d"] ;
517 -> 519 ;
520 [label=<Flight Distance &le; 2032.0<br/>entropy = 0.131<br/>samples = 276<br/>value = [271, 5]<br/>class = satisfied>, fillcolor="#e5833d"] ;
519 -> 520 ;
521 [label=<entropy = 0.0<br/>samples = 92<br/>value = [92, 0]<br/>class = satisfied>, fillcolor="#e58139"] ;
520 -> 521 ;
522 [label=<Flight Distance &le; 2034.5<br/>entropy = 0.18<br/>samples = 184<br/>value = [179, 5]<br/>class = satisfied>, fillcolor="#e6853f"] ;
520 -> 522 ;
523 [label=<Inflight wifi service &le; 2.5<br/>entropy = 1.0<br/>samples = 2<br/>value = [1, 1]<br/>class = satisfied>, fillcolor="#ffffff"] ;
522 -> 523 ;
524 [label=<entropy = 0.0<br/>samples = 1<br/>value = [1, 0]<br/>class = satisfied>, fillcolor="#e58139"] ;
523 -> 524 ;
525 [label=<entropy = 0.0<br/>samples = 1<br/>value = [0, 1]<br/>class = dissatisfied>, fillcolor="#399de5"] ;
523 -> 525 ;
526 [label=<On-board service &le; 1.5<br/>entropy = 0.152<br/>samples = 182<br/>value = [178, 4]<br/>class = satisfied>, fillcolor="#e6843d"] ;
522 -> 526 ;
527 [label=<entropy = 0.0<br/>samples = 65<br/>value = [65, 0]<br/>class = satisfied>, fillcolor="#e58139"] ;
526 -> 527 ;
528 [label=<Age &le; 40.5<br/>entropy = 0.215<br/>samples = 117<br/>value = [113, 4]<br/>class = satisfied>, fillcolor="#e68540"] ;
526 -> 528 ;
529 [label=<On-board service &le; 2.5<br/>entropy = 0.414<br/>samples = 36<br/>value = [33, 3]<br/>class = satisfied>, fillcolor="#e78c4b"] ;
528 -> 529 ;
530 [label=<entropy = 0.0<br/>samples = 13<br/>value = [13, 0]<br/>class = satisfied>, fillcolor="#e58139"] ;
529 -> 530 ;
531 [label=<Departure Delay in Minutes &le; 78.0<br/>entropy = 0.559<br/>samples = 23<br/>value = [20, 3]<br/>class = satisfied>, fillcolor="#e99457"] ;
529 -> 531 ;
532 [label=<Flight Distance &le; 2331.0<br/>entropy = 0.454<br/>samples = 21<br/>value = [19, 2]<br/>class = satisfied>, fillcolor="#e88e4e"] ;
531 -> 532 ;
533 [label=<Cleanliness &le; 3.5<br/>entropy = 0.764<br/>samples = 9<br/>value = [7, 2]<br/>class = satisfied>, fillcolor="#eca572"] ;
532 -> 533 ;
534 [label=<entropy = 0.0<br/>samples = 5<br/>value = [5, 0]<br/>class = satisfied>, fillcolor="#e58139"] ;
533 -> 534 ;
535 [label=<Flight Distance &le; 2227.5<br/>entropy = 1.0<br/>samples = 4<br/>value = [2, 2]<br/>class = satisfied>, fillcolor="#ffffff"] ;
533 -> 535 ;
536 [label=<entropy = 0.0<br/>samples = 2<br/>value = [2, 0]<br/>class = satisfied>, fillcolor="#e58139"] ;
535 -> 536 ;
537 [label=<entropy = 0.0<br/>samples = 2<br/>value = [0, 2]<br/>class = dissatisfied>, fillcolor="#399de5"] ;
535 -> 537 ;
538 [label=<entropy = 0.0<br/>samples = 12<br/>value = [12, 0]<br/>class = satisfied>, fillcolor="#e58139"] ;
532 -> 538 ;
539 [label=<Baggage handling &le; 3.5<br/>entropy = 1.0<br/>samples = 2<br/>value = [1, 1]<br/>class = satisfied>, fillcolor="#ffffff"] ;
531 -> 539 ;
540 [label=<entropy = 0.0<br/>samples = 1<br/>value = [1, 0]<br/>class = satisfied>, fillcolor="#e58139"] ;
539 -> 540 ;
541 [label=<entropy = 0.0<br/>samples = 1<br/>value = [0, 1]<br/>class = dissatisfied>, fillcolor="#399de5"] ;
539 -> 541 ;
542 [label=<Age &le; 60.5<br/>entropy = 0.096<br/>samples = 81<br/>value = [80, 1]<br/>class = satisfied>, fillcolor="#e5833b"] ;
528 -> 542 ;
543 [label=<entropy = 0.0<br/>samples = 71<br/>value = [71, 0]<br/>class = satisfied>, fillcolor="#e58139"] ;
542 -> 543 ;
544 [label=<Age &le; 61.5<br/>entropy = 0.469<br/>samples = 10<br/>value = [9, 1]<br/>class = satisfied>, fillcolor="#e88f4f"] ;
542 -> 544 ;
545 [label=<Food and drink &le; 1.5<br/>entropy = 1.0<br/>samples = 2<br/>value = [1, 1]<br/>class = satisfied>, fillcolor="#ffffff"] ;
544 -> 545 ;
546 [label=<entropy = 0.0<br/>samples = 1<br/>value = [1, 0]<br/>class = satisfied>, fillcolor="#e58139"] ;
545 -> 546 ;
547 [label=<entropy = 0.0<br/>samples = 1<br/>value = [0, 1]<br/>class = dissatisfied>, fillcolor="#399de5"] ;
545 -> 547 ;
548 [label=<entropy = 0.0<br/>samples = 8<br/>value = [8, 0]<br/>class = satisfied>, fillcolor="#e58139"] ;
544 -> 548 ;
549 [label=<entropy = 0.0<br/>samples = 1<br/>value = [0, 1]<br/>class = dissatisfied>, fillcolor="#399de5"] ;
519 -> 549 ;
550 [label=<On-board service &le; 2.5<br/>entropy = 0.037<br/>samples = 509<br/>value = [507.0, 2.0]<br/>class = satisfied>, fillcolor="#e5813a"] ;
506 -> 550 ;
551 [label=<entropy = 0.0<br/>samples = 338<br/>value = [338, 0]<br/>class = satisfied>, fillcolor="#e58139"] ;
550 -> 551 ;
552 [label=<Seat comfort &le; 2.5<br/>entropy = 0.092<br/>samples = 171<br/>value = [169, 2]<br/>class = satisfied>, fillcolor="#e5823b"] ;
550 -> 552 ;
553 [label=<entropy = 0.0<br/>samples = 101<br/>value = [101, 0]<br/>class = satisfied>, fillcolor="#e58139"] ;
552 -> 553 ;
554 [label=<Cleanliness &le; 3.5<br/>entropy = 0.187<br/>samples = 70<br/>value = [68, 2]<br/>class = satisfied>, fillcolor="#e6853f"] ;
552 -> 554 ;
555 [label=<entropy = 0.0<br/>samples = 37<br/>value = [37, 0]<br/>class = satisfied>, fillcolor="#e58139"] ;
554 -> 555 ;
556 [label=<Flight Distance &le; 1808.5<br/>entropy = 0.33<br/>samples = 33<br/>value = [31, 2]<br/>class = satisfied>, fillcolor="#e78946"] ;
554 -> 556 ;
557 [label=<Type of Travel &le; 0.5<br/>entropy = 1.0<br/>samples = 2<br/>value = [1, 1]<br/>class = satisfied>, fillcolor="#ffffff"] ;
556 -> 557 ;
558 [label=<entropy = 0.0<br/>samples = 1<br/>value = [1, 0]<br/>class = satisfied>, fillcolor="#e58139"] ;
557 -> 558 ;
559 [label=<entropy = 0.0<br/>samples = 1<br/>value = [0, 1]<br/>class = dissatisfied>, fillcolor="#399de5"] ;
557 -> 559 ;
560 [label=<Flight Distance &le; 3075.0<br/>entropy = 0.206<br/>samples = 31<br/>value = [30, 1]<br/>class = satisfied>, fillcolor="#e68540"] ;
556 -> 560 ;
561 [label=<entropy = 0.0<br/>samples = 27<br/>value = [27, 0]<br/>class = satisfied>, fillcolor="#e58139"] ;
560 -> 561 ;
562 [label=<Flight Distance &le; 3223.5<br/>entropy = 0.811<br/>samples = 4<br/>value = [3, 1]<br/>class = satisfied>, fillcolor="#eeab7b"] ;
560 -> 562 ;
563 [label=<entropy = 0.0<br/>samples = 1<br/>value = [0, 1]<br/>class = dissatisfied>, fillcolor="#399de5"] ;
562 -> 563 ;
564 [label=<entropy = 0.0<br/>samples = 3<br/>value = [3, 0]<br/>class = satisfied>, fillcolor="#e58139"] ;
562 -> 564 ;
565 [label=<Type of Travel &le; 0.5<br/>entropy = 0.946<br/>samples = 33<br/>value = [21, 12]<br/>class = satisfied>, fillcolor="#f4c9aa"] ;
335 -> 565 ;
566 [label=<On-board service &le; 1.5<br/>entropy = 0.592<br/>samples = 14<br/>value = [2, 12]<br/>class = dissatisfied>, fillcolor="#5aade9"] ;
565 -> 566 ;
567 [label=<entropy = 0.0<br/>samples = 2<br/>value = [2, 0]<br/>class = satisfied>, fillcolor="#e58139"] ;
566 -> 567 ;
568 [label=<entropy = 0.0<br/>samples = 12<br/>value = [0, 12]<br/>class = dissatisfied>, fillcolor="#399de5"] ;
566 -> 568 ;
569 [label=<entropy = 0.0<br/>samples = 19<br/>value = [19, 0]<br/>class = satisfied>, fillcolor="#e58139"] ;
565 -> 569 ;
570 [label=<Type of Travel &le; 0.5<br/>entropy = 1.0<br/>samples = 71<br/>value = [36, 35]<br/>class = satisfied>, fillcolor="#fefcfa"] ;
334 -> 570 ;
571 [label=<Age &le; 53.0<br/>entropy = 0.187<br/>samples = 35<br/>value = [1, 34]<br/>class = dissatisfied>, fillcolor="#3fa0e6"] ;
570 -> 571 ;
572 [label=<entropy = 0.0<br/>samples = 34<br/>value = [0, 34]<br/>class = dissatisfied>, fillcolor="#399de5"] ;
571 -> 572 ;
573 [label=<entropy = 0.0<br/>samples = 1<br/>value = [1, 0]<br/>class = satisfied>, fillcolor="#e58139"] ;
571 -> 573 ;
574 [label=<Food and drink &le; 3.5<br/>entropy = 0.183<br/>samples = 36<br/>value = [35, 1]<br/>class = satisfied>, fillcolor="#e6853f"] ;
570 -> 574 ;
575 [label=<entropy = 0.0<br/>samples = 35<br/>value = [35, 0]<br/>class = satisfied>, fillcolor="#e58139"] ;
574 -> 575 ;
576 [label=<entropy = 0.0<br/>samples = 1<br/>value = [0, 1]<br/>class = dissatisfied>, fillcolor="#399de5"] ;
574 -> 576 ;
577 [label=<Type of Travel &le; 0.5<br/>entropy = 0.106<br/>samples = 642<br/>value = [633, 9]<br/>class = satisfied>, fillcolor="#e5833c"] ;
333 -> 577 ;
578 [label=<Online boarding &le; 3.5<br/>entropy = 0.033<br/>samples = 587<br/>value = [585, 2]<br/>class = satisfied>, fillcolor="#e5813a"] ;
577 -> 578 ;
579 [label=<Flight Distance &le; 1493.0<br/>entropy = 0.371<br/>samples = 14<br/>value = [13, 1]<br/>class = satisfied>, fillcolor="#e78b48"] ;
578 -> 579 ;
580 [label=<entropy = 0.0<br/>samples = 1<br/>value = [0, 1]<br/>class = dissatisfied>, fillcolor="#399de5"] ;
579 -> 580 ;
581 [label=<entropy = 0.0<br/>samples = 13<br/>value = [13, 0]<br/>class = satisfied>, fillcolor="#e58139"] ;
579 -> 581 ;
582 [label=<Departure Delay in Minutes &le; 46.5<br/>entropy = 0.019<br/>samples = 573<br/>value = [572, 1]<br/>class = satisfied>, fillcolor="#e58139"] ;
578 -> 582 ;
583 [label=<entropy = 0.0<br/>samples = 535<br/>value = [535, 0]<br/>class = satisfied>, fillcolor="#e58139"] ;
582 -> 583 ;
584 [label=<Departure Delay in Minutes &le; 48.0<br/>entropy = 0.176<br/>samples = 38<br/>value = [37, 1]<br/>class = satisfied>, fillcolor="#e6843e"] ;
582 -> 584 ;
585 [label=<Cleanliness &le; 3.5<br/>entropy = 1.0<br/>samples = 2<br/>value = [1, 1]<br/>class = satisfied>, fillcolor="#ffffff"] ;
584 -> 585 ;
586 [label=<entropy = 0.0<br/>samples = 1<br/>value = [0, 1]<br/>class = dissatisfied>, fillcolor="#399de5"] ;
585 -> 586 ;
587 [label=<entropy = 0.0<br/>samples = 1<br/>value = [1, 0]<br/>class = satisfied>, fillcolor="#e58139"] ;
585 -> 587 ;
588 [label=<entropy = 0.0<br/>samples = 36<br/>value = [36, 0]<br/>class = satisfied>, fillcolor="#e58139"] ;
584 -> 588 ;
589 [label=<Inflight entertainment &le; 2.5<br/>entropy = 0.55<br/>samples = 55<br/>value = [48.0, 7.0]<br/>class = satisfied>, fillcolor="#e99356"] ;
577 -> 589 ;
590 [label=<entropy = 0.0<br/>samples = 20<br/>value = [20, 0]<br/>class = satisfied>, fillcolor="#e58139"] ;
589 -> 590 ;
591 [label=<Age &le; 53.0<br/>entropy = 0.722<br/>samples = 35<br/>value = [28, 7]<br/>class = satisfied>, fillcolor="#eca06a"] ;
589 -> 591 ;
592 [label=<Baggage handling &le; 2.5<br/>entropy = 0.855<br/>samples = 25<br/>value = [18.0, 7.0]<br/>class = satisfied>, fillcolor="#efb286"] ;
591 -> 592 ;
593 [label=<Departure Delay in Minutes &le; 21.5<br/>entropy = 0.722<br/>samples = 5<br/>value = [1, 4]<br/>class = dissatisfied>, fillcolor="#6ab6ec"] ;
592 -> 593 ;
594 [label=<Departure Delay in Minutes &le; 3.0<br/>entropy = 1.0<br/>samples = 2<br/>value = [1, 1]<br/>class = satisfied>, fillcolor="#ffffff"] ;
593 -> 594 ;
595 [label=<entropy = 0.0<br/>samples = 1<br/>value = [0, 1]<br/>class = dissatisfied>, fillcolor="#399de5"] ;
594 -> 595 ;
596 [label=<entropy = 0.0<br/>samples = 1<br/>value = [1, 0]<br/>class = satisfied>, fillcolor="#e58139"] ;
594 -> 596 ;
597 [label=<entropy = 0.0<br/>samples = 3<br/>value = [0, 3]<br/>class = dissatisfied>, fillcolor="#399de5"] ;
593 -> 597 ;
598 [label=<Age &le; 51.5<br/>entropy = 0.61<br/>samples = 20<br/>value = [17, 3]<br/>class = satisfied>, fillcolor="#ea975c"] ;
592 -> 598 ;
599 [label=<Food and drink &le; 2.5<br/>entropy = 0.485<br/>samples = 19<br/>value = [17, 2]<br/>class = satisfied>, fillcolor="#e89050"] ;
598 -> 599 ;
600 [label=<entropy = 0.0<br/>samples = 15<br/>value = [15, 0]<br/>class = satisfied>, fillcolor="#e58139"] ;
599 -> 600 ;
601 [label=<Online support &le; 3.5<br/>entropy = 1.0<br/>samples = 4<br/>value = [2, 2]<br/>class = satisfied>, fillcolor="#ffffff"] ;
599 -> 601 ;
602 [label=<entropy = 0.0<br/>samples = 2<br/>value = [2, 0]<br/>class = satisfied>, fillcolor="#e58139"] ;
601 -> 602 ;
603 [label=<entropy = 0.0<br/>samples = 2<br/>value = [0, 2]<br/>class = dissatisfied>, fillcolor="#399de5"] ;
601 -> 603 ;
604 [label=<entropy = 0.0<br/>samples = 1<br/>value = [0, 1]<br/>class = dissatisfied>, fillcolor="#399de5"] ;
598 -> 604 ;
605 [label=<entropy = 0.0<br/>samples = 10<br/>value = [10, 0]<br/>class = satisfied>, fillcolor="#e58139"] ;
591 -> 605 ;
606 [label=<Type of Travel &le; 0.5<br/>entropy = 0.949<br/>samples = 68<br/>value = [43, 25]<br/>class = satisfied>, fillcolor="#f4caac"] ;
332 -> 606 ;
607 [label=<Arrival Delay in Minutes &le; 7.5<br/>entropy = 0.536<br/>samples = 49<br/>value = [43, 6]<br/>class = satisfied>, fillcolor="#e99355"] ;
606 -> 607 ;
608 [label=<Checkin service &le; 3.5<br/>entropy = 0.684<br/>samples = 33<br/>value = [27, 6]<br/>class = satisfied>, fillcolor="#eb9d65"] ;
607 -> 608 ;
609 [label=<Online boarding &le; 3.5<br/>entropy = 0.881<br/>samples = 20<br/>value = [14, 6]<br/>class = satisfied>, fillcolor="#f0b78e"] ;
608 -> 609 ;
610 [label=<Cleanliness &le; 2.5<br/>entropy = 0.971<br/>samples = 15<br/>value = [9, 6]<br/>class = satisfied>, fillcolor="#f6d5bd"] ;
609 -> 610 ;
611 [label=<entropy = 0.0<br/>samples = 3<br/>value = [0, 3]<br/>class = dissatisfied>, fillcolor="#399de5"] ;
610 -> 611 ;
612 [label=<Arrival Delay in Minutes &le; 2.5<br/>entropy = 0.811<br/>samples = 12<br/>value = [9, 3]<br/>class = satisfied>, fillcolor="#eeab7b"] ;
610 -> 612 ;
613 [label=<Ease of Online booking &le; 4.5<br/>entropy = 0.469<br/>samples = 10<br/>value = [9, 1]<br/>class = satisfied>, fillcolor="#e88f4f"] ;
612 -> 613 ;
614 [label=<entropy = 0.0<br/>samples = 9<br/>value = [9, 0]<br/>class = satisfied>, fillcolor="#e58139"] ;
613 -> 614 ;
615 [label=<entropy = 0.0<br/>samples = 1<br/>value = [0, 1]<br/>class = dissatisfied>, fillcolor="#399de5"] ;
613 -> 615 ;
616 [label=<entropy = 0.0<br/>samples = 2<br/>value = [0, 2]<br/>class = dissatisfied>, fillcolor="#399de5"] ;
612 -> 616 ;
617 [label=<entropy = 0.0<br/>samples = 5<br/>value = [5, 0]<br/>class = satisfied>, fillcolor="#e58139"] ;
609 -> 617 ;
618 [label=<entropy = 0.0<br/>samples = 13<br/>value = [13, 0]<br/>class = satisfied>, fillcolor="#e58139"] ;
608 -> 618 ;
619 [label=<entropy = 0.0<br/>samples = 16<br/>value = [16, 0]<br/>class = satisfied>, fillcolor="#e58139"] ;
607 -> 619 ;
620 [label=<entropy = 0.0<br/>samples = 19<br/>value = [0, 19]<br/>class = dissatisfied>, fillcolor="#399de5"] ;
606 -> 620 ;
621 [label=<Baggage handling &le; 3.5<br/>entropy = 0.64<br/>samples = 1152<br/>value = [965, 187]<br/>class = satisfied>, fillcolor="#ea995f"] ;
331 -> 621 ;
622 [label=<On-board service &le; 4.5<br/>entropy = 0.292<br/>samples = 663<br/>value = [629, 34]<br/>class = satisfied>, fillcolor="#e68844"] ;
621 -> 622 ;
623 [label=<Arrival Delay in Minutes &le; 0.5<br/>entropy = 0.172<br/>samples = 586<br/>value = [571, 15]<br/>class = satisfied>, fillcolor="#e6843e"] ;
622 -> 623 ;
624 [label=<Type of Travel &le; 0.5<br/>entropy = 0.264<br/>samples = 312<br/>value = [298, 14]<br/>class = satisfied>, fillcolor="#e68742"] ;
623 -> 624 ;
625 [label=<Food and drink &le; 3.5<br/>entropy = 0.088<br/>samples = 181<br/>value = [179, 2]<br/>class = satisfied>, fillcolor="#e5823b"] ;
624 -> 625 ;
626 [label=<Gate location &le; 1.5<br/>entropy = 0.05<br/>samples = 180<br/>value = [179, 1]<br/>class = satisfied>, fillcolor="#e5823a"] ;
625 -> 626 ;
627 [label=<Baggage handling &le; 2.5<br/>entropy = 0.371<br/>samples = 14<br/>value = [13, 1]<br/>class = satisfied>, fillcolor="#e78b48"] ;
626 -> 627 ;
628 [label=<entropy = 0.0<br/>samples = 11<br/>value = [11, 0]<br/>class = satisfied>, fillcolor="#e58139"] ;
627 -> 628 ;
629 [label=<Ease of Online booking &le; 3.5<br/>entropy = 0.918<br/>samples = 3<br/>value = [2, 1]<br/>class = satisfied>, fillcolor="#f2c09c"] ;
627 -> 629 ;
630 [label=<entropy = 0.0<br/>samples = 1<br/>value = [0, 1]<br/>class = dissatisfied>, fillcolor="#399de5"] ;
629 -> 630 ;
631 [label=<entropy = 0.0<br/>samples = 2<br/>value = [2, 0]<br/>class = satisfied>, fillcolor="#e58139"] ;
629 -> 631 ;
632 [label=<entropy = 0.0<br/>samples = 166<br/>value = [166, 0]<br/>class = satisfied>, fillcolor="#e58139"] ;
626 -> 632 ;
633 [label=<entropy = 0.0<br/>samples = 1<br/>value = [0, 1]<br/>class = dissatisfied>, fillcolor="#399de5"] ;
625 -> 633 ;
634 [label=<Age &le; 35.5<br/>entropy = 0.442<br/>samples = 131<br/>value = [119, 12]<br/>class = satisfied>, fillcolor="#e88e4d"] ;
624 -> 634 ;
635 [label=<entropy = 0.0<br/>samples = 42<br/>value = [42, 0]<br/>class = satisfied>, fillcolor="#e58139"] ;
634 -> 635 ;
636 [label=<Age &le; 52.5<br/>entropy = 0.571<br/>samples = 89<br/>value = [77, 12]<br/>class = satisfied>, fillcolor="#e99558"] ;
634 -> 636 ;
637 [label=<Baggage handling &le; 1.5<br/>entropy = 0.696<br/>samples = 64<br/>value = [52, 12]<br/>class = satisfied>, fillcolor="#eb9e67"] ;
636 -> 637 ;
638 [label=<entropy = 0.0<br/>samples = 3<br/>value = [0, 3]<br/>class = dissatisfied>, fillcolor="#399de5"] ;
637 -> 638 ;
639 [label=<Cleanliness &le; 1.5<br/>entropy = 0.604<br/>samples = 61<br/>value = [52, 9]<br/>class = satisfied>, fillcolor="#ea975b"] ;
637 -> 639 ;
640 [label=<entropy = 0.0<br/>samples = 2<br/>value = [0, 2]<br/>class = dissatisfied>, fillcolor="#399de5"] ;
639 -> 640 ;
641 [label=<Online support &le; 2.5<br/>entropy = 0.525<br/>samples = 59<br/>value = [52, 7]<br/>class = satisfied>, fillcolor="#e89254"] ;
639 -> 641 ;
642 [label=<Age &le; 38.5<br/>entropy = 0.811<br/>samples = 24<br/>value = [18, 6]<br/>class = satisfied>, fillcolor="#eeab7b"] ;
641 -> 642 ;
643 [label=<entropy = 0.0<br/>samples = 6<br/>value = [6, 0]<br/>class = satisfied>, fillcolor="#e58139"] ;
642 -> 643 ;
644 [label=<Leg room service &le; 3.5<br/>entropy = 0.918<br/>samples = 18<br/>value = [12, 6]<br/>class = satisfied>, fillcolor="#f2c09c"] ;
642 -> 644 ;
645 [label=<Flight Distance &le; 1438.0<br/>entropy = 0.811<br/>samples = 16<br/>value = [12, 4]<br/>class = satisfied>, fillcolor="#eeab7b"] ;
644 -> 645 ;
646 [label=<entropy = 0.0<br/>samples = 2<br/>value = [0, 2]<br/>class = dissatisfied>, fillcolor="#399de5"] ;
645 -> 646 ;
647 [label=<Flight Distance &le; 2278.5<br/>entropy = 0.592<br/>samples = 14<br/>value = [12, 2]<br/>class = satisfied>, fillcolor="#e9965a"] ;
645 -> 647 ;
648 [label=<entropy = 0.0<br/>samples = 8<br/>value = [8, 0]<br/>class = satisfied>, fillcolor="#e58139"] ;
647 -> 648 ;
649 [label=<Cleanliness &le; 2.5<br/>entropy = 0.918<br/>samples = 6<br/>value = [4, 2]<br/>class = satisfied>, fillcolor="#f2c09c"] ;
647 -> 649 ;
650 [label=<entropy = 0.0<br/>samples = 2<br/>value = [0, 2]<br/>class = dissatisfied>, fillcolor="#399de5"] ;
649 -> 650 ;
651 [label=<entropy = 0.0<br/>samples = 4<br/>value = [4, 0]<br/>class = satisfied>, fillcolor="#e58139"] ;
649 -> 651 ;
652 [label=<entropy = 0.0<br/>samples = 2<br/>value = [0, 2]<br/>class = dissatisfied>, fillcolor="#399de5"] ;
644 -> 652 ;
653 [label=<Departure Delay in Minutes &le; 6.0<br/>entropy = 0.187<br/>samples = 35<br/>value = [34, 1]<br/>class = satisfied>, fillcolor="#e6853f"] ;
641 -> 653 ;
654 [label=<entropy = 0.0<br/>samples = 33<br/>value = [33, 0]<br/>class = satisfied>, fillcolor="#e58139"] ;
653 -> 654 ;
655 [label=<Gate location &le; 1.5<br/>entropy = 1.0<br/>samples = 2<br/>value = [1, 1]<br/>class = satisfied>, fillcolor="#ffffff"] ;
653 -> 655 ;
656 [label=<entropy = 0.0<br/>samples = 1<br/>value = [1, 0]<br/>class = satisfied>, fillcolor="#e58139"] ;
655 -> 656 ;
657 [label=<entropy = 0.0<br/>samples = 1<br/>value = [0, 1]<br/>class = dissatisfied>, fillcolor="#399de5"] ;
655 -> 657 ;
658 [label=<entropy = 0.0<br/>samples = 25<br/>value = [25, 0]<br/>class = satisfied>, fillcolor="#e58139"] ;
636 -> 658 ;
659 [label=<Departure Delay in Minutes &le; 316.5<br/>entropy = 0.035<br/>samples = 274<br/>value = [273, 1]<br/>class = satisfied>, fillcolor="#e5813a"] ;
623 -> 659 ;
660 [label=<entropy = 0.0<br/>samples = 273<br/>value = [273, 0]<br/>class = satisfied>, fillcolor="#e58139"] ;
659 -> 660 ;
661 [label=<entropy = 0.0<br/>samples = 1<br/>value = [0, 1]<br/>class = dissatisfied>, fillcolor="#399de5"] ;
659 -> 661 ;
662 [label=<Ease of Online booking &le; 3.5<br/>entropy = 0.806<br/>samples = 77<br/>value = [58, 19]<br/>class = satisfied>, fillcolor="#eeaa7a"] ;
622 -> 662 ;
663 [label=<Arrival Delay in Minutes &le; 21.5<br/>entropy = 0.954<br/>samples = 48<br/>value = [30, 18]<br/>class = satisfied>, fillcolor="#f5cdb0"] ;
662 -> 663 ;
664 [label=<Flight Distance &le; 3092.0<br/>entropy = 0.989<br/>samples = 32<br/>value = [14, 18]<br/>class = dissatisfied>, fillcolor="#d3e9f9"] ;
663 -> 664 ;
665 [label=<Departure/Arrival time convenient &le; 2.5<br/>entropy = 0.755<br/>samples = 23<br/>value = [5, 18]<br/>class = dissatisfied>, fillcolor="#70b8ec"] ;
664 -> 665 ;
666 [label=<entropy = 0.0<br/>samples = 11<br/>value = [0, 11]<br/>class = dissatisfied>, fillcolor="#399de5"] ;
665 -> 666 ;
667 [label=<Gate location &le; 2.5<br/>entropy = 0.98<br/>samples = 12<br/>value = [5, 7]<br/>class = dissatisfied>, fillcolor="#c6e3f8"] ;
665 -> 667 ;
668 [label=<entropy = 0.0<br/>samples = 3<br/>value = [3, 0]<br/>class = satisfied>, fillcolor="#e58139"] ;
667 -> 668 ;
669 [label=<Inflight entertainment &le; 1.5<br/>entropy = 0.764<br/>samples = 9<br/>value = [2, 7]<br/>class = dissatisfied>, fillcolor="#72b9ec"] ;
667 -> 669 ;
670 [label=<entropy = 0.0<br/>samples = 2<br/>value = [2, 0]<br/>class = satisfied>, fillcolor="#e58139"] ;
669 -> 670 ;
671 [label=<entropy = 0.0<br/>samples = 7<br/>value = [0, 7]<br/>class = dissatisfied>, fillcolor="#399de5"] ;
669 -> 671 ;
672 [label=<entropy = 0.0<br/>samples = 9<br/>value = [9, 0]<br/>class = satisfied>, fillcolor="#e58139"] ;
664 -> 672 ;
673 [label=<entropy = 0.0<br/>samples = 16<br/>value = [16, 0]<br/>class = satisfied>, fillcolor="#e58139"] ;
663 -> 673 ;
674 [label=<Departure Delay in Minutes &le; 159.0<br/>entropy = 0.216<br/>samples = 29<br/>value = [28, 1]<br/>class = satisfied>, fillcolor="#e68640"] ;
662 -> 674 ;
675 [label=<entropy = 0.0<br/>samples = 26<br/>value = [26, 0]<br/>class = satisfied>, fillcolor="#e58139"] ;
674 -> 675 ;
676 [label=<Arrival Delay in Minutes &le; 181.5<br/>entropy = 0.918<br/>samples = 3<br/>value = [2, 1]<br/>class = satisfied>, fillcolor="#f2c09c"] ;
674 -> 676 ;
677 [label=<entropy = 0.0<br/>samples = 1<br/>value = [0, 1]<br/>class = dissatisfied>, fillcolor="#399de5"] ;
676 -> 677 ;
678 [label=<entropy = 0.0<br/>samples = 2<br/>value = [2, 0]<br/>class = satisfied>, fillcolor="#e58139"] ;
676 -> 678 ;
679 [label=<Ease of Online booking &le; 3.5<br/>entropy = 0.896<br/>samples = 489<br/>value = [336, 153]<br/>class = satisfied>, fillcolor="#f1ba93"] ;
621 -> 679 ;
680 [label=<Cleanliness &le; 2.5<br/>entropy = 0.529<br/>samples = 267<br/>value = [235, 32]<br/>class = satisfied>, fillcolor="#e99254"] ;
679 -> 680 ;
681 [label=<Arrival Delay in Minutes &le; 42.0<br/>entropy = 0.995<br/>samples = 35<br/>value = [19, 16]<br/>class = satisfied>, fillcolor="#fbebe0"] ;
680 -> 681 ;
682 [label=<Type of Travel &le; 0.5<br/>entropy = 0.975<br/>samples = 27<br/>value = [11, 16]<br/>class = dissatisfied>, fillcolor="#c1e0f7"] ;
681 -> 682 ;
683 [label=<Food and drink &le; 1.5<br/>entropy = 0.811<br/>samples = 12<br/>value = [9, 3]<br/>class = satisfied>, fillcolor="#eeab7b"] ;
682 -> 683 ;
684 [label=<entropy = 0.0<br/>samples = 2<br/>value = [0, 2]<br/>class = dissatisfied>, fillcolor="#399de5"] ;
683 -> 684 ;
685 [label=<Cleanliness &le; 1.5<br/>entropy = 0.469<br/>samples = 10<br/>value = [9, 1]<br/>class = satisfied>, fillcolor="#e88f4f"] ;
683 -> 685 ;
686 [label=<entropy = 0.0<br/>samples = 8<br/>value = [8, 0]<br/>class = satisfied>, fillcolor="#e58139"] ;
685 -> 686 ;
687 [label=<Arrival Delay in Minutes &le; 10.5<br/>entropy = 1.0<br/>samples = 2<br/>value = [1, 1]<br/>class = satisfied>, fillcolor="#ffffff"] ;
685 -> 687 ;
688 [label=<entropy = 0.0<br/>samples = 1<br/>value = [1, 0]<br/>class = satisfied>, fillcolor="#e58139"] ;
687 -> 688 ;
689 [label=<entropy = 0.0<br/>samples = 1<br/>value = [0, 1]<br/>class = dissatisfied>, fillcolor="#399de5"] ;
687 -> 689 ;
690 [label=<Age &le; 29.5<br/>entropy = 0.567<br/>samples = 15<br/>value = [2, 13]<br/>class = dissatisfied>, fillcolor="#57ace9"] ;
682 -> 690 ;
691 [label=<entropy = 0.0<br/>samples = 2<br/>value = [2, 0]<br/>class = satisfied>, fillcolor="#e58139"] ;
690 -> 691 ;
692 [label=<entropy = 0.0<br/>samples = 13<br/>value = [0, 13]<br/>class = dissatisfied>, fillcolor="#399de5"] ;
690 -> 692 ;
693 [label=<entropy = 0.0<br/>samples = 8<br/>value = [8, 0]<br/>class = satisfied>, fillcolor="#e58139"] ;
681 -> 693 ;
694 [label=<On-board service &le; 4.5<br/>entropy = 0.362<br/>samples = 232<br/>value = [216, 16]<br/>class = satisfied>, fillcolor="#e78a48"] ;
680 -> 694 ;
695 [label=<Baggage handling &le; 4.5<br/>entropy = 0.215<br/>samples = 205<br/>value = [198.0, 7.0]<br/>class = satisfied>, fillcolor="#e68540"] ;
694 -> 695 ;
696 [label=<Type of Travel &le; 0.5<br/>entropy = 0.115<br/>samples = 194<br/>value = [191, 3]<br/>class = satisfied>, fillcolor="#e5833c"] ;
695 -> 696 ;
697 [label=<Gate location &le; 2.5<br/>entropy = 0.283<br/>samples = 61<br/>value = [58, 3]<br/>class = satisfied>, fillcolor="#e68843"] ;
696 -> 697 ;
698 [label=<Departure/Arrival time convenient &le; 2.5<br/>entropy = 0.918<br/>samples = 9<br/>value = [6, 3]<br/>class = satisfied>, fillcolor="#f2c09c"] ;
697 -> 698 ;
699 [label=<Arrival Delay in Minutes &le; 28.5<br/>entropy = 0.811<br/>samples = 4<br/>value = [1, 3]<br/>class = dissatisfied>, fillcolor="#7bbeee"] ;
698 -> 699 ;
700 [label=<entropy = 0.0<br/>samples = 3<br/>value = [0, 3]<br/>class = dissatisfied>, fillcolor="#399de5"] ;
699 -> 700 ;
701 [label=<entropy = 0.0<br/>samples = 1<br/>value = [1, 0]<br/>class = satisfied>, fillcolor="#e58139"] ;
699 -> 701 ;
702 [label=<entropy = 0.0<br/>samples = 5<br/>value = [5, 0]<br/>class = satisfied>, fillcolor="#e58139"] ;
698 -> 702 ;
703 [label=<entropy = 0.0<br/>samples = 52<br/>value = [52, 0]<br/>class = satisfied>, fillcolor="#e58139"] ;
697 -> 703 ;
704 [label=<entropy = 0.0<br/>samples = 133<br/>value = [133, 0]<br/>class = satisfied>, fillcolor="#e58139"] ;
696 -> 704 ;
705 [label=<Type of Travel &le; 0.5<br/>entropy = 0.946<br/>samples = 11<br/>value = [7, 4]<br/>class = satisfied>, fillcolor="#f4c9aa"] ;
695 -> 705 ;
706 [label=<entropy = 0.0<br/>samples = 7<br/>value = [7, 0]<br/>class = satisfied>, fillcolor="#e58139"] ;
705 -> 706 ;
707 [label=<entropy = 0.0<br/>samples = 4<br/>value = [0, 4]<br/>class = dissatisfied>, fillcolor="#399de5"] ;
705 -> 707 ;
708 [label=<Arrival Delay in Minutes &le; 17.0<br/>entropy = 0.918<br/>samples = 27<br/>value = [18, 9]<br/>class = satisfied>, fillcolor="#f2c09c"] ;
694 -> 708 ;
709 [label=<Cleanliness &le; 3.5<br/>entropy = 0.971<br/>samples = 15<br/>value = [6, 9]<br/>class = dissatisfied>, fillcolor="#bddef6"] ;
708 -> 709 ;
710 [label=<entropy = 0.0<br/>samples = 3<br/>value = [3, 0]<br/>class = satisfied>, fillcolor="#e58139"] ;
709 -> 710 ;
711 [label=<Departure/Arrival time convenient &le; 0.5<br/>entropy = 0.811<br/>samples = 12<br/>value = [3, 9]<br/>class = dissatisfied>, fillcolor="#7bbeee"] ;
709 -> 711 ;
712 [label=<entropy = 0.0<br/>samples = 2<br/>value = [2, 0]<br/>class = satisfied>, fillcolor="#e58139"] ;
711 -> 712 ;
713 [label=<Inflight entertainment &le; 1.5<br/>entropy = 0.469<br/>samples = 10<br/>value = [1, 9]<br/>class = dissatisfied>, fillcolor="#4fa8e8"] ;
711 -> 713 ;
714 [label=<entropy = 0.0<br/>samples = 1<br/>value = [1, 0]<br/>class = satisfied>, fillcolor="#e58139"] ;
713 -> 714 ;
715 [label=<entropy = 0.0<br/>samples = 9<br/>value = [0, 9]<br/>class = dissatisfied>, fillcolor="#399de5"] ;
713 -> 715 ;
716 [label=<entropy = 0.0<br/>samples = 12<br/>value = [12, 0]<br/>class = satisfied>, fillcolor="#e58139"] ;
708 -> 716 ;
